<?xml version="1.0"?>
<opencv_storage>
<opencv_ml_svm>
  <format>3</format>
  <svmType>C_SVC</svmType>
  <kernel>
    <type>LINEAR</type></kernel>
  <C>1.</C>
  <term_criteria><iterations>1000</iterations></term_criteria>
  <var_count>1600</var_count>
  <class_count>10</class_count>
  <class_labels type_id="opencv-matrix">
    <rows>10</rows>
    <cols>1</cols>
    <dt>i</dt>
    <data>
      0 1 2 3 4 5 6 7 8 9</data></class_labels>
  <sv_total>45</sv_total>
  <support_vectors>
    <_>
      -1.01643954e-20 -1.01643954e-20 -1.01643954e-20 -1.01643954e-20
      -1.01643954e-20 -1.01643954e-20 -1.01643954e-20 -1.01643954e-20
      -5.78498941e-07 -2.01391504e-06 -5.15565216e-06 -6.20039327e-06
      -6.25649000e-06 -6.33829723e-06 -8.90333740e-06 -1.17407872e-05
      -1.40822840e-05 -1.28575821e-05 -1.12797616e-05 -1.01870546e-05
      -9.89103228e-06 -8.35920218e-06 -5.73302032e-06 -2.86002955e-06
      5.54823600e-06 3.66163749e-06 -3.38907989e-06 -6.49840604e-06
      -3.92765469e-06 -2.21382061e-06 -2.17291699e-06 -1.32478635e-06
      -9.34941013e-08 -1.16867627e-08 -1.01643954e-20 -1.01643954e-20
      -1.01643954e-20 -1.01643954e-20 -1.01643954e-20 -1.01643954e-20
      -1.01643954e-20 -1.01643954e-20 -1.01643954e-20 -1.01643954e-20
      -1.01643954e-20 -1.01643954e-20 -1.01643954e-20 -1.01643954e-20
      -5.78498941e-07 -2.01391504e-06 -5.23865492e-06 -6.70599775e-06
      -6.56963812e-06 -7.08570860e-06 -9.51755010e-06 -1.17931731e-05
      -1.35267228e-05 -1.23698828e-05 -1.11488207e-05 -1.01993555e-05
      -9.91010802e-06 -8.30086992e-06 -4.68201051e-06 -1.73285798e-06
      4.68862254e-06 2.31673425e-06 -4.68539793e-06 -8.20771584e-06
      -6.56011480e-06 -4.33419700e-06 -2.78888433e-06 -1.36452138e-06
      -1.23879687e-07 -1.51927910e-08 -1.01643954e-20 -1.01643954e-20
      -1.01643954e-20 -1.01643954e-20 -1.01643954e-20 -1.01643954e-20
      -1.01643954e-20 -1.01643954e-20 -1.01643954e-20 -1.01643954e-20
      -1.01643954e-20 -1.01643954e-20 -1.01643954e-20 -1.01643954e-20
      -5.78498941e-07 -2.07538073e-06 -5.46779575e-06 -7.61332103e-06
      -6.98713984e-06 -8.01265469e-06 -1.01180258e-05 -1.15670282e-05
      -1.24255284e-05 -1.14010672e-05 -1.07588685e-05 -1.02234244e-05
      -9.92725109e-06 -8.19812703e-06 -3.17912077e-06 -1.31170665e-07
      3.43195779e-06 4.67067480e-07 -6.55969143e-06 -1.07276746e-05
      -1.06103980e-05 -7.64448941e-06 -3.90361765e-06 -1.49907112e-06
      -1.97556943e-07 -2.10361719e-08 -1.01643954e-20 -1.01643954e-20
      -1.01643954e-20 -1.01643954e-20 -1.01643954e-20 -1.01643954e-20
      -1.01643954e-20 -1.01643954e-20 -1.01643954e-20 -1.01643954e-20
      -1.01643954e-20 -1.01643954e-20 -1.01643954e-20 -1.01643954e-20
      -2.13599697e-06 -4.76583955e-06 -7.61634419e-06 -1.03804732e-05
      -9.21185256e-06 -9.93757203e-06 -1.13235819e-05 -1.19388615e-05
      -1.18580665e-05 -1.09743751e-05 -8.93694323e-06 -7.48373441e-06
      -7.26521694e-06 -6.54698943e-06 -1.81608175e-06 1.45660727e-06
      1.99186206e-06 -1.81568066e-06 -8.99925089e-06 -1.47020646e-05
      -1.49171519e-05 -1.11234986e-05 -5.86720489e-06 -2.24869541e-06
      -3.63863535e-07 -2.22048495e-08 -1.01643954e-20 -1.01643954e-20
      -1.01643954e-20 -1.01643954e-20 -1.01643954e-20 -1.01643954e-20
      -1.01643954e-20 -1.01643954e-20 -1.01643954e-20 -1.01643954e-20
      -1.01643954e-20 -1.01643954e-20 -7.51297335e-08 -4.71252093e-07
      -4.50093376e-06 -8.24376730e-06 -1.06021998e-05 -1.33834410e-05
      -1.09642488e-05 -9.90386525e-06 -1.01888390e-05 -9.97949519e-06
      -8.72996225e-06 -7.24674646e-06 -4.67368454e-06 -3.20552886e-06
      -2.81325129e-06 -2.06102868e-06 1.25019199e-06 3.09935876e-06
      1.46495188e-06 -2.95457971e-06 -1.02396043e-05 -1.71948868e-05
      -1.79620383e-05 -1.40824750e-05 -7.92440096e-06 -3.31695946e-06
      -6.32098192e-07 -2.22048495e-08 -1.01643954e-20 -1.01643954e-20
      -1.01643954e-20 -1.01643954e-20 -1.01643954e-20 -1.01643954e-20
      -1.01643954e-20 -1.01643954e-20 -1.01643954e-20 -1.01643954e-20
      -1.01643954e-20 -1.01643954e-20 -3.08031900e-07 -1.55957832e-06
      -7.32124045e-06 -1.18418875e-05 -1.43399830e-05 -1.67862527e-05
      -1.35843338e-05 -9.27146903e-06 -7.51565631e-06 -6.60769638e-06
      -3.58049601e-06 -5.54674529e-08 1.70140845e-06 2.09689279e-06
      3.23671838e-06 5.48637354e-06 6.83784401e-06 5.28158671e-06
      1.70988335e-06 -2.91017000e-06 -1.02701815e-05 -1.81268806e-05
      -1.97586778e-05 -1.64933317e-05 -9.99459098e-06 -4.76356718e-06
      -9.65930781e-07 -2.22048495e-08 -1.01643954e-20 -1.01643954e-20
      -1.01643954e-20 -1.01643954e-20 -1.01643954e-20 -1.01643954e-20
      -1.01643954e-20 -1.01643954e-20 -1.01643954e-20 -1.01643954e-20
      -1.01643954e-20 -1.01643954e-20 -3.83161648e-07 -2.39355495e-06
      -1.03629609e-05 -1.54143290e-05 -1.75577552e-05 -1.87850856e-05
      -1.52438879e-05 -9.91870820e-06 -5.37442565e-06 -1.61536332e-06
      2.16110675e-06 5.42045473e-06 6.87919646e-06 7.33113620e-06
      8.86673297e-06 1.16073370e-05 1.16113124e-05 9.18104706e-06
      4.73301134e-06 -1.78749383e-06 -1.02000613e-05 -1.81679770e-05
      -2.02202118e-05 -1.78623704e-05 -1.12059315e-05 -5.56476516e-06
      -1.14397471e-06 -2.22048495e-08 -1.01643954e-20 -1.01643954e-20
      -1.01643954e-20 -1.01643954e-20 -1.01643954e-20 -1.01643954e-20
      -1.01643954e-20 -1.01643954e-20 -1.01643954e-20 -1.01643954e-20
      -1.01643954e-20 -1.01643954e-20 -3.83161648e-07 -2.94358779e-06
      -1.27088588e-05 -1.81961495e-05 -2.00526720e-05 -2.04388580e-05
      -1.72633572e-05 -1.16685123e-05 -4.72376769e-06 2.01750322e-06
      5.65974506e-06 7.49719356e-06 9.11071129e-06 1.04998026e-05
      1.27446929e-05 1.58309649e-05 1.52759458e-05 1.36437466e-05
      9.12631367e-06 2.00323043e-07 -9.78798289e-06 -1.80181305e-05
      -2.06685727e-05 -1.91384770e-05 -1.21483381e-05 -6.05438618e-06
      -1.25408360e-06 -2.22048495e-08 -1.01643954e-20 -1.01643954e-20
      -1.01643954e-20 -1.01643954e-20 -1.01643954e-20 -1.01643954e-20
      -1.01643954e-20 -1.01643954e-20 -1.01643954e-20 -1.01643954e-20
      -1.01643954e-20 -1.01643954e-20 -3.83161648e-07 -3.16621595e-06
      -1.36142335e-05 -1.93241522e-05 -2.11272472e-05 -2.11635688e-05
      -1.81149935e-05 -9.37193545e-06 -9.13744543e-07 4.66757956e-06
      7.03254045e-06 8.44116039e-06 9.94082075e-06 1.21736575e-05
      1.44582382e-05 1.68403385e-05 1.75002788e-05 1.71394149e-05
      1.29126211e-05 3.01256523e-06 -8.36210347e-06 -1.75522291e-05
      -2.10567341e-05 -2.04233602e-05 -1.27159583e-05 -6.04971137e-06
      -1.25525230e-06 -2.22048495e-08 -1.01643954e-20 -1.01643954e-20
      -1.01643954e-20 -1.01643954e-20 -1.01643954e-20 -1.01643954e-20
      -1.01643954e-20 -1.01643954e-20 -1.01643954e-20 -1.01643954e-20
      -1.01643954e-20 -1.01643954e-20 -3.83161648e-07 -3.25531119e-06
      -1.40270149e-05 -1.97903610e-05 -2.15176988e-05 -2.16299832e-05
      -1.88726935e-05 -8.15677595e-06 -1.11084383e-07 3.84186933e-06
      5.44779869e-06 6.93630818e-06 8.67372455e-06 1.09961911e-05
      1.35577084e-05 1.65939909e-05 1.87978803e-05 1.95945813e-05
      1.63079912e-05 6.55972508e-06 -5.87066552e-06 -1.68135066e-05
      -2.11128845e-05 -2.07209359e-05 -1.28632919e-05 -6.03568742e-06
      -1.25408360e-06 -2.22048495e-08 -1.01643954e-20 -1.01643954e-20
      -1.01643954e-20 -1.01643954e-20 -1.01643954e-20 -1.01643954e-20
      -1.01643954e-20 -1.01643954e-20 -1.01643954e-20 -1.01643954e-20
      -1.01643954e-20 -1.01643954e-20 -3.89005010e-07 -3.36762832e-06
      -1.43398001e-05 -2.00527411e-05 -2.16479730e-05 -2.17075758e-05
      -1.80715451e-05 -6.98445137e-06 -9.09060930e-07 2.16947183e-06
      3.61615798e-06 5.32016793e-06 7.19742002e-06 8.66492974e-06
      1.08826262e-05 1.52563825e-05 1.96425626e-05 2.14814645e-05
      1.95844132e-05 1.13158094e-05 -2.16718581e-06 -1.60570908e-05
      -2.10052149e-05 -2.06800323e-05 -1.28340753e-05 -6.02867522e-06
      -1.25408360e-06 -2.22048495e-08 -1.01643954e-20 -1.01643954e-20
      -1.01643954e-20 -1.01643954e-20 -1.01643954e-20 -1.01643954e-20
      -1.01643954e-20 -1.01643954e-20 -1.01643954e-20 -1.01643954e-20
      -1.01643954e-20 -1.01643954e-20 -4.01860461e-07 -3.62626020e-06
      -1.52015673e-05 -2.06475434e-05 -2.17075758e-05 -2.17216002e-05
      -1.87869409e-05 -9.77102718e-06 -3.58475131e-06 7.84422696e-08
      2.08565689e-06 3.51541439e-06 4.61637364e-06 4.90569528e-06
      7.25087375e-06 1.34708007e-05 1.90363917e-05 2.16372537e-05
      2.04868666e-05 1.32732675e-05 6.73589184e-08 -1.48400886e-05
      -2.04043154e-05 -2.06132663e-05 -1.28340753e-05 -6.02867522e-06
      -1.25525230e-06 -2.22048495e-08 -1.01643954e-20 -1.01643954e-20
      -1.01643954e-20 -1.01643954e-20 -1.01643954e-20 -1.01643954e-20
      -1.01643954e-20 -1.01643954e-20 -1.01643954e-20 -1.01643954e-20
      -1.01643954e-20 -1.01643954e-20 -4.05366478e-07 -3.83585848e-06
      -1.59839146e-05 -2.11698880e-05 -2.17262750e-05 -2.17262750e-05
      -1.95068296e-05 -1.19906872e-05 -5.46206775e-06 -1.30475792e-06
      9.90609578e-07 2.08320807e-06 2.63959578e-06 2.63959578e-06
      5.24118195e-06 1.22109941e-05 1.85264707e-05 2.17262750e-05
      2.08429556e-05 1.41189757e-05 1.35817800e-06 -1.38385903e-05
      -1.97811623e-05 -2.05687556e-05 -1.28340753e-05 -6.02867522e-06
      -1.25408360e-06 -2.22048495e-08 -1.01643954e-20 -1.01643954e-20
      -1.01643954e-20 -1.01643954e-20 -1.01643954e-20 -1.01643954e-20
      -1.01643954e-20 -1.01643954e-20 -1.01643954e-20 -1.01643954e-20
      -1.01643954e-20 -1.01643954e-20 -4.05366478e-07 -3.99281589e-06
      -1.66960908e-05 -2.16817643e-05 -2.17262750e-05 -2.17262750e-05
      -2.02912051e-05 -1.42403424e-05 -7.37207893e-06 -2.81417033e-06
      -5.17634135e-07 1.95452245e-07 2.39963242e-07 2.39963242e-07
      2.84154930e-06 9.81136145e-06 1.74766319e-05 2.17262750e-05
      2.08429556e-05 1.44973201e-05 2.24839800e-06 -1.29858327e-05
      -1.91802628e-05 -2.05019878e-05 -1.28340753e-05 -6.02867522e-06
      -1.25525230e-06 -2.22048495e-08 -1.01643954e-20 -1.01643954e-20
      -1.01643954e-20 -1.01643954e-20 -1.01643954e-20 -1.01643954e-20
      -1.01643954e-20 -1.01643954e-20 -1.01643954e-20 -1.01643954e-20
      -1.01643954e-20 -1.01643954e-20 -4.05366478e-07 -4.01507123e-06
      -1.67628568e-05 -2.17262750e-05 -2.17262750e-05 -2.17262750e-05
      -2.03467007e-05 -1.44803053e-05 -7.56753116e-06 -2.96511166e-06
      -6.68575353e-07 -1.01643954e-20 -1.01643954e-20 -1.01643954e-20
      1.94168706e-06 7.52382039e-06 1.64267931e-05 2.17262750e-05
      2.08429556e-05 1.45418308e-05 2.33742003e-06 -1.28593483e-05
      -1.91345825e-05 -2.05019878e-05 -1.28340753e-05 -6.02867522e-06
      -1.25525230e-06 -2.22048495e-08 -1.01643954e-20 -1.01643954e-20
      -1.01643954e-20 -1.01643954e-20 -1.01643954e-20 -1.01643954e-20
      -1.01643954e-20 -1.01643954e-20 -1.01643954e-20 -1.01643954e-20
      -1.01643954e-20 -1.01643954e-20 -4.05366478e-07 -4.01507123e-06
      -1.67628568e-05 -2.17262750e-05 -2.17262750e-05 -2.17262750e-05
      -2.03811906e-05 -1.44803053e-05 -7.56753116e-06 -2.96511166e-06
      -6.69744054e-07 -1.01643954e-20 -1.01643954e-20 -1.01643954e-20
      1.40176985e-06 5.97194958e-06 1.57069026e-05 2.17262750e-05
      2.08429556e-05 1.45418308e-05 2.33742003e-06 -1.28968104e-05
      -1.91345825e-05 -2.05019878e-05 -1.28340753e-05 -6.02867522e-06
      -1.25525230e-06 -2.22048495e-08 -1.01643954e-20 -1.01643954e-20
      -1.01643954e-20 -1.01643954e-20 -1.01643954e-20 -1.01643954e-20
      -1.01643954e-20 -1.01643954e-20 -1.01643954e-20 -1.01643954e-20
      -1.01643954e-20 -1.01643954e-20 -4.05366478e-07 -4.01390253e-06
      -1.67628568e-05 -2.17262750e-05 -2.17262750e-05 -2.17262750e-05
      -2.03811906e-05 -1.44803053e-05 -7.56753116e-06 -2.96511166e-06
      -6.69744054e-07 -1.01643954e-20 -1.01643954e-20 -1.01643954e-20
      1.40176985e-06 5.93406412e-06 1.57069026e-05 2.17262750e-05
      2.08429556e-05 1.45418308e-05 2.33742003e-06 -1.28968104e-05
      -1.91345825e-05 -2.05019878e-05 -1.28340753e-05 -6.02867522e-06
      -1.25408360e-06 -2.22048495e-08 -1.01643954e-20 -1.01643954e-20
      -1.01643954e-20 -1.01643954e-20 -1.01643954e-20 -1.01643954e-20
      -1.01643954e-20 -1.01643954e-20 -1.01643954e-20 -1.01643954e-20
      -1.01643954e-20 -1.01643954e-20 -4.05366478e-07 -4.01507123e-06
      -1.67628568e-05 -2.17262750e-05 -2.17262750e-05 -2.17262750e-05
      -2.03467007e-05 -1.44803053e-05 -7.56753116e-06 -2.96511166e-06
      -6.68575353e-07 -1.01643954e-20 -1.01643954e-20 -1.01643954e-20
      1.40176985e-06 5.93406412e-06 1.56769074e-05 2.17262750e-05
      2.08429556e-05 1.45418308e-05 2.33742003e-06 -1.28593483e-05
      -1.91345825e-05 -2.05019878e-05 -1.28340753e-05 -6.02867522e-06
      -1.25525230e-06 -2.22048495e-08 -1.01643954e-20 -1.01643954e-20
      -1.01643954e-20 -1.01643954e-20 -1.01643954e-20 -1.01643954e-20
      -1.01643954e-20 -1.01643954e-20 -1.01643954e-20 -1.01643954e-20
      -1.01643954e-20 -1.01643954e-20 -4.05366478e-07 -4.01390253e-06
      -1.67628568e-05 -2.17262750e-05 -2.17262750e-05 -2.17262750e-05
      -2.03811906e-05 -1.44803053e-05 -7.56753116e-06 -2.96511166e-06
      -6.69744054e-07 -1.01643954e-20 -1.01643954e-20 -1.01643954e-20
      1.40176985e-06 5.97194958e-06 1.57069026e-05 2.17262750e-05
      2.08429556e-05 1.45418308e-05 2.33742003e-06 -1.28968104e-05
      -1.91357522e-05 -2.05019878e-05 -1.28340753e-05 -6.02867522e-06
      -1.25408360e-06 -2.22048495e-08 -1.01643954e-20 -1.01643954e-20
      -1.01643954e-20 -1.01643954e-20 -1.01643954e-20 -1.01643954e-20
      -1.01643954e-20 -1.01643954e-20 -1.01643954e-20 -1.01643954e-20
      -1.01643954e-20 -1.01643954e-20 -4.05366478e-07 -4.01390253e-06
      -1.67628568e-05 -2.17262750e-05 -2.17262750e-05 -2.17262750e-05
      -2.03467007e-05 -1.44803053e-05 -7.56753116e-06 -2.96511166e-06
      -6.69744054e-07 -1.01643954e-20 -1.01643954e-20 -1.01643954e-20
      1.40176985e-06 5.93406412e-06 1.57069026e-05 2.17262750e-05
      2.08053898e-05 1.43840580e-05 2.14208262e-06 -1.30471726e-05
      -1.92097123e-05 -2.05019878e-05 -1.28340753e-05 -6.02867522e-06
      -1.25408360e-06 -2.22048495e-08 -1.01643954e-20 -1.01643954e-20
      -1.01643954e-20 -1.01643954e-20 -1.01643954e-20 -1.01643954e-20
      -1.01643954e-20 -1.01643954e-20 -1.01643954e-20 -1.01643954e-20
      -1.01643954e-20 -1.01643954e-20 -4.05366478e-07 -4.01390253e-06
      -1.67628568e-05 -2.17262750e-05 -2.17262750e-05 -2.17262750e-05
      -2.03467007e-05 -1.44803053e-05 -7.56753116e-06 -2.96511166e-06
      -6.69744054e-07 -1.01643954e-20 1.13657016e-07 4.92513720e-07
      2.08371193e-06 6.65389189e-06 1.60857599e-05 2.17262750e-05
      2.06851819e-05 1.39257672e-05 1.57109673e-06 -1.36256722e-05
      -1.94426157e-05 -2.05019878e-05 -1.28340753e-05 -6.02867522e-06
      -1.25408360e-06 -2.22048495e-08 -1.01643954e-20 -1.01643954e-20
      -1.01643954e-20 -1.01643954e-20 -1.01643954e-20 -1.01643954e-20
      -1.01643954e-20 -1.01643954e-20 -1.01643954e-20 -1.01643954e-20
      -1.01643954e-20 -1.01643954e-20 -4.05366478e-07 -4.01390253e-06
      -1.67628568e-05 -2.17262750e-05 -2.17262750e-05 -2.17262750e-05
      -2.03811906e-05 -1.44803053e-05 -7.56753116e-06 -2.96511166e-06
      -6.69744054e-07 -1.01643954e-20 3.03085358e-07 1.47754122e-06
      3.48548178e-06 8.01777605e-06 1.68434726e-05 2.17262750e-05
      2.06476179e-05 1.37755078e-05 1.37225345e-06 -1.38813439e-05
      -1.95668290e-05 -2.05499036e-05 -1.28691354e-05 -6.03685612e-06
      -1.25408360e-06 -2.22048495e-08 -1.01643954e-20 -1.01643954e-20
      -1.01643954e-20 -1.01643954e-20 -1.01643954e-20 -1.01643954e-20
      -1.01643954e-20 -1.01643954e-20 -1.01643954e-20 -1.01643954e-20
      -1.01643954e-20 -1.01643954e-20 -4.05366478e-07 -3.85928251e-06
      -1.61174466e-05 -2.12811647e-05 -2.17262750e-05 -2.17262750e-05
      -2.03467007e-05 -1.44803053e-05 -7.56753116e-06 -2.96511166e-06
      -6.68575353e-07 -1.01643954e-20 4.92513720e-07 2.50045423e-06
      4.88725163e-06 9.41954568e-06 1.76090762e-05 2.17262750e-05
      2.06476179e-05 1.43273373e-05 2.60685783e-06 -1.26536870e-05
      -1.87864025e-05 -2.05627330e-05 -1.29275695e-05 -6.05088007e-06
      -1.25525230e-06 -2.22048495e-08 -1.01643954e-20 -1.01643954e-20
      -1.01643954e-20 -1.01643954e-20 -1.01643954e-20 -1.01643954e-20
      -1.01643954e-20 -1.01643954e-20 -1.01643954e-20 -1.01643954e-20
      -1.01643954e-20 -1.01643954e-20 -4.05366478e-07 -3.70232556e-06
      -1.54052723e-05 -2.07692883e-05 -2.17262750e-05 -2.17262750e-05
      -2.04846583e-05 -1.48596882e-05 -7.98140354e-06 -3.31000501e-06
      -7.38722747e-07 -1.01643954e-20 6.81942083e-07 3.44759610e-06
      6.25113580e-06 1.07834303e-05 1.83967859e-05 2.17262750e-05
      2.06476179e-05 1.49136558e-05 3.98526299e-06 -1.13232618e-05
      -1.78738901e-05 -2.04779644e-05 -1.29415930e-05 -6.05438618e-06
      -1.25408360e-06 -2.22048495e-08 -1.01643954e-20 -1.01643954e-20
      -1.01643954e-20 -1.01643954e-20 -1.01643954e-20 -1.01643954e-20
      -1.01643954e-20 -1.01643954e-20 -1.01643954e-20 -1.01643954e-20
      -1.01643954e-20 -1.01643954e-20 -4.05366478e-07 -3.52545021e-06
      -1.46930952e-05 -2.02796673e-05 -2.17262750e-05 -2.17262750e-05
      -2.08985311e-05 -1.61357948e-05 -9.36097695e-06 -4.41366410e-06
      -1.01463752e-06 -1.01643954e-20 6.81942083e-07 3.44759610e-06
      6.25113580e-06 1.07834303e-05 1.83967859e-05 2.17262750e-05
      2.06476179e-05 1.55344642e-05 5.36483685e-06 -9.94368747e-06
      -1.69426767e-05 -2.04089847e-05 -1.29415930e-05 -6.05438618e-06
      -1.25525230e-06 -2.22048495e-08 -1.01643954e-20 -1.01643954e-20
      -1.01643954e-20 -1.01643954e-20 -1.01643954e-20 -1.01643954e-20
      -1.01643954e-20 -1.01643954e-20 -1.01643954e-20 -1.01643954e-20
      -1.01643954e-20 -1.01643954e-20 -4.05366478e-07 -3.48093909e-06
      -1.44705400e-05 -2.01461353e-05 -2.17262750e-05 -2.17262750e-05
      -2.13468920e-05 -1.74118995e-05 -1.07405513e-05 -5.55181259e-06
      -1.25489430e-06 -1.01643954e-20 6.81942083e-07 3.44759610e-06
      6.25113580e-06 1.07834303e-05 1.83667889e-05 2.17262750e-05
      2.06476179e-05 1.57069117e-05 5.77870924e-06 -9.52684331e-06
      -1.66667614e-05 -2.03744949e-05 -1.29415930e-05 -6.05438618e-06
      -1.25525230e-06 -2.22048495e-08 -1.01643954e-20 -1.01643954e-20
      -1.01643954e-20 -1.01643954e-20 -1.01643954e-20 -1.01643954e-20
      -1.01643954e-20 -1.01643954e-20 -1.01643954e-20 -1.01643954e-20
      -1.01643954e-20 -1.01643954e-20 -4.05366478e-07 -3.48093909e-06
      -1.44705400e-05 -2.01461353e-05 -2.17262750e-05 -2.15760156e-05
      -2.13431140e-05 -1.82013755e-05 -1.16816491e-05 -6.47687420e-06
      -1.49631978e-06 -1.01643954e-20 6.81942083e-07 3.44759610e-06
      6.25113580e-06 1.07834303e-05 1.83967859e-05 2.17262750e-05
      2.06476179e-05 1.57069117e-05 5.77870924e-06 -9.52981554e-06
      -1.66667614e-05 -2.03744949e-05 -1.29415930e-05 -6.05438618e-06
      -1.25525230e-06 -2.22048495e-08 -1.01643954e-20 -1.01643954e-20
      -1.01643954e-20 -1.01643954e-20 -1.01643954e-20 -1.01643954e-20
      -1.01643954e-20 -1.01643954e-20 -1.01643954e-20 -1.01643954e-20
      -1.01643954e-20 -1.01643954e-20 -4.05366478e-07 -3.47977061e-06
      -1.44705400e-05 -2.01461353e-05 -2.17262750e-05 -2.13431140e-05
      -2.07721278e-05 -1.76228768e-05 -1.12158441e-05 -6.35666629e-06
      -1.49748837e-06 -1.01643954e-20 6.81942083e-07 3.44759610e-06
      6.25113580e-06 1.07834303e-05 1.83967859e-05 2.17262750e-05
      2.06476179e-05 1.57069117e-05 5.77870924e-06 -9.52684331e-06
      -1.66667614e-05 -2.03744949e-05 -1.29415930e-05 -6.05438618e-06
      -1.25408360e-06 -2.22048495e-08 -1.01643954e-20 -1.01643954e-20
      -1.01643954e-20 -1.01643954e-20 -1.01643954e-20 -1.01643954e-20
      -1.01643954e-20 -1.01643954e-20 -1.01643954e-20 -1.01643954e-20
      -1.01643954e-20 -1.01643954e-20 -6.34762614e-07 -4.01920215e-06
      -1.46555267e-05 -2.01134117e-05 -2.17075758e-05 -2.13384392e-05
      -2.07721278e-05 -1.76228768e-05 -1.12275311e-05 -6.38237725e-06
      -1.52319933e-06 -2.33735253e-08 6.73761349e-07 3.44759610e-06
      6.25113580e-06 1.07834303e-05 1.83967859e-05 2.17262750e-05
      2.06476179e-05 1.57069117e-05 5.77870924e-06 -9.52684331e-06
      -1.66667614e-05 -2.03744949e-05 -1.29415930e-05 -6.05438618e-06
      -1.25525230e-06 -2.22048495e-08 -1.01643954e-20 -1.01643954e-20
      -1.01643954e-20 -1.01643954e-20 -1.01643954e-20 -1.01643954e-20
      -1.01643954e-20 -1.01643954e-20 -1.01643954e-20 -1.01643954e-20
      -1.01643954e-20 -1.01643954e-20 -7.72166629e-07 -4.29952024e-06
      -1.46561961e-05 -2.00082304e-05 -2.16479730e-05 -2.13244148e-05
      -2.07721278e-05 -1.76228768e-05 -1.12660973e-05 -6.46418448e-06
      -1.60500667e-06 -9.46627736e-08 6.46881801e-07 3.44759610e-06
      6.25113580e-06 1.07834303e-05 1.83967859e-05 2.17262750e-05
      2.06476179e-05 1.57069117e-05 5.77870924e-06 -9.52981554e-06
      -1.66667614e-05 -2.03369309e-05 -1.27913336e-05 -5.94169160e-06
      -1.25408360e-06 -2.22048495e-08 -1.01643954e-20 -1.01643954e-20
      -1.01643954e-20 -1.01643954e-20 -1.01643954e-20 -1.01643954e-20
      -1.01643954e-20 -1.01643954e-20 -1.01643954e-20 -1.01643954e-20
      -1.01643954e-20 -1.01643954e-20 -7.66323296e-07 -4.24809878e-06
      -1.45825688e-05 -1.99568094e-05 -2.16187564e-05 -2.13174026e-05
      -2.05273172e-05 -1.68661900e-05 -1.04847668e-05 -5.85967882e-06
      -1.49012180e-06 -1.30891735e-07 6.32857677e-07 3.44759610e-06
      6.25113580e-06 1.07834303e-05 1.83667889e-05 2.17262750e-05
      2.06476179e-05 1.57069117e-05 5.77870924e-06 -9.52684331e-06
      -1.66667614e-05 -2.02242354e-05 -1.23330428e-05 -5.59609452e-06
      -1.25408360e-06 -2.22048495e-08 -1.01643954e-20 -1.01643954e-20
      -1.01643954e-20 -1.01643954e-20 -1.01643954e-20 -1.01643954e-20
      -1.01643954e-20 -1.01643954e-20 -1.01643954e-20 -1.01643954e-20
      -1.01643954e-20 -1.01643954e-20 -6.16063801e-07 -3.69249028e-06
      -1.37770121e-05 -1.93015112e-05 -2.12171180e-05 -2.11591741e-05
      -2.03540912e-05 -1.61588323e-05 -9.76904630e-06 -5.20037702e-06
      -1.33433332e-06 -1.30891735e-07 6.32857677e-07 3.44759610e-06
      6.25113580e-06 1.07834303e-05 1.79768485e-05 2.09175159e-05
      1.97787049e-05 1.36265699e-05 3.81474683e-06 -1.02196709e-05
      -1.71207212e-05 -2.02434167e-05 -1.21827834e-05 -5.48339995e-06
      -1.25525230e-06 -2.22048495e-08 -1.01643954e-20 -1.01643954e-20
      -1.01643954e-20 -1.01643954e-20 -1.01643954e-20 -1.01643954e-20
      -1.01643954e-20 -1.01643954e-20 -1.01643954e-20 -1.01643954e-20
      -1.01643954e-20 -1.01643954e-20 -3.83161648e-07 -2.63865331e-06
      -1.13367914e-05 -1.71631709e-05 -1.98620128e-05 -2.03475374e-05
      -1.97677909e-05 -1.50236574e-05 -8.95877383e-06 -4.60840874e-06
      -1.15628927e-06 -1.30891735e-07 6.32857677e-07 3.44759610e-06
      6.25113580e-06 1.07834303e-05 1.66570517e-05 1.85984391e-05
      1.81418036e-05 9.85789211e-06 -4.56429746e-07 -1.25251318e-05
      -1.86528323e-05 -2.03569052e-05 -1.21752701e-05 -5.48339995e-06
      -1.25408360e-06 -2.22048495e-08 -1.01643954e-20 -1.01643954e-20
      -1.01643954e-20 -1.01643954e-20 -1.01643954e-20 -1.01643954e-20
      -1.01643954e-20 -1.01643954e-20 -1.01643954e-20 -1.01643954e-20
      -1.01643954e-20 -1.01643954e-20 -3.83161648e-07 -2.01003559e-06
      -8.58310705e-06 -1.41346118e-05 -1.73618537e-05 -1.89199327e-05
      -1.91891486e-05 -1.54137651e-05 -1.07000960e-05 -7.25958625e-06
      -3.75260879e-06 -1.70951989e-06 5.42146559e-08 3.24729649e-06
      6.25113580e-06 1.05505278e-05 1.47287592e-05 1.59456686e-05
      1.66236205e-05 8.03848889e-06 -3.41484133e-06 -1.49771204e-05
      -1.98393464e-05 -1.99486421e-05 -1.16042838e-05 -5.13780333e-06
      -1.25525230e-06 -2.22048495e-08 -1.01643954e-20 -1.01643954e-20
      -1.01643954e-20 -1.01643954e-20 -1.01643954e-20 -1.01643954e-20
      -1.01643954e-20 -1.01643954e-20 -1.01643954e-20 -1.01643954e-20
      -1.01643954e-20 -1.01643954e-20 -3.08031900e-07 -1.15083117e-06
      -5.62923333e-06 -1.06753178e-05 -1.43448760e-05 -1.73435910e-05
      -1.88631257e-05 -1.70279909e-05 -1.40582242e-05 -1.12411044e-05
      -7.68065911e-06 -4.63948481e-06 -1.66951827e-06 2.29765169e-06
      6.15220006e-06 1.02978138e-05 1.25216957e-05 1.25374718e-05
      1.38994119e-05 5.49139531e-06 -6.65569087e-06 -1.74856741e-05
      -2.10910111e-05 -1.96988367e-05 -1.12211228e-05 -4.90490129e-06
      -1.25525230e-06 -2.22048495e-08 -1.01643954e-20 -1.01643954e-20
      -1.01643954e-20 -1.01643954e-20 -1.01643954e-20 -1.01643954e-20
      -1.01643954e-20 -1.01643954e-20 -1.01643954e-20 -1.01643954e-20
      -1.01643954e-20 -1.01643954e-20 -7.51297335e-08 -3.79472425e-07
      -4.12310419e-06 -8.17552518e-06 -1.10699639e-05 -1.53309938e-05
      -1.84637065e-05 -2.01004386e-05 -1.88406011e-05 -1.57414852e-05
      -1.29843793e-05 -1.05812069e-05 -7.49598939e-06 -2.11853103e-06
      4.20886045e-06 8.80686548e-06 9.02564534e-06 7.00054125e-06
      7.25506925e-06 1.19586116e-06 -8.90600950e-06 -1.82963868e-05
      -2.11552888e-05 -1.97198733e-05 -1.12199541e-05 -4.90139519e-06
      -1.25291490e-06 -2.22048495e-08 -1.01643954e-20 -1.01643954e-20
      -1.01643954e-20 -1.01643954e-20 -1.01643954e-20 -1.01643954e-20
      -1.01643954e-20 -1.01643954e-20 -1.01643954e-20 -1.01643954e-20
      -1.01643954e-20 -1.01643954e-20 -1.01643954e-20 -5.05288469e-08
      -2.11709926e-06 -4.95451332e-06 -8.30674799e-06 -1.33159829e-05
      -1.73354401e-05 -2.07024095e-05 -2.08950005e-05 -1.93767028e-05
      -1.78069058e-05 -1.62893630e-05 -1.38283385e-05 -8.08000004e-06
      -9.57605039e-07 3.95205143e-06 3.37355755e-06 1.60290551e-06
      1.72124862e-06 -3.13353576e-06 -1.07577962e-05 -1.84606306e-05
      -1.95224184e-05 -1.73465978e-05 -1.04494184e-05 -4.83478061e-06
      -1.20149309e-06 -1.63614668e-08 -1.01643954e-20 -1.01643954e-20
      -1.01643954e-20 -1.01643954e-20 -1.01643954e-20 -1.01643954e-20
      -1.01643954e-20 -1.01643954e-20 -1.01643954e-20 -1.01643954e-20
      -1.01643954e-20 -1.01643954e-20 -1.01643954e-20 -5.94457017e-09
      -2.08059951e-08 -1.88415777e-06 -6.43562907e-06 -1.14358509e-05
      -1.55612743e-05 -1.92452299e-05 -2.08015044e-05 -2.16712833e-05
      -2.16057088e-05 -2.12979994e-05 -2.01640032e-05 -1.49527687e-05
      -8.20770038e-06 -3.37084248e-06 -3.94933659e-06 -4.00097906e-06
      -3.02260059e-06 -6.98868462e-06 -1.21798566e-05 -1.83380052e-05
      -1.69076011e-05 -1.34140064e-05 -9.13526310e-06 -4.76349123e-06
      -1.15007140e-06 -1.05180860e-08 -1.01643954e-20 -1.01643954e-20
      -1.01643954e-20 -1.01643954e-20 -1.01643954e-20 -1.01643954e-20
      -1.01643954e-20 -1.01643954e-20 -1.01643954e-20 -1.01643954e-20
      -1.01643954e-20 -1.01643954e-20 -1.01643954e-20 -1.01643954e-20
      -1.01643954e-20 -1.15322109e-06 -3.66844756e-06 -8.09274934e-06
      -1.30414510e-05 -1.63384029e-05 -1.88140311e-05 -2.06279146e-05
      -2.14427782e-05 -2.08192378e-05 -1.93707583e-05 -1.50470514e-05
      -9.46525688e-06 -6.15186309e-06 -6.23358710e-06 -5.10808286e-06
      -3.77048514e-06 -7.38374183e-06 -1.06423386e-05 -1.42867038e-05
      -1.38375754e-05 -1.06208727e-05 -7.33465004e-06 -4.03627428e-06
      -9.42861107e-07 -3.50602880e-09 -1.01643954e-20 -1.01643954e-20
      -1.01643954e-20 -1.01643954e-20 -1.01643954e-20 -1.01643954e-20
      -1.01643954e-20 -1.01643954e-20 -1.01643954e-20 -1.01643954e-20
      -1.01643954e-20 -1.01643954e-20 -1.01643954e-20 -1.01643954e-20
      -1.01643954e-20 -7.06377989e-07 -1.81640064e-06 -5.93161940e-06
      -1.12590960e-05 -1.42187673e-05 -1.73953194e-05 -1.97879126e-05
      -2.12492942e-05 -2.03623913e-05 -1.86196503e-05 -1.49706757e-05
      -1.02370041e-05 -7.98979909e-06 -7.64882861e-06 -5.71383453e-06
      -3.97715439e-06 -7.41988879e-06 -9.48977140e-06 -1.14779377e-05
      -1.16416222e-05 -8.56288443e-06 -6.03156741e-06 -3.47531363e-06
      -8.01198041e-07 -1.01643954e-20 -1.01643954e-20 -1.01643954e-20
      -1.01643954e-20 -1.01643954e-20 -1.01643954e-20 -1.01643954e-20</_>
    <_>
      2.64697796e-21 2.64697796e-21 2.64697796e-21 2.64697796e-21
      2.64697796e-21 2.64697796e-21 2.64697796e-21 2.64697796e-21
      -5.40803399e-07 -2.99132103e-06 -9.23854714e-06 -3.26345253e-06
      7.77871901e-06 6.51923301e-06 -1.05196875e-06 -9.26406938e-06
      -1.56783772e-05 -1.32284740e-05 -1.39864360e-05 -1.26018977e-05
      -9.83457358e-06 -9.83457358e-06 -1.55487323e-05 -1.97011741e-05
      -1.64722569e-05 -4.34209824e-06 4.30034925e-06 3.76656908e-06
      9.41919006e-06 1.14550467e-05 7.12551218e-06 2.86969225e-06
      -1.61656101e-06 -2.02070126e-07 2.64697796e-21 2.64697796e-21
      2.64697796e-21 2.64697796e-21 2.64697796e-21 2.64697796e-21
      2.64697796e-21 2.64697796e-21 2.64697796e-21 2.64697796e-21
      2.64697796e-21 2.64697796e-21 2.64697796e-21 2.64697796e-21
      -5.40803399e-07 -1.41808437e-06 -3.24381313e-06 -7.97822963e-07
      4.43398540e-06 2.89003970e-06 -1.73329511e-06 -6.88852924e-06
      -1.36444351e-05 -1.43983880e-05 -1.38702899e-05 -1.18523776e-05
      -9.18794922e-06 -8.72318742e-06 -1.27653684e-05 -1.62081014e-05
      -1.35443343e-05 -2.96015787e-06 3.84186887e-06 3.39728422e-06
      6.74386683e-06 8.13932456e-06 6.06358344e-06 2.18265382e-06
      -2.14194324e-06 -2.62691145e-07 2.64697796e-21 2.64697796e-21
      2.64697796e-21 2.64697796e-21 2.64697796e-21 2.64697796e-21
      2.64697796e-21 2.64697796e-21 2.64697796e-21 2.64697796e-21
      2.64697796e-21 2.64697796e-21 2.64697796e-21 2.64697796e-21
      -5.40803399e-07 8.54822815e-07 5.38948871e-06 2.68660688e-06
      -5.07250320e-07 -2.22710696e-06 -2.72084299e-06 -3.52683082e-06
      -1.09009288e-05 -1.64335761e-05 -1.38081668e-05 -1.06775815e-05
      -8.09677022e-06 -6.84393535e-06 -8.34766524e-06 -1.09445264e-05
      -9.23047810e-06 -8.48747845e-07 3.21149719e-06 2.88056481e-06
      2.71510453e-06 3.17399736e-06 4.31393073e-06 9.82074766e-07
      -3.04057585e-06 -3.63726230e-07 2.64697796e-21 2.64697796e-21
      2.64697796e-21 2.64697796e-21 2.64697796e-21 2.64697796e-21
      2.64697796e-21 2.64697796e-21 2.64697796e-21 2.64697796e-21
      2.64697796e-21 2.64697796e-21 2.64697796e-21 2.64697796e-21
      -4.18784839e-06 -5.95283564e-06 -3.58476171e-07 -2.41866996e-06
      -4.45619798e-06 -3.93417304e-06 -2.16338367e-06 -7.37062351e-07
      -5.26900158e-06 -1.08016129e-05 -9.34391846e-06 -7.73443935e-06
      -6.50041648e-06 -5.69213580e-06 -5.74894057e-06 -6.85874147e-06
      -6.59817078e-06 -4.24950031e-06 -1.13936460e-06 2.11780730e-06
      1.63667528e-06 2.26858083e-06 3.63439062e-06 4.05088912e-07
      -3.28910755e-06 -3.83933241e-07 2.64697796e-21 2.64697796e-21
      2.64697796e-21 2.64697796e-21 2.64697796e-21 2.64697796e-21
      2.64697796e-21 2.64697796e-21 2.64697796e-21 2.64697796e-21
      2.64697796e-21 2.64697796e-21 -7.02342078e-08 -8.52735297e-07
      -8.66563641e-06 -1.30946200e-05 -7.27000315e-06 -7.04377635e-06
      -6.80693302e-06 -3.33675439e-06 -1.44589274e-06 -5.81546715e-07
      -1.81500218e-06 -4.31348053e-06 -1.99777310e-06 -1.16928561e-06
      -1.12887165e-06 -1.08845757e-06 -2.01125727e-06 -3.31016486e-06
      -4.44658508e-06 -6.11785890e-06 -3.20300273e-06 1.97890040e-06
      1.41514749e-06 2.97748193e-06 3.63001141e-06 -5.20670582e-08
      -3.42360363e-06 -3.83933241e-07 2.64697796e-21 2.64697796e-21
      2.64697796e-21 2.64697796e-21 2.64697796e-21 2.64697796e-21
      2.64697796e-21 2.64697796e-21 2.64697796e-21 2.64697796e-21
      2.64697796e-21 2.64697796e-21 -2.87960262e-07 -2.64300206e-06
      -1.17488444e-05 -1.65688980e-05 -1.31437973e-05 -1.00875923e-05
      -6.58086901e-06 -4.61151984e-07 -1.11914494e-06 -5.01640852e-06
      -2.49881441e-06 1.39132737e-06 5.57008934e-06 6.41878387e-06
      6.41878387e-06 6.41878387e-06 3.58976376e-06 -2.37828488e-07
      -3.87808723e-06 -5.39512075e-06 -1.80425229e-06 3.21131415e-06
      3.15337547e-06 5.75674721e-06 4.39898304e-06 -6.71132398e-07
      -3.56646478e-06 -3.83933241e-07 2.64697796e-21 2.64697796e-21
      2.64697796e-21 2.64697796e-21 2.64697796e-21 2.64697796e-21
      2.64697796e-21 2.64697796e-21 2.64697796e-21 2.64697796e-21
      2.64697796e-21 2.64697796e-21 -3.58194455e-07 -4.06500067e-06
      -1.65931251e-05 -1.99094757e-05 -1.41839218e-05 -8.80170592e-06
      -4.88935211e-06 6.99414926e-08 6.36848654e-07 -2.93043468e-06
      2.14095863e-07 4.10104167e-06 6.90092520e-06 7.68899827e-06
      7.68899827e-06 7.68899827e-06 4.60279443e-06 6.55035535e-07
      -3.26067038e-06 -4.64633877e-06 -6.58542717e-07 4.40661870e-06
      4.24170958e-06 6.27044483e-06 4.13739599e-06 -1.01399939e-06
      -3.64265748e-06 -3.83933241e-07 2.64697796e-21 2.64697796e-21
      2.64697796e-21 2.64697796e-21 2.64697796e-21 2.64697796e-21
      2.64697796e-21 2.64697796e-21 2.64697796e-21 2.64697796e-21
      2.64697796e-21 2.64697796e-21 -3.58194455e-07 -5.06290371e-06
      -2.07141602e-05 -2.27595247e-05 -1.37832367e-05 -6.73468958e-06
      -2.55440841e-06 1.23534335e-06 3.86774673e-06 2.15296313e-06
      3.88257968e-06 5.60843182e-06 5.74189517e-06 6.13187603e-06
      6.16997204e-06 6.16997204e-06 3.68386350e-06 7.92454784e-07
      -2.53770531e-06 -4.33186142e-06 -6.73425632e-07 4.40209851e-06
      3.85157682e-06 5.19102196e-06 3.57389104e-06 -1.22352924e-06
      -3.67007101e-06 -3.83933241e-07 2.64697796e-21 2.64697796e-21
      2.64697796e-21 2.64697796e-21 2.64697796e-21 2.64697796e-21
      2.64697796e-21 2.64697796e-21 2.64697796e-21 2.64697796e-21
      2.64697796e-21 2.64697796e-21 -3.58194455e-07 -5.16656564e-06
      -2.11445058e-05 -2.32267794e-05 -1.65624933e-05 -1.06286070e-05
      -6.24753011e-06 -1.81065400e-06 2.92889695e-06 4.11447718e-06
      3.09433153e-06 2.03291870e-06 2.67300866e-08 3.31500729e-07
      4.83886026e-07 4.83886026e-07 -1.16209144e-07 -8.61058197e-07
      -3.31765636e-06 -7.76660818e-06 -3.44049795e-06 4.72441297e-06
      3.26739655e-06 2.37791642e-06 2.43982913e-06 -1.14270119e-06
      -3.69027794e-06 -3.83933241e-07 2.64697796e-21 2.64697796e-21
      2.64697796e-21 2.64697796e-21 2.64697796e-21 2.64697796e-21
      2.64697796e-21 2.64697796e-21 2.64697796e-21 2.64697796e-21
      2.64697796e-21 2.64697796e-21 -3.58194455e-07 -4.32975276e-06
      -1.86538709e-05 -2.17386132e-05 -1.77389247e-05 -1.37328061e-05
      -9.15709552e-06 -2.92085201e-06 1.67138876e-06 3.85067005e-06
      9.45078227e-07 -1.71381274e-07 -1.25717895e-06 -8.76215609e-07
      -6.85733937e-07 -6.85733937e-07 -6.85733937e-07 -8.36750360e-07
      -2.41249950e-06 -7.26325015e-06 -4.59913690e-06 3.45118815e-06
      2.77255504e-06 2.68451413e-06 2.95601944e-06 -9.00217003e-07
      -3.67007101e-06 -3.83933241e-07 2.64697796e-21 2.64697796e-21
      2.64697796e-21 2.64697796e-21 2.64697796e-21 2.64697796e-21
      2.64697796e-21 2.64697796e-21 2.64697796e-21 2.64697796e-21
      2.64697796e-21 2.64697796e-21 -4.59229511e-07 -4.20960032e-06
      -1.83057164e-05 -2.21447226e-05 -1.66495429e-05 -1.30021117e-05
      -8.33709692e-06 -1.74239744e-07 3.16509181e-06 3.49096081e-06
      -1.02497620e-06 -1.22860661e-06 -5.33348611e-07 -1.80957571e-07
      2.64697796e-21 2.64697796e-21 2.64697796e-21 -1.04764908e-07
      1.02807155e-06 2.15691102e-06 3.01013159e-07 8.12677968e-07
      1.20584934e-06 3.22687310e-06 3.46119464e-06 -7.78974936e-07
      -3.67007101e-06 -3.83933241e-07 2.64697796e-21 2.64697796e-21
      2.64697796e-21 2.64697796e-21 2.64697796e-21 2.64697796e-21
      2.64697796e-21 2.64697796e-21 2.64697796e-21 2.64697796e-21
      2.64697796e-21 2.64697796e-21 -6.81506663e-07 -6.05448577e-06
      -2.21857063e-05 -2.61517853e-05 -2.06668428e-05 -1.66292648e-05
      -1.16595829e-05 -1.63690731e-06 3.27230646e-06 3.87384353e-06
      -3.32769929e-07 -6.38113534e-07 -1.80957571e-07 -5.71444936e-08
      2.64697796e-21 2.64697796e-21 2.64697796e-21 -3.80963314e-08
      2.17272373e-06 4.73607088e-06 3.89231502e-07 -1.81802420e-06
      -7.09990331e-07 3.01400200e-06 3.46119464e-06 -7.78974936e-07
      -3.69027794e-06 -3.83933241e-07 2.64697796e-21 2.64697796e-21
      2.64697796e-21 2.64697796e-21 2.64697796e-21 2.64697796e-21
      2.64697796e-21 2.64697796e-21 2.64697796e-21 2.64697796e-21
      2.64697796e-21 2.64697796e-21 -7.42127668e-07 -7.23963558e-06
      -2.59038825e-05 -3.11703916e-05 -2.82147939e-05 -2.49425721e-05
      -1.99038350e-05 -6.92138565e-06 1.07332448e-06 2.96428789e-06
      -1.49401117e-07 -2.38102061e-07 2.64697796e-21 2.64697796e-21
      2.64697796e-21 2.64697796e-21 2.64697796e-21 2.64697796e-21
      2.32510911e-06 4.39131463e-06 -6.28751991e-07 -2.95982090e-06
      -1.46210118e-06 2.95453128e-06 3.46119464e-06 -7.78974936e-07
      -3.67007101e-06 -3.83933241e-07 2.64697796e-21 2.64697796e-21
      2.64697796e-21 2.64697796e-21 2.64697796e-21 2.64697796e-21
      2.64697796e-21 2.64697796e-21 2.64697796e-21 2.64697796e-21
      2.64697796e-21 2.64697796e-21 -7.42127668e-07 -8.53372785e-06
      -3.14399258e-05 -3.78612895e-05 -3.46571724e-05 -3.14320387e-05
      -2.64790306e-05 -1.33637632e-05 -3.33792445e-06 6.89374588e-07
      -3.11598569e-07 -1.90481657e-08 2.64697796e-21 2.64697796e-21
      2.64697796e-21 2.64697796e-21 2.64697796e-21 4.19431444e-06
      7.88713442e-06 5.99988152e-06 -1.69304982e-07 -2.58413957e-06
      -1.15197440e-06 1.57568809e-06 -2.10083090e-06 -4.97328938e-06
      -3.69027794e-06 -3.83933241e-07 2.64697796e-21 2.64697796e-21
      2.64697796e-21 2.64697796e-21 2.64697796e-21 2.64697796e-21
      2.64697796e-21 2.64697796e-21 2.64697796e-21 2.64697796e-21
      2.64697796e-21 2.64697796e-21 -7.42127668e-07 -8.70421445e-06
      -3.20318650e-05 -3.98158118e-05 -3.83671504e-05 -3.69989721e-05
      -3.28455244e-05 -1.98101006e-05 -7.99070494e-06 -1.84792452e-06
      -9.17351088e-07 2.64697796e-21 2.64697796e-21 2.64697796e-21
      2.64697796e-21 2.64697796e-21 2.64697796e-21 6.97532732e-06
      1.19444876e-05 9.53002109e-06 3.76267985e-06 4.42890837e-07
      8.24713652e-07 8.24842857e-07 -5.83924157e-06 -7.75430271e-06
      -3.69027794e-06 -3.83933241e-07 2.64697796e-21 2.64697796e-21
      2.64697796e-21 2.64697796e-21 2.64697796e-21 2.64697796e-21
      2.64697796e-21 2.64697796e-21 2.64697796e-21 2.64697796e-21
      2.64697796e-21 2.64697796e-21 -7.42127668e-07 -8.70421445e-06
      -3.20318650e-05 -4.07815824e-05 -4.07815824e-05 -4.07815824e-05
      -3.74381962e-05 -2.43170416e-05 -1.12099488e-05 -3.69898999e-06
      -1.33996366e-06 2.64697796e-21 2.64697796e-21 2.64697796e-21
      2.64697796e-21 2.64697796e-21 2.64697796e-21 6.97925134e-06
      1.29528289e-05 1.48128374e-05 9.90587978e-06 3.58425564e-06
      2.98985515e-06 1.04470314e-06 -5.85101452e-06 -7.75430271e-06
      -3.69027794e-06 -3.83933241e-07 2.64697796e-21 2.64697796e-21
      2.64697796e-21 2.64697796e-21 2.64697796e-21 2.64697796e-21
      2.64697796e-21 2.64697796e-21 2.64697796e-21 2.64697796e-21
      2.64697796e-21 2.64697796e-21 -7.42127668e-07 -8.68400730e-06
      -3.20318650e-05 -4.07815824e-05 -4.07815824e-05 -4.07815824e-05
      -3.74381962e-05 -2.43170416e-05 -1.12099488e-05 -3.69898999e-06
      -1.33996366e-06 2.64697796e-21 2.64697796e-21 2.64697796e-21
      2.64697796e-21 1.86920533e-06 4.65021822e-06 1.08097001e-05
      1.59498832e-05 1.82855274e-05 1.41864411e-05 6.82704513e-06
      2.43876821e-06 -2.56171461e-06 -6.79617733e-06 -7.75430271e-06
      -3.67007101e-06 -3.83933241e-07 2.64697796e-21 2.64697796e-21
      2.64697796e-21 2.64697796e-21 2.64697796e-21 2.64697796e-21
      2.64697796e-21 2.64697796e-21 2.64697796e-21 2.64697796e-21
      2.64697796e-21 2.64697796e-21 -7.42127668e-07 -8.70421445e-06
      -3.20318650e-05 -4.07815824e-05 -4.07815824e-05 -4.07815824e-05
      -3.73524672e-05 -2.43170416e-05 -1.12099488e-05 -3.69898999e-06
      -1.31975662e-06 2.64697796e-21 2.64697796e-21 2.64697796e-21
      2.64697796e-21 4.65021822e-06 1.16569390e-05 1.69960585e-05
      2.18117275e-05 2.20380389e-05 1.73173212e-05 8.54790233e-06
      -1.13720455e-06 -8.16144711e-06 -8.24283416e-06 -7.75430271e-06
      -3.69027794e-06 -3.83933241e-07 2.64697796e-21 2.64697796e-21
      2.64697796e-21 2.64697796e-21 2.64697796e-21 2.64697796e-21
      2.64697796e-21 2.64697796e-21 2.64697796e-21 2.64697796e-21
      2.64697796e-21 2.64697796e-21 -7.42127668e-07 -8.68400730e-06
      -3.20318650e-05 -4.07815824e-05 -4.07815824e-05 -4.07815824e-05
      -3.74381962e-05 -2.43170416e-05 -1.12099488e-05 -3.69898999e-06
      -1.33996366e-06 2.64697796e-21 2.64697796e-21 1.41330167e-06
      5.60761600e-06 8.84453311e-06 1.18610669e-05 1.80540501e-05
      2.48424694e-05 2.55320483e-05 1.75808200e-05 2.46831723e-06
      -6.98064150e-06 -1.24470616e-05 -9.42783481e-06 -7.75430271e-06
      -3.67007101e-06 -3.83933241e-07 2.64697796e-21 2.64697796e-21
      2.64697796e-21 2.64697796e-21 2.64697796e-21 2.64697796e-21
      2.64697796e-21 2.64697796e-21 2.64697796e-21 2.64697796e-21
      2.64697796e-21 2.64697796e-21 -7.42127668e-07 -8.68400730e-06
      -3.20318650e-05 -4.07815824e-05 -4.07815824e-05 -4.07815824e-05
      -3.73524672e-05 -2.43170416e-05 -1.12099488e-05 -3.69898999e-06
      -1.33996366e-06 2.64697796e-21 1.41330167e-06 4.19431444e-06
      9.75634066e-06 1.22953243e-05 1.53838646e-05 2.25530293e-05
      3.02245735e-05 2.85503065e-05 1.64497360e-05 -2.90508501e-06
      -1.26100049e-05 -1.81186715e-05 -1.15477342e-05 -7.75430271e-06
      -3.67007101e-06 -3.83933241e-07 2.64697796e-21 2.64697796e-21
      2.64697796e-21 2.64697796e-21 2.64697796e-21 2.64697796e-21
      2.64697796e-21 2.64697796e-21 2.64697796e-21 2.64697796e-21
      2.64697796e-21 2.64697796e-21 -7.42127668e-07 -8.68400730e-06
      -3.20318650e-05 -4.07815824e-05 -4.07815824e-05 -4.07815824e-05
      -3.73524672e-05 -2.43170416e-05 -1.12099488e-05 -3.69898999e-06
      -1.33996366e-06 2.64697796e-21 5.56202576e-06 9.75634066e-06
      1.16643014e-05 1.58072908e-05 2.37047097e-05 2.94299716e-05
      3.35748518e-05 2.59439839e-05 1.12757652e-05 -7.93699473e-06
      -1.58430412e-05 -2.11769184e-05 -1.29512309e-05 -7.75430271e-06
      -3.67007101e-06 -3.83933241e-07 2.64697796e-21 2.64697796e-21
      2.64697796e-21 2.64697796e-21 2.64697796e-21 2.64697796e-21
      2.64697796e-21 2.64697796e-21 2.64697796e-21 2.64697796e-21
      2.64697796e-21 2.64697796e-21 -7.42127668e-07 -8.68400730e-06
      -3.20318650e-05 -4.07815824e-05 -4.07815824e-05 -4.07815824e-05
      -3.74381962e-05 -2.43170416e-05 -1.12099488e-05 -3.69898999e-06
      5.29241731e-07 4.65021822e-06 8.84453311e-06 1.22634292e-05
      1.58072908e-05 2.14411193e-05 3.03996258e-05 3.59252845e-05
      3.62422943e-05 2.31366957e-05 6.95143353e-06 -1.04817555e-05
      -1.85289809e-05 -2.50675766e-05 -1.49589760e-05 -7.89575097e-06
      -3.67007101e-06 -3.83933241e-07 2.64697796e-21 2.64697796e-21
      2.64697796e-21 2.64697796e-21 2.64697796e-21 2.64697796e-21
      2.64697796e-21 2.64697796e-21 2.64697796e-21 2.64697796e-21
      2.64697796e-21 2.64697796e-21 -7.42127668e-07 -8.63754576e-06
      -3.17556660e-05 -4.05911014e-05 -4.07815824e-05 -4.07815824e-05
      -3.73524672e-05 -2.43170416e-05 -1.12099488e-05 -3.69898999e-06
      3.33046160e-06 1.16255460e-05 1.16294696e-05 1.33012018e-05
      2.07583380e-05 2.75769016e-05 3.38877471e-05 3.88853914e-05
      3.62350438e-05 2.07428930e-05 6.74464491e-06 -1.02933682e-05
      -2.09213449e-05 -2.95416285e-05 -1.74219094e-05 -8.13823590e-06
      -3.69027794e-06 -3.83933241e-07 2.64697796e-21 2.64697796e-21
      2.64697796e-21 2.64697796e-21 2.64697796e-21 2.64697796e-21
      2.64697796e-21 2.64697796e-21 2.64697796e-21 2.64697796e-21
      2.64697796e-21 2.64697796e-21 -7.42127668e-07 -8.55066992e-06
      -3.14508979e-05 -4.03720478e-05 -4.07815824e-05 -4.07815824e-05
      -3.76953794e-05 -2.52600494e-05 -1.22386837e-05 -4.55626878e-06
      3.13879877e-06 1.16353558e-05 1.46736493e-05 1.79126655e-05
      2.35490006e-05 3.07666451e-05 3.67124012e-05 3.65833439e-05
      3.10656142e-05 2.03394320e-05 8.86981525e-06 -1.03536004e-05
      -2.28303761e-05 -3.29114046e-05 -1.90325736e-05 -8.19885645e-06
      -3.67007101e-06 -3.83933241e-07 2.64697796e-21 2.64697796e-21
      2.64697796e-21 2.64697796e-21 2.64697796e-21 2.64697796e-21
      2.64697796e-21 2.64697796e-21 2.64697796e-21 2.64697796e-21
      2.64697796e-21 2.64697796e-21 -7.42127668e-07 -8.49468415e-06
      -3.11461263e-05 -4.01625184e-05 -4.07815824e-05 -4.07815824e-05
      -3.87241125e-05 -2.84319813e-05 -1.52118955e-05 -5.43035594e-06
      3.86627744e-06 1.16706733e-05 1.68625647e-05 2.29129218e-05
      2.75375878e-05 3.30760085e-05 3.57907884e-05 3.18861057e-05
      2.59567551e-05 1.91246399e-05 8.84416477e-06 -1.23402642e-05
      -2.59079588e-05 -3.61201564e-05 -2.04812332e-05 -8.19885645e-06
      -3.69027794e-06 -3.83933241e-07 2.64697796e-21 2.64697796e-21
      2.64697796e-21 2.64697796e-21 2.64697796e-21 2.64697796e-21
      2.64697796e-21 2.64697796e-21 2.64697796e-21 2.64697796e-21
      2.64697796e-21 2.64697796e-21 -7.42127668e-07 -8.47563660e-06
      -3.10508840e-05 -4.01053730e-05 -4.07815824e-05 -4.07815824e-05
      -3.98385782e-05 -3.16039113e-05 -1.72277087e-05 -2.69735028e-06
      7.43511328e-06 1.26698023e-05 1.94379263e-05 2.74335616e-05
      3.23624954e-05 3.36590419e-05 3.01620548e-05 2.57316424e-05
      2.00968698e-05 1.48330328e-05 4.40806753e-06 -1.59244610e-05
      -2.83608988e-05 -3.72416471e-05 -2.08836391e-05 -8.19885645e-06
      -3.69027794e-06 -3.83933241e-07 2.64697796e-21 2.64697796e-21
      2.64697796e-21 2.64697796e-21 2.64697796e-21 2.64697796e-21
      2.64697796e-21 2.64697796e-21 2.64697796e-21 2.64697796e-21
      2.64697796e-21 2.64697796e-21 -7.42127668e-07 -8.47563660e-06
      -3.10508840e-05 -4.01053730e-05 -4.07815824e-05 -4.06411164e-05
      -4.04233906e-05 -3.13794517e-05 -1.58386611e-05 -2.24976861e-06
      9.80331151e-06 1.77328366e-05 2.45262017e-05 3.19080682e-05
      3.37414858e-05 3.17129161e-05 2.58204218e-05 2.17359102e-05
      1.60764666e-05 9.97382813e-06 -1.53376459e-06 -1.98091366e-05
      -3.03729266e-05 -3.74026095e-05 -2.08836391e-05 -8.19885645e-06
      -3.69027794e-06 -3.83933241e-07 2.64697796e-21 2.64697796e-21
      2.64697796e-21 2.64697796e-21 2.64697796e-21 2.64697796e-21
      2.64697796e-21 2.64697796e-21 2.64697796e-21 2.64697796e-21
      2.64697796e-21 2.64697796e-21 -7.42127668e-07 -8.45542945e-06
      -3.10508840e-05 -4.01053730e-05 -4.07815824e-05 -4.04233906e-05
      -3.98896082e-05 -2.66443349e-05 -9.84118378e-06 -1.46989947e-07
      1.44492769e-05 2.72785564e-05 3.27413909e-05 3.47033274e-05
      3.03269426e-05 2.57419015e-05 2.08189595e-05 1.90857245e-05
      1.34088523e-05 6.70945610e-06 -4.51156575e-06 -2.08553902e-05
      -3.03729266e-05 -3.74026095e-05 -2.08836391e-05 -8.19885645e-06
      -3.67007101e-06 -3.83933241e-07 2.64697796e-21 2.64697796e-21
      2.64697796e-21 2.64697796e-21 2.64697796e-21 2.64697796e-21
      2.64697796e-21 2.64697796e-21 2.64697796e-21 2.64697796e-21
      2.64697796e-21 2.64697796e-21 -8.99232703e-07 -8.44361966e-06
      -3.04401237e-05 -3.95395764e-05 -4.04582715e-05 -3.75615491e-05
      -3.29142822e-05 -2.38633220e-05 -8.14765826e-06 5.63985213e-06
      2.12260347e-05 3.18033490e-05 3.72599643e-05 3.73022704e-05
      3.14301324e-05 2.57497868e-05 1.98336002e-05 1.70521489e-05
      1.04565943e-05 4.19295884e-06 -6.04070647e-06 -2.13382773e-05
      -3.03729266e-05 -3.74026095e-05 -2.08836391e-05 -8.19885645e-06
      -3.69027794e-06 -3.83933241e-07 2.64697796e-21 2.64697796e-21
      2.64697796e-21 2.64697796e-21 2.64697796e-21 2.64697796e-21
      2.64697796e-21 2.64697796e-21 2.64697796e-21 2.64697796e-21
      2.64697796e-21 2.64697796e-21 -8.17423995e-07 -7.02359739e-06
      -2.79940941e-05 -3.72650429e-05 -3.75585078e-05 -3.40365550e-05
      -2.82640631e-05 -2.19941176e-05 -6.28041244e-06 1.06836223e-05
      2.67811938e-05 3.33570933e-05 3.75204909e-05 3.61858838e-05
      2.96430208e-05 2.46884683e-05 1.79040508e-05 1.37681554e-05
      7.22361528e-06 2.34189315e-06 -6.04070647e-06 -2.13382773e-05
      -3.03729266e-05 -3.73674920e-05 -2.07431713e-05 -8.09350513e-06
      -3.67007101e-06 -3.83933241e-07 2.64697796e-21 2.64697796e-21
      2.64697796e-21 2.64697796e-21 2.64697796e-21 2.64697796e-21
      2.64697796e-21 2.64697796e-21 2.64697796e-21 2.64697796e-21
      2.64697796e-21 2.64697796e-21 -7.16388911e-07 -6.13448856e-06
      -2.67210526e-05 -3.49626316e-05 -3.14913086e-05 -2.97665902e-05
      -2.81377161e-05 -2.16035878e-05 -4.39667883e-06 1.36896469e-05
      2.68728054e-05 2.78988700e-05 3.06285292e-05 2.96685284e-05
      2.33787759e-05 1.89712537e-05 1.31969045e-05 8.28955399e-06
      3.43904094e-06 5.71308817e-07 -6.04070647e-06 -2.13382773e-05
      -3.03729266e-05 -3.72621398e-05 -2.03147411e-05 -7.77042806e-06
      -3.67007101e-06 -3.83933241e-07 2.64697796e-21 2.64697796e-21
      2.64697796e-21 2.64697796e-21 2.64697796e-21 2.64697796e-21
      2.64697796e-21 2.64697796e-21 2.64697796e-21 2.64697796e-21
      2.64697796e-21 2.64697796e-21 -5.75920524e-07 -5.34765468e-06
      -2.49517543e-05 -3.28778988e-05 -2.86695704e-05 -2.80816766e-05
      -2.79103770e-05 -1.85916651e-05 7.32141643e-07 1.76671183e-05
      2.85107726e-05 2.68830427e-05 2.62479607e-05 2.41765811e-05
      1.88711165e-05 1.39585145e-05 8.25420102e-06 3.16248043e-06
      -4.84899829e-07 -4.62136404e-06 -9.67860069e-06 -2.24813011e-05
      -3.11349431e-05 -3.73222756e-05 -2.01742732e-05 -7.66507674e-06
      -3.69027794e-06 -3.83933241e-07 2.64697796e-21 2.64697796e-21
      2.64697796e-21 2.64697796e-21 2.64697796e-21 2.64697796e-21
      2.64697796e-21 2.64697796e-21 2.64697796e-21 2.64697796e-21
      2.64697796e-21 2.64697796e-21 -3.58194455e-07 -3.61368461e-06
      -1.92474436e-05 -2.75627699e-05 -2.53928629e-05 -2.69969696e-05
      -2.69595857e-05 -1.23320069e-05 8.03540661e-06 2.14864176e-05
      2.92465120e-05 2.68477233e-05 2.30703245e-05 1.78686623e-05
      1.35659193e-05 7.67906113e-06 3.63146023e-06 2.64007696e-07
      -2.82333531e-06 -1.14450386e-05 -1.72567325e-05 -2.62913800e-05
      -3.37067431e-05 -3.75127784e-05 -2.01672501e-05 -7.66507674e-06
      -3.67007101e-06 -3.83933241e-07 2.64697796e-21 2.64697796e-21
      2.64697796e-21 2.64697796e-21 2.64697796e-21 2.64697796e-21
      2.64697796e-21 2.64697796e-21 2.64697796e-21 2.64697796e-21
      2.64697796e-21 2.64697796e-21 -3.58194455e-07 -2.28014574e-06
      -9.26176290e-06 -1.63046516e-05 -2.01189196e-05 -2.19514804e-05
      -1.84696346e-05 -5.42079215e-06 8.68789721e-06 1.52205967e-05
      2.04361841e-05 2.01438506e-05 2.05572233e-05 1.55157759e-05
      1.00287098e-05 3.32736681e-06 7.46894329e-07 -1.12220380e-06
      -3.63178015e-06 -1.34363481e-05 -2.13144358e-05 -3.00919237e-05
      -3.59554688e-05 -3.72577306e-05 -1.96334695e-05 -7.34199921e-06
      -3.69027794e-06 -3.83933241e-07 2.64697796e-21 2.64697796e-21
      2.64697796e-21 2.64697796e-21 2.64697796e-21 2.64697796e-21
      2.64697796e-21 2.64697796e-21 2.64697796e-21 2.64697796e-21
      2.64697796e-21 2.64697796e-21 6.69437611e-07 1.50395533e-06
      -1.04344711e-08 -6.57829241e-06 -1.37958350e-05 -1.56719707e-05
      -1.06770567e-05 9.55641468e-08 8.18916487e-06 1.06009775e-05
      1.36169692e-05 1.44460882e-05 1.78659848e-05 1.24337112e-05
      6.27671352e-06 -1.98437860e-07 -1.44217120e-06 -3.40287920e-06
      -6.52742665e-06 -1.64393859e-05 -2.54577135e-05 -3.31588126e-05
      -3.81790196e-05 -3.74335577e-05 -1.92752759e-05 -7.12427300e-06
      -3.69027794e-06 -3.83933241e-07 2.64697796e-21 2.64697796e-21
      2.64697796e-21 2.64697796e-21 2.64697796e-21 2.64697796e-21
      2.64697796e-21 2.64697796e-21 2.64697796e-21 2.64697796e-21
      2.64697796e-21 2.64697796e-21 3.66817653e-06 9.07973117e-06
      3.67126700e-06 -3.08712697e-06 -5.26953545e-06 -6.65158132e-06
      -5.19986315e-06 -4.55949305e-07 3.60616923e-06 9.75174135e-06
      1.21481135e-05 1.12540283e-05 1.42190529e-05 1.03996945e-05
      6.44611509e-06 2.19906860e-06 -4.49054795e-07 -7.55168412e-06
      -1.38482374e-05 -1.93239539e-05 -2.46134150e-05 -2.91950764e-05
      -3.65093911e-05 -3.77972865e-05 -1.92550688e-05 -7.06365199e-06
      -3.64986386e-06 -3.83933241e-07 2.64697796e-21 2.64697796e-21
      2.64697796e-21 2.64697796e-21 2.64697796e-21 2.64697796e-21
      2.64697796e-21 2.64697796e-21 2.64697796e-21 2.64697796e-21
      2.64697796e-21 2.64697796e-21 4.65021822e-06 1.16255460e-05
      7.65542336e-06 4.32478782e-06 4.05166293e-06 3.27959037e-06
      2.30661499e-06 1.74164677e-06 1.93235769e-06 5.25415908e-06
      6.86980047e-06 6.39386462e-06 8.43476482e-06 6.59733587e-06
      4.65403900e-06 2.61243667e-06 -7.02071816e-07 -7.65235472e-06
      -1.36227882e-05 -1.65375022e-05 -1.89497896e-05 -2.10467169e-05
      -2.50544526e-05 -2.58183045e-05 -1.48846575e-05 -5.91185244e-06
      -2.76075525e-06 -2.82898185e-07 2.64697796e-21 2.64697796e-21
      2.64697796e-21 2.64697796e-21 2.64697796e-21 2.64697796e-21
      2.64697796e-21 2.64697796e-21 2.64697796e-21 2.64697796e-21
      2.64697796e-21 2.64697796e-21 4.65021822e-06 1.16255460e-05
      1.16255460e-05 1.29392065e-05 1.35485507e-05 1.36190329e-05
      1.11305853e-05 6.35394872e-06 2.71389331e-06 3.88833058e-07
      3.98632750e-07 5.29491274e-07 7.29209773e-07 6.41839790e-07
      5.36061066e-07 5.06486231e-07 -2.56657881e-06 -5.91949038e-06
      -9.36765446e-06 -1.05964164e-05 -1.04287265e-05 -1.01521300e-05
      -7.15827355e-06 -5.20517369e-06 -7.22887080e-06 -4.67922473e-06
      -1.87164687e-06 -1.81863115e-07 2.64697796e-21 2.64697796e-21
      2.64697796e-21 2.64697796e-21 2.64697796e-21 2.64697796e-21
      2.64697796e-21 2.64697796e-21 2.64697796e-21 2.64697796e-21
      2.64697796e-21 2.64697796e-21 4.65021822e-06 1.16255460e-05
      1.16255460e-05 1.58173807e-05 2.26326119e-05 2.46563941e-05
      2.03988075e-05 1.57116956e-05 9.50534923e-06 4.18349782e-06
      1.32754758e-06 0. 6.56936727e-09 6.24089864e-08 1.21533290e-07
      1.77372911e-07 -1.18770390e-06 -2.32200068e-06 -3.54202507e-06
      -3.64758716e-06 -9.46143700e-07 4.68829830e-06 9.14832253e-06
      1.24993121e-05 1.08263885e-06 -2.98853547e-06 -9.15869691e-07
      -6.06210335e-08 2.64697796e-21 2.64697796e-21 2.64697796e-21
      2.64697796e-21 2.64697796e-21 2.64697796e-21 2.64697796e-21
      2.64697796e-21 2.64697796e-21 2.64697796e-21 2.64697796e-21
      2.64697796e-21 4.65021822e-06 1.16255460e-05 1.16255460e-05
      1.76022950e-05 2.86585037e-05 3.19410137e-05 2.66098759e-05
      2.22660165e-05 1.41217788e-05 6.96351935e-06 2.11991323e-06 0. 0.
      0. 0. 0. 0. 5.33779996e-07 1.07458334e-06 1.60836339e-06
      5.95331221e-06 1.51115701e-05 2.06140703e-05 2.49350778e-05
      6.81994516e-06 -1.92078710e-06 -3.42866969e-07 2.64697796e-21
      2.64697796e-21 2.64697796e-21 2.64697796e-21 2.64697796e-21
      2.64697796e-21 2.64697796e-21</_>
    <_>
      -6.77626358e-21 -6.77626358e-21 -6.77626358e-21 -6.77626358e-21
      -6.77626358e-21 -6.77626358e-21 -6.77626358e-21 1.20009042e-06
      4.13215275e-06 2.54470388e-06 -5.79627385e-06 -3.95653217e-07
      5.92499646e-06 1.03071952e-05 1.05177560e-05 6.80750372e-06
      6.12695248e-06 6.41918632e-06 6.90595789e-06 6.76994341e-06
      6.10809684e-06 6.10809684e-06 6.10809684e-06 7.09326150e-06
      9.71330974e-06 1.11767395e-05 1.22878282e-05 1.04673763e-05
      2.20064267e-05 2.96991275e-05 2.16261615e-05 1.02377408e-05
      2.79194273e-06 9.02979423e-07 -6.77626358e-21 -6.77626358e-21
      -6.77626358e-21 -6.77626358e-21 -6.77626358e-21 -6.77626358e-21
      -6.77626358e-21 -6.77626358e-21 -6.77626358e-21 -6.77626358e-21
      -6.77626358e-21 -6.77626358e-21 -6.77626358e-21 1.20009042e-06
      4.13215275e-06 2.60997354e-06 -6.02342698e-06 -3.13708119e-06
      2.87554883e-07 1.78533719e-06 1.47090111e-06 -4.59133560e-07
      -4.90823766e-07 1.25445780e-07 1.75132143e-07 1.05160957e-07
      1.91496852e-07 8.03915952e-07 1.41633495e-06 1.85010720e-06
      4.06303843e-06 6.97754467e-06 9.26810390e-06 9.84776216e-06
      1.66298632e-05 2.29575307e-05 2.03963064e-05 1.04704277e-05
      2.37466361e-06 8.23098674e-07 -6.77626358e-21 -6.77626358e-21
      -6.77626358e-21 -6.77626358e-21 -6.77626358e-21 -6.77626358e-21
      -6.77626358e-21 -6.77626358e-21 -6.77626358e-21 -6.77626358e-21
      -6.77626358e-21 -6.77626358e-21 -6.77626358e-21 1.20009042e-06
      4.13215275e-06 2.69020188e-06 -6.46748686e-06 -7.63865773e-06
      -8.49249773e-06 -1.13425158e-05 -1.21300009e-05 -1.12791058e-05
      -1.03736220e-05 -9.23530661e-06 -9.86321265e-06 -9.82544498e-06
      -8.52364155e-06 -6.87277270e-06 -5.24853067e-06 -5.67568486e-06
      -4.04136472e-06 8.96505469e-07 4.82424912e-06 8.98628423e-06
      8.49244225e-06 1.28313495e-05 1.82293697e-05 1.05002782e-05
      1.57123304e-06 6.89964111e-07 -6.77626358e-21 -6.77626358e-21
      -6.77626358e-21 -6.77626358e-21 -6.77626358e-21 -6.77626358e-21
      -6.77626358e-21 -6.77626358e-21 -6.77626358e-21 -6.77626358e-21
      -6.77626358e-21 -6.77626358e-21 -6.77626358e-21 1.20009042e-06
      -3.07263053e-06 -8.11366044e-06 -1.19113465e-05 -1.21588746e-05
      -1.34583233e-05 -1.59460906e-05 -1.59546744e-05 -1.45020394e-05
      -1.21477633e-05 -9.75359671e-06 -9.15843430e-06 -8.47373485e-06
      -7.51048037e-06 -6.44540387e-06 -5.35370009e-06 -5.77529818e-06
      -4.64907453e-06 -6.26697158e-07 2.40796203e-06 6.07406855e-06
      5.53854579e-06 1.04553264e-05 1.78713053e-05 1.12063090e-05
      1.57773013e-06 6.63337175e-07 -6.77626358e-21 -6.77626358e-21
      -6.77626358e-21 -6.77626358e-21 -6.77626358e-21 -6.77626358e-21
      -6.77626358e-21 -6.77626358e-21 -6.77626358e-21 -6.77626358e-21
      -6.77626358e-21 -6.77626358e-21 -2.39533193e-07 3.84679254e-07
      -9.41814778e-06 -1.78915743e-05 -1.86661346e-05 -1.91348117e-05
      -2.04261250e-05 -2.13844396e-05 -2.07517060e-05 -1.89694983e-05
      -1.37240513e-05 -7.80127539e-06 -5.79706330e-06 -4.80979088e-06
      -4.85444116e-06 -4.83382200e-06 -4.54240126e-06 -4.75189245e-06
      -3.42323619e-06 7.26231121e-07 2.81184498e-06 4.52483800e-06
      3.48176650e-06 8.13507177e-06 1.56425267e-05 1.01362430e-05
      1.46847390e-06 6.31290447e-07 -6.77626358e-21 -6.77626358e-21
      -6.77626358e-21 -6.77626358e-21 -6.77626358e-21 -6.77626358e-21
      -6.77626358e-21 -6.77626358e-21 -6.77626358e-21 -6.77626358e-21
      -6.77626358e-21 -6.77626358e-21 -9.82086135e-07 -1.79694473e-06
      -1.30679809e-05 -2.27077890e-05 -2.45135216e-05 -2.68019612e-05
      -2.81642297e-05 -2.70089913e-05 -2.50599533e-05 -2.25066051e-05
      -1.25745200e-05 -2.35419463e-07 2.02489832e-06 2.74508466e-06
      2.34694062e-06 2.20987454e-06 3.11194685e-06 1.29473710e-06
      1.68544204e-06 7.30941611e-06 8.25169082e-06 5.91756680e-06
      3.73842886e-06 6.02793534e-06 9.91933302e-06 5.06890046e-06
      3.09185623e-07 4.52623681e-07 -6.77626358e-21 -6.77626358e-21
      -6.77626358e-21 -6.77626358e-21 -6.77626358e-21 -6.77626358e-21
      -6.77626358e-21 -6.77626358e-21 -6.77626358e-21 -6.77626358e-21
      -6.77626358e-21 -6.77626358e-21 -1.22161930e-06 -3.20064214e-06
      -1.74010183e-05 -2.85293536e-05 -3.08559866e-05 -3.32017298e-05
      -3.43705033e-05 -3.25383080e-05 -2.83045320e-05 -2.04521366e-05
      -1.02658096e-05 -4.09072641e-07 1.89477601e-06 2.63298602e-06
      2.39683959e-06 3.76380717e-06 8.65126094e-06 1.21839266e-05
      1.33821968e-05 1.31235711e-05 1.14100721e-05 7.70178212e-06
      2.38441680e-06 6.41040856e-07 2.40980762e-06 -1.15442526e-06
      -1.20823051e-06 2.03936082e-07 -6.77626358e-21 -6.77626358e-21
      -6.77626358e-21 -6.77626358e-21 -6.77626358e-21 -6.77626358e-21
      -6.77626358e-21 -6.77626358e-21 -6.77626358e-21 -6.77626358e-21
      -6.77626358e-21 -6.77626358e-21 -1.22161930e-06 -3.95932238e-06
      -2.08690053e-05 -3.34036886e-05 -3.64112202e-05 -3.87550099e-05
      -3.95160168e-05 -3.75270174e-05 -2.97650040e-05 -1.39336989e-05
      -5.84042709e-06 -3.07444520e-06 -1.54811687e-06 -1.00329328e-06
      -5.71238900e-07 3.51048152e-06 1.36068356e-05 2.56877793e-05
      2.80696058e-05 1.74184679e-05 1.16749306e-05 7.79809488e-06
      -1.58273599e-06 -8.11279460e-06 -6.69530573e-06 -7.14997532e-06
      -2.58686237e-06 -6.84610626e-08 -6.77626358e-21 -6.77626358e-21
      -6.77626358e-21 -6.77626358e-21 -6.77626358e-21 -6.77626358e-21
      -6.77626358e-21 -6.77626358e-21 -6.77626358e-21 -6.77626358e-21
      -6.77626358e-21 -6.77626358e-21 -1.22161930e-06 -4.47011416e-06
      -2.31172980e-05 -3.62749379e-05 -3.93606897e-05 -4.13433663e-05
      -4.16117909e-05 -3.20582476e-05 -2.08700076e-05 -1.09687171e-05
      -5.79129755e-06 -3.50564028e-06 -2.79403980e-06 -1.18923549e-06
      3.04672108e-06 9.37209279e-06 2.14504744e-05 3.17318736e-05
      3.12543270e-05 1.93856195e-05 1.06523703e-05 3.26413715e-06
      -7.90581089e-06 -1.77599959e-05 -1.31695278e-05 -1.01045398e-05
      -3.77079573e-06 -2.80933364e-07 -6.77626358e-21 -6.77626358e-21
      -6.77626358e-21 -6.77626358e-21 -6.77626358e-21 -6.77626358e-21
      -6.77626358e-21 -6.77626358e-21 -6.77626358e-21 -6.77626358e-21
      -6.77626358e-21 -6.77626358e-21 -1.22161930e-06 -4.62906428e-06
      -2.37870390e-05 -3.70786256e-05 -4.01474099e-05 -4.20112956e-05
      -4.18988238e-05 -2.71668669e-05 -1.41781320e-05 -8.89202238e-06
      -5.57016574e-06 -3.17346962e-06 -2.17818501e-06 7.52221524e-07
      8.33813192e-06 1.86000798e-05 3.14043573e-05 3.77546785e-05
      3.55572847e-05 2.48166689e-05 1.30001445e-05 -8.57992166e-09
      -1.38436690e-05 -2.41907674e-05 -1.66371319e-05 -1.21092044e-05
      -4.79410210e-06 -4.59600130e-07 -6.77626358e-21 -6.77626358e-21
      -6.77626358e-21 -6.77626358e-21 -6.77626358e-21 -6.77626358e-21
      -6.77626358e-21 -6.77626358e-21 -6.77626358e-21 -6.77626358e-21
      -6.77626358e-21 -6.77626358e-21 -1.35475386e-06 -5.81761924e-06
      -2.55154464e-05 -3.82841499e-05 -4.08130836e-05 -4.21710574e-05
      -4.16580406e-05 -2.63722886e-05 -1.32773794e-05 -7.99011195e-06
      -4.79068376e-06 -2.18918490e-06 -7.21402898e-07 3.67044504e-06
      1.35560149e-05 2.62135272e-05 3.75699419e-05 4.13792768e-05
      4.08606174e-05 3.59587284e-05 2.01087969e-05 -1.97616146e-06
      -1.76115427e-05 -2.85225651e-05 -1.90400133e-05 -1.29235605e-05
      -5.04825994e-06 -5.05911430e-07 -6.77626358e-21 -6.77626358e-21
      -6.77626358e-21 -6.77626358e-21 -6.77626358e-21 -6.77626358e-21
      -6.77626358e-21 -6.77626358e-21 -6.77626358e-21 -6.77626358e-21
      -6.77626358e-21 -6.77626358e-21 -1.64765004e-06 -8.27958047e-06
      -2.94667461e-05 -4.10539251e-05 -4.21710574e-05 -4.24905811e-05
      -4.16339644e-05 -2.63722886e-05 -1.28870597e-05 -7.19250193e-06
      -3.54218628e-06 -1.07292510e-06 2.37380141e-06 1.05923136e-05
      2.33180399e-05 3.42077619e-05 4.05010105e-05 4.22021476e-05
      4.23154634e-05 3.92873844e-05 2.16271874e-05 -3.87828368e-06
      -1.93651049e-05 -2.91296583e-05 -2.01106795e-05 -1.33414233e-05
      -5.07488721e-06 -5.05911430e-07 -6.77626358e-21 -6.77626358e-21
      -6.77626358e-21 -6.77626358e-21 -6.77626358e-21 -6.77626358e-21
      -6.77626358e-21 -6.77626358e-21 -6.77626358e-21 -6.77626358e-21
      -6.77626358e-21 -6.77626358e-21 -1.72753073e-06 -9.13427084e-06
      -3.11184740e-05 -4.21728255e-05 -4.25970866e-05 -4.25970866e-05
      -4.16339644e-05 -2.63722886e-05 -1.25137103e-05 -6.46277385e-06
      -2.61846935e-06 3.15499307e-07 7.52999767e-06 1.98011167e-05
      3.32447125e-05 4.07174339e-05 4.23198690e-05 4.25970866e-05
      4.17753581e-05 3.70775051e-05 2.10767630e-05 -2.64963955e-06
      -1.79177550e-05 -2.68111689e-05 -1.95934954e-05 -1.33818075e-05
      -5.04825994e-06 -5.05911430e-07 -6.77626358e-21 -6.77626358e-21
      -6.77626358e-21 -6.77626358e-21 -6.77626358e-21 -6.77626358e-21
      -6.77626358e-21 -6.77626358e-21 -6.77626358e-21 -6.77626358e-21
      -6.77626358e-21 -6.77626358e-21 -1.72753073e-06 -9.27969086e-06
      -3.16615260e-05 -4.25631479e-05 -4.25970866e-05 -4.25970866e-05
      -4.16580406e-05 -2.63722886e-05 -1.21403609e-05 -5.67179313e-06
      4.16513871e-07 7.02546731e-06 1.60236741e-05 2.92417481e-05
      3.85423882e-05 4.21207405e-05 4.25869912e-05 4.25970866e-05
      4.12919871e-05 3.48411231e-05 1.79626659e-05 -5.55374118e-06
      -1.69383911e-05 -2.20447164e-05 -1.44838205e-05 -1.03292741e-05
      -5.07488721e-06 -5.05911430e-07 -6.77626358e-21 -6.77626358e-21
      -6.77626358e-21 -6.77626358e-21 -6.77626358e-21 -6.77626358e-21
      -6.77626358e-21 -6.77626358e-21 -6.77626358e-21 -6.77626358e-21
      -6.77626358e-21 -6.77626358e-21 -1.72753073e-06 -9.29666112e-06
      -3.17124395e-05 -4.25970866e-05 -4.25970866e-05 -4.25970866e-05
      -4.16339644e-05 -2.63722886e-05 -1.21064195e-05 -5.14687235e-06
      2.68781150e-06 1.22831825e-05 2.42759070e-05 3.58561410e-05
      4.11053952e-05 4.25191538e-05 4.25970866e-05 4.25970866e-05
      4.12919871e-05 3.44173532e-05 1.72676610e-05 -4.68453482e-06
      -1.34695138e-05 -1.70945350e-05 -8.67958897e-06 -6.55992653e-06
      -4.69124006e-06 -4.55431518e-07 -6.77626358e-21 -6.77626358e-21
      -6.77626358e-21 -6.77626358e-21 -6.77626358e-21 -6.77626358e-21
      -6.77626358e-21 -6.77626358e-21 -6.77626358e-21 -6.77626358e-21
      -6.77626358e-21 -6.77626358e-21 -1.72753073e-06 -9.29666112e-06
      -3.17124395e-05 -4.25970866e-05 -4.25970866e-05 -4.25970866e-05
      -4.16580406e-05 -2.63722886e-05 -1.21064195e-05 -4.68983308e-06
      2.82372457e-06 1.24867456e-05 2.52111622e-05 3.46506167e-05
      4.09545755e-05 4.25970866e-05 4.25970866e-05 4.25970866e-05
      4.20412107e-05 3.64500738e-05 2.00894701e-05 -1.01780086e-06
      -1.05621057e-05 -1.38513024e-05 -3.20132199e-06 -2.67952282e-06
      -4.24701693e-06 -4.04951663e-07 -6.77626358e-21 -6.77626358e-21
      -6.77626358e-21 -6.77626358e-21 -6.77626358e-21 -6.77626358e-21
      -6.77626358e-21 -6.77626358e-21 -6.77626358e-21 -6.77626358e-21
      -6.77626358e-21 -6.77626358e-21 -1.72753073e-06 -9.27003475e-06
      -3.17124395e-05 -4.25970866e-05 -4.25970866e-05 -4.25970866e-05
      -4.16580406e-05 -2.63722886e-05 -1.21064195e-05 -4.16562261e-06
      4.51478718e-06 1.54770696e-05 2.65294002e-05 3.10576361e-05
      3.47118839e-05 3.71556162e-05 3.92127549e-05 4.12698973e-05
      4.25970866e-05 3.92675538e-05 2.50517205e-05 3.51280482e-06
      -6.85299165e-06 -1.12058897e-05 -7.59600596e-07 -9.06325397e-07
      -3.77616720e-06 -3.54471780e-07 -6.77626358e-21 -6.77626358e-21
      -6.77626358e-21 -6.77626358e-21 -6.77626358e-21 -6.77626358e-21
      -6.77626358e-21 -6.77626358e-21 -6.77626358e-21 -6.77626358e-21
      -6.77626358e-21 -6.77626358e-21 -1.72753073e-06 -9.29666112e-06
      -3.17124395e-05 -4.25970866e-05 -4.25970866e-05 -4.25970866e-05
      -4.16339644e-05 -2.63722886e-05 -1.21064195e-05 -3.81859491e-06
      6.23326378e-06 1.72620712e-05 2.46560339e-05 2.53523631e-05
      2.53523631e-05 2.87366929e-05 3.38463688e-05 3.89603556e-05
      4.24355530e-05 4.03127706e-05 2.78988300e-05 7.82158986e-06
      -3.40943132e-07 -5.69535268e-06 1.97146346e-06 7.25603755e-08
      -3.45953094e-06 -3.14087856e-07 -6.77626358e-21 -6.77626358e-21
      -6.77626358e-21 -6.77626358e-21 -6.77626358e-21 -6.77626358e-21
      -6.77626358e-21 -6.77626358e-21 -6.77626358e-21 -6.77626358e-21
      -6.77626358e-21 -6.77626358e-21 -1.72753073e-06 -9.27003475e-06
      -3.17124395e-05 -4.25970866e-05 -4.25970866e-05 -4.25970866e-05
      -4.16580406e-05 -2.63722886e-05 -1.21064195e-05 -3.60881131e-06
      6.64714617e-06 1.56816714e-05 2.21813716e-05 2.34188847e-05
      2.34188847e-05 2.47460739e-05 2.68512849e-05 2.93930516e-05
      3.23321692e-05 3.46677989e-05 2.70448345e-05 1.12824910e-05
      4.49071376e-06 7.04097602e-07 6.04556953e-06 8.08393111e-07
      -3.39299618e-06 -3.14087856e-07 -6.77626358e-21 -6.77626358e-21
      -6.77626358e-21 -6.77626358e-21 -6.77626358e-21 -6.77626358e-21
      -6.77626358e-21 -6.77626358e-21 -6.77626358e-21 -6.77626358e-21
      -6.77626358e-21 -6.77626358e-21 -1.72753073e-06 -9.27003475e-06
      -3.17124395e-05 -4.25970866e-05 -4.25970866e-05 -4.25970866e-05
      -4.16339644e-05 -2.63722886e-05 -1.21064195e-05 -4.07594644e-06
      4.41492421e-06 1.10787323e-05 1.66251139e-05 1.80890584e-05
      1.80890584e-05 1.80890584e-05 1.83935026e-05 1.95796893e-05
      2.29951893e-05 2.74090071e-05 2.22756516e-05 1.02063677e-05
      6.31450439e-06 5.39287612e-06 1.04073188e-05 2.91801166e-06
      -3.01796786e-06 -3.14087856e-07 -6.77626358e-21 -6.77626358e-21
      -6.77626358e-21 -6.77626358e-21 -6.77626358e-21 -6.77626358e-21
      -6.77626358e-21 -6.77626358e-21 -6.77626358e-21 -6.77626358e-21
      -6.77626358e-21 -6.77626358e-21 -1.72753073e-06 -9.27003475e-06
      -3.17124395e-05 -4.25970866e-05 -4.25970866e-05 -4.25970866e-05
      -4.16339644e-05 -2.63722886e-05 -1.21064195e-05 -4.73895489e-06
      1.82908605e-06 6.85783107e-06 1.01152473e-05 1.04342862e-05
      1.04342862e-05 1.04342862e-05 1.08829399e-05 1.23665668e-05
      1.58283692e-05 1.86312318e-05 1.34306574e-05 2.85843475e-06
      4.38152119e-06 7.22191453e-06 1.27968533e-05 4.91871606e-06
      -2.40258919e-06 -2.33971065e-07 -6.77626358e-21 -6.77626358e-21
      -6.77626358e-21 -6.77626358e-21 -6.77626358e-21 -6.77626358e-21
      -6.77626358e-21 -6.77626358e-21 -6.77626358e-21 -6.77626358e-21
      -6.77626358e-21 -6.77626358e-21 -1.72753073e-06 -9.27003475e-06
      -3.17124395e-05 -4.25970866e-05 -4.25970866e-05 -4.25970866e-05
      -4.16580406e-05 -2.63722886e-05 -1.21064195e-05 -5.57102248e-06
      -1.45968045e-06 2.01018111e-06 3.93632126e-06 3.93632126e-06
      3.93632126e-06 3.93632126e-06 4.38497545e-06 5.64954644e-06
      8.41540896e-06 1.10543961e-05 8.56321185e-06 -9.11927032e-07
      2.11776000e-06 6.30581690e-06 1.37159950e-05 6.93823040e-06
      -1.54686006e-06 -1.05784167e-07 -6.77626358e-21 -6.77626358e-21
      -6.77626358e-21 -6.77626358e-21 -6.77626358e-21 -6.77626358e-21
      -6.77626358e-21 -6.77626358e-21 -6.77626358e-21 -6.77626358e-21
      -6.77626358e-21 -6.77626358e-21 -1.72753073e-06 -9.17786838e-06
      -3.12202974e-05 -4.22576777e-05 -4.25970866e-05 -4.25970866e-05
      -4.16339644e-05 -2.63722886e-05 -1.21064195e-05 -5.71607507e-06
      -1.84514374e-06 6.25047107e-07 1.40010559e-06 1.40010559e-06
      1.40010559e-06 1.40010559e-06 1.65647930e-06 2.16377111e-06
      3.43759098e-06 5.74162323e-06 5.54219014e-06 -2.11412953e-06
      8.55828546e-07 4.76248624e-06 1.30614981e-05 7.34555988e-06
      -1.05768834e-06 3.84260801e-08 -6.77626358e-21 -6.77626358e-21
      -6.77626358e-21 -6.77626358e-21 -6.77626358e-21 -6.77626358e-21
      -6.77626358e-21 -6.77626358e-21 -6.77626358e-21 -6.77626358e-21
      -6.77626358e-21 -6.77626358e-21 -1.72753073e-06 -9.03244836e-06
      -3.06772417e-05 -4.18673590e-05 -4.25970866e-05 -4.25970866e-05
      -4.17302763e-05 -2.66371480e-05 -1.23953569e-05 -5.95685606e-06
      -1.91992672e-06 -6.77626358e-21 -6.77626358e-21 -6.77626358e-21
      -6.77626358e-21 -6.77626358e-21 -6.77626358e-21 3.20467208e-08
      6.44235286e-07 2.61647165e-06 2.76506762e-06 -3.52482220e-06
      9.12711045e-08 4.10494886e-06 1.29250730e-05 7.76374054e-06
      -5.76479863e-07 1.66612978e-07 -6.77626358e-21 -6.77626358e-21
      -6.77626358e-21 -6.77626358e-21 -6.77626358e-21 -6.77626358e-21
      -6.77626358e-21 -6.77626358e-21 -6.77626358e-21 -6.77626358e-21
      -6.77626358e-21 -6.77626358e-21 -1.72753073e-06 -8.92331173e-06
      -3.01341879e-05 -4.14940114e-05 -4.25970866e-05 -4.25970866e-05
      -4.20192118e-05 -2.75280381e-05 -1.33584817e-05 -6.72735587e-06
      -2.11255178e-06 -6.77626358e-21 -6.77626358e-21 -6.77626358e-21
      -6.77626358e-21 -6.77626358e-21 -6.77626358e-21 3.20467208e-08
      5.78965796e-07 1.35000653e-06 2.21377761e-07 -5.20206504e-06
      -9.69159942e-07 3.38447558e-06 1.24101780e-05 7.62040872e-06
      -5.93010839e-07 1.82636327e-07 -6.77626358e-21 -6.77626358e-21
      -6.77626358e-21 -6.77626358e-21 -6.77626358e-21 -6.77626358e-21
      -6.77626358e-21 -6.77626358e-21 -6.77626358e-21 -6.77626358e-21
      -6.77626358e-21 -6.77626358e-21 -1.72753073e-06 -8.88937120e-06
      -2.99644835e-05 -4.13921880e-05 -4.25970866e-05 -4.25970866e-05
      -4.23322272e-05 -2.84189282e-05 -1.43216057e-05 -7.52193318e-06
      -2.25447161e-06 -6.77626358e-21 -6.77626358e-21 -6.77626358e-21
      -6.77626358e-21 -6.77626358e-21 -6.77626358e-21 3.20467208e-08
      5.78965796e-07 6.69131794e-07 -1.37795632e-06 -7.32162835e-06
      -2.60279080e-06 3.13027658e-06 1.22297524e-05 7.47225931e-06
      -7.21197750e-07 1.34566250e-07 -6.77626358e-21 -6.77626358e-21
      -6.77626358e-21 -6.77626358e-21 -6.77626358e-21 -6.77626358e-21
      -6.77626358e-21 -6.77626358e-21 -6.77626358e-21 -6.77626358e-21
      -6.77626358e-21 -6.77626358e-21 -1.72753073e-06 -8.88937120e-06
      -2.59165590e-05 -3.45616136e-05 -3.57046047e-05 -3.52255374e-05
      -3.45139415e-05 -2.32380862e-05 -1.15095481e-05 -7.31707087e-06
      -2.42301826e-06 -6.77626358e-21 -6.77626358e-21 -6.77626358e-21
      -6.77626358e-21 -6.77626358e-21 -6.77626358e-21 3.20467208e-08
      5.78965796e-07 1.73842821e-07 -2.61736591e-06 -9.78613025e-06
      -4.71073190e-06 2.67095879e-06 1.16368883e-05 6.86731073e-06
      -1.20189861e-06 -9.64400204e-09 -6.77626358e-21 -6.77626358e-21
      -6.77626358e-21 -6.77626358e-21 -6.77626358e-21 -6.77626358e-21
      -6.77626358e-21 -6.77626358e-21 -6.77626358e-21 -6.77626358e-21
      -6.77626358e-21 -6.77626358e-21 -1.64741391e-06 -8.60637010e-06
      -1.93628384e-05 -2.32574675e-05 -2.38487119e-05 -2.28033496e-05
      -2.16085555e-05 -1.42003564e-05 -5.97651797e-06 -5.87206705e-06
      -2.44964531e-06 -6.77626358e-21 -6.77626358e-21 -6.77626358e-21
      -6.77626358e-21 -6.77626358e-21 -6.77626358e-21 3.20467208e-08
      5.78965796e-07 1.73842821e-07 -2.74237527e-06 -1.11612344e-05
      -6.08583559e-06 2.27355235e-06 1.10600467e-05 6.30255363e-06
      -1.66606844e-06 -1.37830895e-07 -6.77626358e-21 -6.77626358e-21
      -6.77626358e-21 -6.77626358e-21 -6.77626358e-21 -6.77626358e-21
      -6.77626358e-21 -6.77626358e-21 -6.77626358e-21 -6.77626358e-21
      -6.77626358e-21 -6.77626358e-21 -2.16587591e-06 -8.97955033e-06
      -1.65340989e-05 -1.86168891e-05 -1.92611678e-05 -1.81256200e-05
      -1.74411380e-05 -1.13600290e-05 -4.76621881e-06 -6.13131670e-06
      -2.93447761e-06 -5.32538309e-07 -1.86388419e-07 -6.77626358e-21
      -6.77626358e-21 -6.77626358e-21 -6.77626358e-21 3.20467208e-08
      5.78965796e-07 4.52442862e-07 -2.19826984e-06 -1.12421758e-05
      -6.35846391e-06 1.97312852e-06 1.04671826e-05 5.70968950e-06
      -2.16330022e-06 -2.82041157e-07 -6.77626358e-21 -6.77626358e-21
      -6.77626358e-21 -6.77626358e-21 -6.77626358e-21 -6.77626358e-21
      -6.77626358e-21 -6.77626358e-21 -6.77626358e-21 -6.77626358e-21
      -6.77626358e-21 -6.77626358e-21 -2.11169572e-06 -6.52840663e-06
      -9.91956404e-06 -1.00562611e-05 -1.08971599e-05 -9.50873891e-06
      -1.03622988e-05 -5.15654756e-06 -1.17690411e-06 -5.57432350e-06
      -3.43373176e-06 -2.15678028e-06 -7.98807491e-07 -6.77626358e-21
      -6.77626358e-21 -6.77626358e-21 2.08303703e-07 4.96724226e-07
      1.42409851e-06 2.89386185e-06 1.04716185e-06 -8.18179433e-06
      -4.79380014e-06 2.12166833e-06 1.08340855e-05 5.94474159e-06
      -2.24290943e-06 -3.14087856e-07 -6.77626358e-21 -6.77626358e-21
      -6.77626358e-21 -6.77626358e-21 -6.77626358e-21 -6.77626358e-21
      -6.77626358e-21 -6.77626358e-21 -6.77626358e-21 -6.77626358e-21
      -6.77626358e-21 -6.77626358e-21 -1.65568417e-06 -3.19127821e-06
      -3.44559021e-06 -4.11915426e-06 -6.23355436e-06 -4.43039607e-06
      -4.68594726e-06 4.13965836e-06 8.18911940e-06 1.81163819e-06
      -5.42551845e-07 -2.98221471e-06 -1.11833049e-06 -6.77626358e-21
      -6.77626358e-21 -6.77626358e-21 4.64677470e-07 1.08958852e-06
      3.16712158e-06 8.37783136e-06 8.01527040e-06 -1.15618820e-06
      -1.34625452e-06 2.86419163e-06 1.25155912e-05 7.09114647e-06
      -2.24290943e-06 -3.14087856e-07 -6.77626358e-21 -6.77626358e-21
      -6.77626358e-21 -6.77626358e-21 -6.77626358e-21 -6.77626358e-21
      -6.77626358e-21 -6.77626358e-21 -6.77626358e-21 -6.77626358e-21
      -6.77626358e-21 -6.77626358e-21 -9.21351784e-07 6.09612812e-07
      2.50243033e-06 -7.22415052e-07 -4.49506888e-06 -2.73835917e-06
      -1.55726093e-06 9.80311597e-06 1.35378068e-05 6.93701213e-06
      1.89698437e-06 -2.63218817e-06 -1.11833049e-06 -6.77626358e-21
      -6.77626358e-21 -6.77626358e-21 7.21051265e-07 9.39900019e-07
      1.39442579e-06 3.09256052e-06 5.16004320e-06 1.33906599e-06
      -1.79675993e-07 3.11867484e-06 1.29487344e-05 7.35935555e-06
      -2.25944041e-06 -3.14087856e-07 -6.77626358e-21 -6.77626358e-21
      -6.77626358e-21 -6.77626358e-21 -6.77626358e-21 -6.77626358e-21
      -6.77626358e-21 -6.77626358e-21 -6.77626358e-21 -6.77626358e-21
      -6.77626358e-21 -6.77626358e-21 -1.23042582e-07 2.07575272e-06
      2.76136529e-06 -1.50928372e-07 -3.64184302e-06 -2.54095312e-06
      -1.88316722e-06 1.09466155e-05 1.59418978e-05 1.04922283e-05
      4.59087869e-06 -1.50710343e-06 -1.11833049e-06 -6.77626358e-21
      6.40934417e-08 1.76256975e-07 1.08958852e-06 4.14888291e-07
      -2.28330327e-06 -8.35530136e-06 -4.38990901e-06 -3.53812084e-07
      -1.57862246e-06 2.68184817e-06 1.25573824e-05 7.15938904e-06
      -2.24290943e-06 -3.14087856e-07 -6.77626358e-21 -6.77626358e-21
      -6.77626358e-21 -6.77626358e-21 -6.77626358e-21 -6.77626358e-21
      -6.77626358e-21 -6.77626358e-21 -6.77626358e-21 -6.77626358e-21
      -6.77626358e-21 -6.77626358e-21 -2.24002335e-07 1.19829781e-06
      2.28855811e-06 7.47577928e-07 -2.00191130e-06 -1.06064749e-06
      -7.25249492e-07 1.08135646e-05 1.63159511e-05 1.36613526e-05
      9.58545297e-06 4.06599565e-06 4.97580572e-07 -1.52733833e-07
      2.24327053e-07 -6.95717546e-08 3.33336232e-07 3.46073148e-06
      3.65908659e-06 -2.12782652e-06 -1.98585576e-06 -1.06097775e-06
      -1.14775617e-06 2.91486003e-06 9.76909269e-06 4.97229667e-06
      -2.25944041e-06 -3.14087856e-07 -6.77626358e-21 -6.77626358e-21
      -6.77626358e-21 -6.77626358e-21 -6.77626358e-21 -6.77626358e-21
      -6.77626358e-21 -6.77626358e-21 -6.77626358e-21 -6.77626358e-21
      -6.77626358e-21 -6.77626358e-21 -4.66109018e-09 2.14183365e-06
      4.52230324e-06 3.30057424e-06 4.08447534e-07 5.66846950e-07
      2.08871086e-07 8.51627738e-06 1.45124786e-05 1.54142781e-05
      1.30420249e-05 7.84057193e-06 1.40064287e-06 -1.85169483e-07
      4.56835352e-07 -1.18488030e-09 5.85198904e-07 3.23088807e-06
      4.28747853e-06 4.51357948e-07 -2.73931369e-06 -3.00473903e-06
      -1.46763091e-06 2.76950595e-06 7.96544555e-06 3.54210692e-06
      -2.25944041e-06 -3.14087856e-07 -6.77626358e-21 -6.77626358e-21
      -6.77626358e-21 -6.77626358e-21 -6.77626358e-21 -6.77626358e-21
      -6.77626358e-21 -6.77626358e-21 -6.77626358e-21 -6.77626358e-21
      -6.77626358e-21 -6.77626358e-21 7.37891810e-07 3.61674574e-06
      4.90253751e-06 4.27237819e-06 2.13363637e-06 9.37622701e-07
      1.23288402e-07 1.57472232e-06 5.57782050e-06 1.29014470e-05
      1.32595869e-05 1.01933683e-05 6.57131068e-06 6.82270729e-06
      7.44967247e-06 7.06198580e-06 9.20592447e-06 3.82743065e-06
      -1.28046747e-06 -2.46978379e-06 -4.21296636e-06 -3.46773322e-06
      -1.59459330e-06 2.17858701e-06 7.59392788e-06 3.30966373e-06
      -2.20618654e-06 -3.14087856e-07 -6.77626358e-21 -6.77626358e-21
      -6.77626358e-21 -6.77626358e-21 -6.77626358e-21 -6.77626358e-21
      -6.77626358e-21 -6.77626358e-21 -6.77626358e-21 -6.77626358e-21
      -6.77626358e-21 -6.77626358e-21 8.49238177e-07 3.44249634e-06
      5.08990070e-06 5.49795823e-06 1.77933271e-06 4.78116874e-07
      6.81610231e-07 -8.40519334e-08 1.59327885e-06 6.71683483e-06
      7.54428811e-06 6.42808391e-06 5.30653779e-06 6.55623217e-06
      6.88410682e-06 6.15152430e-06 8.33062859e-06 4.37642075e-06
      -5.35399465e-07 -1.65834467e-06 -2.70704390e-06 -1.81790188e-06
      2.02173874e-06 4.63939159e-06 5.46681849e-06 2.45793171e-06
      -1.04469825e-06 -1.80953279e-07 -6.77626358e-21 -6.77626358e-21
      -6.77626358e-21 -6.77626358e-21 -6.77626358e-21 -6.77626358e-21
      -6.77626358e-21 -6.77626358e-21 -6.77626358e-21 -6.77626358e-21
      -6.77626358e-21 -6.77626358e-21 7.05027901e-07 2.49746199e-06
      4.85831561e-06 4.66710844e-06 -2.23937991e-06 -1.89680031e-06
      1.35779624e-06 2.26132329e-06 1.26507678e-06 1.75009887e-07
      -2.20939768e-07 -4.69025338e-07 -4.77536389e-07 5.36499272e-07
      5.17442459e-07 -5.19583978e-07 3.88238533e-07 1.10589122e-06
      -3.69584228e-07 -1.49575476e-06 -1.46888931e-06 -4.12853296e-07
      6.78907327e-06 8.21193953e-06 1.90258106e-06 5.49815752e-07
      3.60223105e-08 -5.79146793e-08 -6.77626358e-21 -6.77626358e-21
      -6.77626358e-21 -6.77626358e-21 -6.77626358e-21 -6.77626358e-21
      -6.77626358e-21 -6.77626358e-21 -6.77626358e-21 -6.77626358e-21
      -6.77626358e-21 -6.77626358e-21 5.76840989e-07 1.97087343e-06
      3.52927782e-06 3.90037940e-06 1.41578766e-06 -7.16052341e-07
      -1.73071453e-06 3.41455666e-06 4.14402757e-06 2.93492621e-06
      1.12711575e-06 0. 4.81562168e-08 4.57484077e-07 4.65857994e-07
      1.19883131e-10 7.46586224e-08 9.82668098e-07 -3.05678185e-07
      -3.29008094e-06 -1.91444337e-06 1.17075581e-06 2.87140506e-06
      3.80968686e-06 1.23801010e-06 8.58082046e-07 5.57152134e-07
      5.13669391e-08 -6.77626358e-21 -6.77626358e-21 -6.77626358e-21
      -6.77626358e-21 -6.77626358e-21 -6.77626358e-21 -6.77626358e-21
      -6.77626358e-21 -6.77626358e-21 -6.77626358e-21 -6.77626358e-21
      -6.77626358e-21 4.96724226e-07 1.66642963e-06 2.83613485e-06
      3.70036923e-06 4.00701720e-06 -4.22994106e-07 -4.18593709e-06
      3.69534700e-06 5.78905747e-06 4.55379950e-06 1.72679074e-06 0. 0.
      0. 0. 0. -4.48654106e-07 7.78933838e-07 -2.05351441e-07
      -4.43768704e-06 -2.18512469e-06 2.05270339e-06 -2.03328440e-07
      7.77485127e-07 8.21203798e-07 8.98384314e-07 7.96788015e-07
      1.00959760e-07 -6.77626358e-21 -6.77626358e-21 -6.77626358e-21
      -6.77626358e-21 -6.77626358e-21 -6.77626358e-21</_>
    <_>
      -1.69406589e-21 -1.69406589e-21 -1.69406589e-21 -1.69406589e-21
      -1.69406589e-21 -1.69406589e-21 -1.69406589e-21 -1.69406589e-21
      -1.34489699e-06 -2.68979397e-06 -4.01722491e-06 -4.45387968e-06
      -4.78503307e-06 -5.26796566e-06 -5.75089780e-06 -6.21313302e-06
      -5.32235708e-06 -4.79243408e-06 -5.16561522e-06 -1.04908249e-05
      -1.41264618e-05 -1.37814895e-05 -6.69685460e-06 5.72949489e-07
      1.16281662e-05 1.85180998e-05 2.18869191e-05 1.60736399e-05
      1.07371734e-05 7.34010473e-06 5.28784312e-06 3.96975565e-06
      3.54244457e-06 4.42805572e-07 -1.69406589e-21 -1.69406589e-21
      -1.69406589e-21 -1.69406589e-21 -1.69406589e-21 -1.69406589e-21
      -1.69406589e-21 -1.69406589e-21 -1.69406589e-21 -1.69406589e-21
      -1.69406589e-21 -1.69406589e-21 -1.69406589e-21 -1.69406589e-21
      -1.34489699e-06 -2.68979397e-06 -4.10001303e-06 -4.68844655e-06
      -5.20296362e-06 -5.92799643e-06 -7.51219113e-06 -8.68200095e-06
      -8.91882155e-06 -8.57974283e-06 -9.09333903e-06 -1.27589119e-05
      -1.36425524e-05 -1.14483755e-05 -3.90891864e-06 2.53466101e-06
      1.07801025e-05 1.58911716e-05 1.81048563e-05 1.41457131e-05
      1.03952507e-05 7.50998333e-06 5.22973096e-06 3.73518878e-06
      3.36306971e-06 4.22108485e-07 -1.69406589e-21 -1.69406589e-21
      -1.69406589e-21 -1.69406589e-21 -1.69406589e-21 -1.69406589e-21
      -1.69406589e-21 -1.69406589e-21 -1.69406589e-21 -1.69406589e-21
      -1.69406589e-21 -1.69406589e-21 -1.69406589e-21 -1.69406589e-21
      -1.34489699e-06 -2.67232781e-06 -4.23109486e-06 -5.35525623e-06
      -6.27549343e-06 -7.58784108e-06 -1.04426354e-05 -1.24455928e-05
      -1.40120701e-05 -1.39056174e-05 -1.47219325e-05 -1.56885562e-05
      -1.22290394e-05 -6.99533803e-06 1.03121818e-06 5.54913140e-06
      9.48322577e-06 1.22661750e-05 1.26987807e-05 1.11658719e-05
      9.20847833e-06 7.10055610e-06 4.77206004e-06 3.29232125e-06
      3.04527111e-06 3.87613312e-07 -1.69406589e-21 -1.69406589e-21
      -1.69406589e-21 -1.69406589e-21 -1.69406589e-21 -1.69406589e-21
      -1.69406589e-21 -1.69406589e-21 -1.69406589e-21 -1.69406589e-21
      -1.69406589e-21 -1.69406589e-21 -1.69406589e-21 -1.69406589e-21
      -1.41388728e-06 -2.96575536e-06 -4.89790455e-06 -8.15539261e-06
      -1.12027583e-05 -1.43931675e-05 -1.74106990e-05 -1.92966836e-05
      -2.06387249e-05 -1.97249428e-05 -1.69928571e-05 -1.33213571e-05
      -6.90581282e-06 -9.15503620e-07 4.49784829e-06 6.19128423e-06
      7.10182530e-06 7.75144781e-06 6.25037546e-06 4.88783917e-06
      2.90878893e-06 8.16589704e-07 1.66783025e-06 2.73267392e-06
      2.88349133e-06 3.80714283e-07 -1.69406589e-21 -1.69406589e-21
      -1.69406589e-21 -1.69406589e-21 -1.69406589e-21 -1.69406589e-21
      -1.69406589e-21 -1.69406589e-21 -1.69406589e-21 -1.69406589e-21
      -1.69406589e-21 -1.69406589e-21 -1.74661949e-07 -4.54121050e-07
      -1.93333062e-06 -3.79510061e-06 -5.92616971e-06 -1.13476381e-05
      -1.61086282e-05 -2.06490222e-05 -2.25740423e-05 -2.34498839e-05
      -2.35627413e-05 -2.13504591e-05 -1.52369203e-05 -8.22469156e-06
      -6.71046791e-07 4.08311462e-06 5.90750415e-06 6.19933508e-06
      6.19243610e-06 5.73020088e-06 3.45214175e-06 1.49468303e-06
      -1.42332726e-06 -4.77793765e-06 -1.36820506e-06 2.04909611e-06
      2.70569785e-06 3.80714283e-07 -1.69406589e-21 -1.69406589e-21
      -1.69406589e-21 -1.69406589e-21 -1.69406589e-21 -1.69406589e-21
      -1.69406589e-21 -1.69406589e-21 -1.69406589e-21 -1.69406589e-21
      -1.69406589e-21 -1.69406589e-21 -7.16113959e-07 -1.78155187e-06
      -3.27822750e-06 -5.11643702e-06 -7.03827482e-06 -1.42758845e-05
      -2.09110149e-05 -2.60287234e-05 -2.56125313e-05 -2.44924613e-05
      -2.24215146e-05 -1.92441821e-05 -1.29020254e-05 -5.64609991e-06
      1.56563306e-06 5.46843785e-06 6.18168770e-06 6.21313302e-06
      6.21313302e-06 5.99236409e-06 4.56591397e-06 2.10749317e-06
      -2.96904091e-06 -9.08303809e-06 -4.34571257e-06 1.12341763e-06
      2.49207983e-06 3.80714283e-07 -1.69406589e-21 -1.69406589e-21
      -1.69406589e-21 -1.69406589e-21 -1.69406589e-21 -1.69406589e-21
      -1.69406589e-21 -1.69406589e-21 -1.69406589e-21 -1.69406589e-21
      -1.69406589e-21 -1.69406589e-21 -8.90775937e-07 -2.33536139e-06
      -4.13477665e-06 -7.39234929e-06 -1.07697315e-05 -1.78522296e-05
      -2.34648178e-05 -2.65033068e-05 -2.55864834e-05 -2.42038604e-05
      -2.15648251e-05 -1.65569418e-05 -7.97593020e-06 9.57577413e-07
      8.16946886e-06 1.10940582e-05 1.13498199e-05 1.09157336e-05
      9.32408420e-06 7.66008725e-06 5.25336691e-06 2.99506769e-06
      -2.30466389e-06 -9.05447996e-06 -4.86861927e-06 6.10734219e-07
      2.37815016e-06 3.80714283e-07 -1.69406589e-21 -1.69406589e-21
      -1.69406589e-21 -1.69406589e-21 -1.69406589e-21 -1.69406589e-21
      -1.69406589e-21 -1.69406589e-21 -1.69406589e-21 -1.69406589e-21
      -1.69406589e-21 -1.69406589e-21 -8.90775937e-07 -2.79678829e-06
      -6.05169043e-06 -1.07374099e-05 -1.53851433e-05 -2.15470700e-05
      -2.56887888e-05 -2.67488322e-05 -2.53588150e-05 -2.34807721e-05
      -1.82125823e-05 -9.73339411e-06 1.46466834e-06 1.10474539e-05
      1.60083655e-05 1.74322577e-05 1.74794259e-05 1.65827714e-05
      1.36472809e-05 1.02919457e-05 6.04919160e-06 3.28445867e-06
      -2.28894123e-06 -9.05447996e-06 -5.09647862e-06 2.97427647e-07
      2.31384320e-06 3.80714283e-07 -1.69406589e-21 -1.69406589e-21
      -1.69406589e-21 -1.69406589e-21 -1.69406589e-21 -1.69406589e-21
      -1.69406589e-21 -1.69406589e-21 -1.69406589e-21 -1.69406589e-21
      -1.69406589e-21 -1.69406589e-21 -8.90775937e-07 -3.99593364e-06
      -1.12100097e-05 -1.70948751e-05 -2.14970823e-05 -2.54800452e-05
      -2.77145245e-05 -2.68935273e-05 -2.42064434e-05 -1.96467608e-05
      -1.07398646e-05 1.35501534e-06 1.35473174e-05 2.19156300e-05
      2.42665174e-05 2.43765753e-05 2.43922968e-05 2.33959545e-05
      2.00463273e-05 1.50908099e-05 8.81220240e-06 4.25818553e-06
      -2.13716248e-06 -8.90270076e-06 -4.98609415e-06 3.25023791e-07
      2.30694400e-06 3.80714283e-07 -1.69406589e-21 -1.69406589e-21
      -1.69406589e-21 -1.69406589e-21 -1.69406589e-21 -1.69406589e-21
      -1.69406589e-21 -1.69406589e-21 -1.69406589e-21 -1.69406589e-21
      -1.69406589e-21 -1.69406589e-21 -8.90775937e-07 -5.10963173e-06
      -1.59826759e-05 -2.21130649e-05 -2.51987731e-05 -2.73457026e-05
      -2.82933051e-05 -2.69658758e-05 -2.10864437e-05 -1.22881574e-05
      -7.39256961e-07 1.14447857e-05 2.04547159e-05 2.56998883e-05
      2.72679390e-05 2.72679390e-05 2.72679390e-05 2.65906110e-05
      2.44293133e-05 1.91451054e-05 1.18938342e-05 5.63043432e-06
      -1.66995278e-06 -8.41976816e-06 -4.63424340e-06 4.07812195e-07
      2.31384320e-06 3.80714283e-07 -1.69406589e-21 -1.69406589e-21
      -1.69406589e-21 -1.69406589e-21 -1.69406589e-21 -1.69406589e-21
      -1.69406589e-21 -1.69406589e-21 -1.69406589e-21 -1.69406589e-21
      -1.69406589e-21 -1.69406589e-21 -9.25271081e-07 -6.36795039e-06
      -2.06562054e-05 -2.64965765e-05 -2.78310708e-05 -2.81829216e-05
      -2.82933051e-05 -2.69658758e-05 -1.85962581e-05 -6.58461931e-06
      7.57444286e-06 1.96235669e-05 2.56135536e-05 2.77239924e-05
      2.82933051e-05 2.82933051e-05 2.82933051e-05 2.81366520e-05
      2.75954862e-05 2.26183365e-05 1.49001362e-05 6.73354907e-06
      -1.37004042e-06 -8.17830278e-06 -4.46176773e-06 4.49206397e-07
      2.31384320e-06 3.80714283e-07 -1.69406589e-21 -1.69406589e-21
      -1.69406589e-21 -1.69406589e-21 -1.69406589e-21 -1.69406589e-21
      -1.69406589e-21 -1.69406589e-21 -1.69406589e-21 -1.69406589e-21
      -1.69406589e-21 -1.69406589e-21 -1.00116040e-06 -7.07475374e-06
      -2.19949998e-05 -2.74307968e-05 -2.81829216e-05 -2.82657093e-05
      -2.82933051e-05 -2.61179921e-05 -1.52821558e-05 -1.15828948e-06
      1.38794294e-05 2.46560558e-05 2.76828578e-05 2.81135235e-05
      2.82933051e-05 2.82933051e-05 2.82933051e-05 2.82363417e-05
      2.80654476e-05 2.34300860e-05 1.59967094e-05 7.56068084e-06
      -1.00125044e-06 -8.13557926e-06 -4.46176773e-06 4.49206397e-07
      2.30694400e-06 3.80714283e-07 -1.69406589e-21 -1.69406589e-21
      -1.69406589e-21 -1.69406589e-21 -1.69406589e-21 -1.69406589e-21
      -1.69406589e-21 -1.69406589e-21 -1.69406589e-21 -1.69406589e-21
      -1.69406589e-21 -1.69406589e-21 -1.02185754e-06 -7.37495748e-06
      -2.27478195e-05 -2.79372762e-05 -2.82933051e-05 -2.82933051e-05
      -2.73720725e-05 -2.25567619e-05 -9.46477485e-06 5.80778897e-06
      1.90071169e-05 2.66029801e-05 2.82933051e-05 2.77303297e-05
      2.63053262e-05 2.47702610e-05 2.33726896e-05 2.42032747e-05
      2.57226147e-05 2.27941218e-05 1.68226998e-05 8.19256729e-06
      -6.02496698e-07 -8.10709662e-06 -4.46176773e-06 4.49206397e-07
      2.31384320e-06 3.80714283e-07 -1.69406589e-21 -1.69406589e-21
      -1.69406589e-21 -1.69406589e-21 -1.69406589e-21 -1.69406589e-21
      -1.69406589e-21 -1.69406589e-21 -1.69406589e-21 -1.69406589e-21
      -1.69406589e-21 -1.69406589e-21 -1.02185754e-06 -7.48154480e-06
      -2.32035381e-05 -2.82648234e-05 -2.82933051e-05 -2.82933051e-05
      -2.59902245e-05 -1.91404069e-05 -4.88397745e-06 1.11097479e-05
      2.23919415e-05 2.73818932e-05 2.82933051e-05 2.64985629e-05
      2.14087431e-05 1.66286191e-05 1.28969850e-05 1.66736081e-05
      2.17994439e-05 2.13472958e-05 1.73923472e-05 8.68986808e-06
      -2.02261489e-07 -8.06437311e-06 -4.46176773e-06 4.49206397e-07
      2.30694400e-06 3.80714283e-07 -1.69406589e-21 -1.69406589e-21
      -1.69406589e-21 -1.69406589e-21 -1.69406589e-21 -1.69406589e-21
      -1.69406589e-21 -1.69406589e-21 -1.69406589e-21 -1.69406589e-21
      -1.69406589e-21 -1.69406589e-21 -1.02185754e-06 -7.49578612e-06
      -2.32462626e-05 -2.82933051e-05 -2.82933051e-05 -2.80197946e-05
      -2.51255588e-05 -1.77897473e-05 -2.76023457e-06 1.38796859e-05
      2.48462802e-05 2.80173099e-05 2.78515945e-05 2.48327979e-05
      1.78807968e-05 1.13053657e-05 7.20479875e-06 1.36365270e-05
      2.07313969e-05 2.11710594e-05 1.74493125e-05 8.81918004e-06
      -1.82602676e-07 -8.06437311e-06 -4.46176773e-06 4.49206397e-07
      2.30694400e-06 3.80714283e-07 -1.69406589e-21 -1.69406589e-21
      -1.69406589e-21 -1.69406589e-21 -1.69406589e-21 -1.69406589e-21
      -1.69406589e-21 -1.69406589e-21 -1.69406589e-21 -1.69406589e-21
      -1.69406589e-21 -1.69406589e-21 -1.02185754e-06 -7.49578612e-06
      -2.32462626e-05 -2.82933051e-05 -2.82421261e-05 -2.70183737e-05
      -2.28304471e-05 -1.53392903e-05 -5.28661303e-07 1.50374626e-05
      2.54898277e-05 2.82933051e-05 2.61031309e-05 2.13113744e-05
      1.32044615e-05 7.77580590e-06 6.06520825e-06 1.23217287e-05
      1.99583938e-05 2.11710594e-05 1.74493125e-05 8.75580099e-06
      -1.66880042e-07 -8.06437311e-06 -4.46176773e-06 4.49206397e-07
      2.30694400e-06 3.80714283e-07 -1.69406589e-21 -1.69406589e-21
      -1.69406589e-21 -1.69406589e-21 -1.69406589e-21 -1.69406589e-21
      -1.69406589e-21 -1.69406589e-21 -1.69406589e-21 -1.69406589e-21
      -1.69406589e-21 -1.69406589e-21 -1.02185754e-06 -7.48888715e-06
      -2.32462626e-05 -2.80197946e-05 -2.61483201e-05 -2.23815423e-05
      -1.67405669e-05 -9.51731181e-06 3.21082052e-06 1.59705451e-05
      2.56156090e-05 2.78326897e-05 2.27639212e-05 1.55985254e-05
      6.99924112e-06 3.60300191e-06 5.26745544e-06 1.20201521e-05
      1.97264126e-05 2.11710594e-05 1.74493125e-05 8.75580099e-06
      -1.66880042e-07 -8.06437311e-06 -4.46176773e-06 4.49206397e-07
      2.31384320e-06 3.80714283e-07 -1.69406589e-21 -1.69406589e-21
      -1.69406589e-21 -1.69406589e-21 -1.69406589e-21 -1.69406589e-21
      -1.69406589e-21 -1.69406589e-21 -1.69406589e-21 -1.69406589e-21
      -1.69406589e-21 -1.69406589e-21 -1.02185754e-06 -7.49578612e-06
      -2.30927235e-05 -2.69680240e-05 -2.28933386e-05 -1.71535557e-05
      -1.07156557e-05 -4.20783772e-06 7.18449337e-06 1.73445678e-05
      2.52719492e-05 2.64668870e-05 1.89738785e-05 1.05952731e-05
      3.31917431e-06 1.48924016e-06 4.99297266e-06 1.29587625e-05
      2.04687549e-05 2.11710594e-05 1.74493125e-05 8.82814857e-06
      -1.82602676e-07 -8.06437311e-06 -4.46176773e-06 4.49206397e-07
      2.30694400e-06 3.80714283e-07 -1.69406589e-21 -1.69406589e-21
      -1.69406589e-21 -1.69406589e-21 -1.69406589e-21 -1.69406589e-21
      -1.69406589e-21 -1.69406589e-21 -1.69406589e-21 -1.69406589e-21
      -1.69406589e-21 -1.69406589e-21 -1.02185754e-06 -7.48888715e-06
      -2.24785690e-05 -2.43578634e-05 -1.92595871e-05 -1.35238161e-05
      -8.18941226e-06 -3.14139515e-06 8.14845771e-06 1.78691989e-05
      2.23728712e-05 2.00536560e-05 1.18818371e-05 4.77980984e-06
      1.47740423e-06 1.45779495e-06 5.02390367e-06 1.32032601e-05
      2.06079440e-05 2.11710594e-05 1.74493125e-05 8.75580099e-06
      -1.73779071e-07 -8.06437311e-06 -4.46176773e-06 4.49206397e-07
      2.31384320e-06 3.80714283e-07 -1.69406589e-21 -1.69406589e-21
      -1.69406589e-21 -1.69406589e-21 -1.69406589e-21 -1.69406589e-21
      -1.69406589e-21 -1.69406589e-21 -1.69406589e-21 -1.69406589e-21
      -1.69406589e-21 -1.69406589e-21 -1.02185754e-06 -7.48888715e-06
      -2.16826938e-05 -2.21386999e-05 -1.63401510e-05 -1.03933771e-05
      -5.81602262e-06 -1.96801375e-06 8.32012120e-06 1.71544125e-05
      1.95635603e-05 1.48581876e-05 6.85617169e-06 9.43357975e-07
      2.20116860e-07 1.41062708e-06 5.02390367e-06 1.32032601e-05
      2.05206125e-05 2.08042693e-05 1.69951909e-05 8.25106872e-06
      -6.97504845e-07 -8.17263117e-06 -4.46176773e-06 4.49206397e-07
      2.31384320e-06 3.80714283e-07 -1.69406589e-21 -1.69406589e-21
      -1.69406589e-21 -1.69406589e-21 -1.69406589e-21 -1.69406589e-21
      -1.69406589e-21 -1.69406589e-21 -1.69406589e-21 -1.69406589e-21
      -1.69406589e-21 -1.69406589e-21 -1.02185754e-06 -7.48888715e-06
      -2.04518965e-05 -2.00326667e-05 -1.39878857e-05 -7.96857603e-06
      -3.63855929e-06 1.18916539e-07 8.34719685e-06 1.50016058e-05
      1.64705798e-05 1.15949188e-05 5.04534910e-06 5.34569551e-07
      -1.69406589e-21 1.39490442e-06 5.02390367e-06 1.32032601e-05
      2.02411538e-05 1.97388308e-05 1.56677597e-05 6.42674240e-06
      -2.48392666e-06 -8.59019838e-06 -4.46176773e-06 4.49206397e-07
      2.31384320e-06 3.80714283e-07 -1.69406589e-21 -1.69406589e-21
      -1.69406589e-21 -1.69406589e-21 -1.69406589e-21 -1.69406589e-21
      -1.69406589e-21 -1.69406589e-21 -1.69406589e-21 -1.69406589e-21
      -1.69406589e-21 -1.69406589e-21 -8.68318750e-07 -6.15821773e-06
      -1.78647369e-05 -1.72231757e-05 -1.16224574e-05 -6.57824376e-06
      -2.58687078e-06 1.13875922e-06 7.49526907e-06 1.21295770e-05
      1.27545427e-05 7.38648441e-06 2.93417202e-06 3.30175311e-07
      -1.69406589e-21 1.39490442e-06 5.02390367e-06 1.32032601e-05
      2.01538223e-05 1.93895066e-05 1.51929426e-05 5.62360947e-06
      -3.27286557e-06 -8.98905000e-06 -4.66873871e-06 4.00913166e-07
      2.31384320e-06 3.80714283e-07 -1.69406589e-21 -1.69406589e-21
      -1.69406589e-21 -1.69406589e-21 -1.69406589e-21 -1.69406589e-21
      -1.69406589e-21 -1.69406589e-21 -1.69406589e-21 -1.69406589e-21
      -1.69406589e-21 -1.69406589e-21 -5.61241222e-07 -3.81352629e-06
      -1.38602018e-05 -1.30329208e-05 -8.27664644e-06 -4.96770099e-06
      -2.01673629e-06 1.19722256e-06 5.38881341e-06 7.68436894e-06
      7.71895247e-06 2.34732602e-06 6.64686411e-07 1.41503705e-07
      -1.69406589e-21 1.39490442e-06 5.02390367e-06 1.31520801e-05
      2.01538223e-05 1.93895066e-05 1.51515478e-05 5.39240000e-06
      -3.77152060e-06 -9.47198259e-06 -5.01369050e-06 3.18124762e-07
      2.30694400e-06 3.80714283e-07 -1.69406589e-21 -1.69406589e-21
      -1.69406589e-21 -1.69406589e-21 -1.69406589e-21 -1.69406589e-21
      -1.69406589e-21 -1.69406589e-21 -1.69406589e-21 -1.69406589e-21
      -1.69406589e-21 1.48420816e-06 3.10151927e-06 1.67458722e-06
      -8.18591070e-06 -8.68089137e-06 -5.46139836e-06 -2.19716890e-06
      -1.85837598e-06 -2.77900494e-06 -8.82371580e-07 6.22424068e-07
      2.90016919e-06 7.39276231e-07 -1.69406589e-21 -1.69406589e-21
      -1.69406589e-21 1.39490442e-06 5.02390367e-06 1.32032601e-05
      2.01538223e-05 1.93895066e-05 1.51446493e-05 5.24332881e-06
      -3.86618240e-06 -9.58236706e-06 -5.09647862e-06 2.97427647e-07
      2.31384320e-06 3.80714283e-07 -1.69406589e-21 -1.69406589e-21
      -1.69406589e-21 -1.69406589e-21 -1.69406589e-21 -1.69406589e-21
      -1.69406589e-21 -1.69406589e-21 -1.69406589e-21 -1.69406589e-21
      -1.69406589e-21 3.37785309e-06 7.50462277e-06 7.44287036e-06
      -3.14454064e-06 -5.81140876e-06 -4.16095327e-06 -8.75155024e-07
      -2.48004221e-06 -6.96651023e-06 -6.49009598e-06 -5.64759148e-06
      -9.07675314e-07 2.49247620e-07 -1.69406589e-21 -1.69406589e-21
      -1.69406589e-21 1.39490442e-06 5.02390367e-06 1.32032601e-05
      2.01538223e-05 1.93895066e-05 1.51446493e-05 5.24332881e-06
      -3.86618240e-06 -9.58236706e-06 -5.09647862e-06 2.97427647e-07
      2.30694400e-06 3.80714283e-07 -1.69406589e-21 -1.69406589e-21
      -1.69406589e-21 -1.69406589e-21 -1.69406589e-21 -1.69406589e-21
      -1.69406589e-21 -1.69406589e-21 -1.69406589e-21 -1.69406589e-21
      -1.69406589e-21 3.42903263e-06 8.55722374e-06 9.89658838e-06
      -1.54167219e-06 -4.97469682e-06 -3.40019074e-06 -5.60702404e-07
