<?xml version="1.0"?>
<opencv_storage>
<opencv_ml_svm>
  <format>3</format>
  <svmType>C_SVC</svmType>
  <kernel>
    <type>LINEAR</type></kernel>
  <C>1.</C>
  <term_criteria><iterations>1000</iterations></term_criteria>
  <var_count>432</var_count>
  <class_count>10</class_count>
  <class_labels type_id="opencv-matrix">
    <rows>10</rows>
    <cols>1</cols>
    <dt>i</dt>
    <data>
      0 1 2 3 4 5 6 7 8 9</data></class_labels>
  <sv_total>45</sv_total>
  <support_vectors>
    <_>
      -1.01643954e-20 -1.01643954e-20 -1.01643954e-20 -1.01643954e-20
      -5.53165683e-06 -1.10200981e-05 -1.10200981e-05 -1.10200981e-05
      -1.10200981e-05 -1.10200981e-05 1.49474026e-05 -1.01643954e-20
      -1.01643954e-20 -1.01643954e-20 -1.01643954e-20 -1.01643954e-20
      -1.01643954e-20 -1.01643954e-20 -1.61704611e-05 -1.89362909e-05
      -2.16589033e-05 -2.44247312e-05 -1.24976677e-05 -6.63785499e-07
      -6.63785499e-07 9.61589922e-06 3.20734798e-05 2.45967167e-05
      -6.67808581e-06 -1.01643954e-20 -1.01643954e-20 -1.01643954e-20
      -1.01643954e-20 -2.76582841e-06 -2.16589033e-05 -1.32562427e-05
      -4.18053205e-05 -4.18053205e-05 -3.59349688e-05 -2.99714357e-05
      -2.99714357e-05 0. 0. 0. -1.36777489e-05 -1.69290361e-05
      -1.01643954e-20 -1.01643954e-20 -5.53165683e-06 -2.16589033e-05
      -3.91360227e-05 -1.61277239e-05 -2.99714357e-05 -2.72056077e-05
      -2.44829953e-05 -2.37303466e-05 -3.19971195e-06 3.51847643e-06 0.
      0. -2.01166094e-05 -3.44002292e-05 -1.41632072e-05 -1.01643954e-20
      -1.10200981e-05 -3.91360227e-05 -5.37323831e-05 -2.99714357e-05
      -1.69259220e-05 -1.06848338e-05 1.57365776e-05 1.57365776e-05
      2.59359531e-05 2.31701251e-05 3.51847643e-06 0. -2.37609456e-05
      -5.09665515e-05 -3.16344012e-05 -1.01643954e-20 -1.10200981e-05
      -5.29797326e-05 -5.37323831e-05 -1.92674288e-05 -3.57961335e-06
      1.33434960e-05 1.41020710e-05 1.99724218e-05 2.59359531e-05
      2.59359531e-05 2.31701251e-05 3.51847643e-06 -2.37609456e-05
      -5.37323831e-05 -4.82439391e-05 -1.01643954e-20 -2.49728146e-05
      -5.29797326e-05 -5.37323831e-05 -1.82725053e-05 1.41643341e-06
      2.17500769e-06 1.60187192e-05 2.19822505e-05 3.38161335e-05
      3.97796648e-05 2.59359531e-05 6.24108861e-06 -2.37609456e-05
      -5.37323831e-05 -4.82439391e-05 -1.39527174e-05 -3.88165245e-05
      -5.29797326e-05 -5.37323831e-05 -3.79642552e-05 -8.78294122e-06
      5.81934410e-06 1.97720619e-05 1.97720619e-05 4.18985001e-05
      5.37323831e-05 3.97796648e-05 2.04042954e-05 -2.30082969e-05
      -5.37323831e-05 -5.09665515e-05 -2.77964282e-05 -4.03277481e-05
      -5.37323831e-05 -5.37323831e-05 -4.82439391e-05 -1.47112914e-05
      -1.01643954e-20 -1.01643954e-20 -1.01643954e-20 2.22067483e-05
      5.37323831e-05 5.37323831e-05 3.42480089e-05 -2.30082969e-05
      -5.37323831e-05 -5.37323831e-05 -2.77964282e-05 -4.03277481e-05
      -5.37323831e-05 -5.37323831e-05 -4.82439391e-05 -7.58574288e-07
      -1.01643954e-20 -1.01643954e-20 -1.01643954e-20 1.19270626e-05
      5.37323831e-05 5.37323831e-05 4.82007235e-05 -2.30082969e-05
      -5.37323831e-05 -5.37323831e-05 -2.77964282e-05 -4.03277481e-05
      -5.37323831e-05 -5.37323831e-05 -4.82439391e-05 -7.58574288e-07
      -1.01643954e-20 -1.01643954e-20 -1.01643954e-20 1.19270626e-05
      5.37323831e-05 5.37323831e-05 4.82007235e-05 -2.30082969e-05
      -5.37323831e-05 -5.37323831e-05 -2.77964282e-05 -4.03277481e-05
      -5.37323831e-05 -5.37323831e-05 -4.82439391e-05 -7.58574288e-07
      -1.01643954e-20 -1.01643954e-20 -1.01643954e-20 1.19270626e-05
      5.37323831e-05 5.37323831e-05 4.22371922e-05 -2.30082969e-05
      -5.37323831e-05 -5.37323831e-05 -2.77964282e-05 -4.03277481e-05
      -5.37323831e-05 -5.37323831e-05 -4.82439391e-05 -7.58574288e-07
      -1.01643954e-20 -1.01643954e-20 -1.01643954e-20 1.19270626e-05
      5.37323831e-05 5.37323831e-05 3.63668405e-05 -2.30082969e-05
      -5.37323831e-05 -5.37323831e-05 -2.77964282e-05 -4.03277481e-05
      -5.37323831e-05 -5.37323831e-05 -4.82439391e-05 -7.58574288e-07
      -1.01643954e-20 -1.01643954e-20 5.96353129e-06 1.77974143e-05
      5.37323831e-05 5.37323831e-05 3.63668405e-05 -2.30082969e-05
      -5.37323831e-05 -5.37323831e-05 -2.77964282e-05 -4.03277481e-05
      -5.37323831e-05 -5.37323831e-05 -4.82439391e-05 -7.58574288e-07
      -1.01643954e-20 -1.01643954e-20 1.19270626e-05 2.37609456e-05
      5.37323831e-05 5.37323831e-05 3.83740953e-05 -2.09951177e-05
      -5.37323831e-05 -5.37323831e-05 -2.77964282e-05 -4.03277481e-05
      -5.37323831e-05 -5.37323831e-05 -5.09665515e-05 -3.52440270e-06
      -1.01643954e-20 -1.01643954e-20 1.19270626e-05 2.37609456e-05
      5.37323831e-05 5.37323831e-05 4.11399233e-05 -1.82725053e-05
      -5.37323831e-05 -5.37323831e-05 -2.77964282e-05 -4.03277481e-05
      -5.37323831e-05 -5.37323831e-05 -5.37323831e-05 -6.29023134e-06
      -1.01643954e-20 -1.01643954e-20 1.19270626e-05 2.37609456e-05
      5.37323831e-05 5.37323831e-05 4.11399233e-05 -1.82725053e-05
      -5.37323831e-05 -5.37323831e-05 -2.77964282e-05 -4.03277481e-05
      -5.37323831e-05 -5.37323831e-05 -3.98886696e-05 -6.29023134e-06
      -1.01643954e-20 -1.01643954e-20 1.19270626e-05 2.37609456e-05
      5.37323831e-05 5.37323831e-05 4.11399233e-05 -1.82725053e-05
      -5.37323831e-05 -5.37323831e-05 -2.77964282e-05 -2.49728146e-05
      -5.29797326e-05 -3.98886696e-05 -2.59359531e-05 -7.04287913e-06
      -7.58574288e-07 -1.01643954e-20 1.19270626e-05 2.37609456e-05
      5.37323831e-05 5.37323831e-05 2.71872068e-05 -1.82725053e-05
      -5.37323831e-05 -5.37323831e-05 -2.77964282e-05 -1.10200981e-05
      -3.91360227e-05 -2.59359531e-05 -3.98886696e-05 -2.09955961e-05
      -1.47112914e-05 -1.01643954e-20 1.19270626e-05 2.37609456e-05
      5.37323831e-05 3.97796648e-05 1.33434960e-05 -1.82725053e-05
      -5.37323831e-05 -5.37323831e-05 -1.39527174e-05 -5.53165683e-06
      -2.24174764e-05 -3.98886696e-05 -5.37323831e-05 -3.48393078e-05
      -2.85550032e-05 -1.39527174e-05 -2.02565411e-06 9.80822824e-06
      2.95802893e-05 2.59359531e-05 -2.82696533e-06 -2.09951177e-05
      -5.37323831e-05 -4.03277481e-05 -1.01643954e-20 -1.01643954e-20
      -1.96948640e-05 -5.37323831e-05 -5.37323831e-05 -3.75619202e-05
      -3.20734798e-05 -2.93076500e-05 -1.73805875e-05 -5.54670487e-06
      3.94567087e-06 2.44247312e-05 -6.34544176e-06 -2.37609456e-05
      -5.37323831e-05 -2.57313895e-05 -1.01643954e-20 -1.01643954e-20
      -1.61704611e-05 -3.63701947e-05 -5.37323831e-05 -5.37323831e-05
      -3.75619202e-05 -3.48393078e-05 -2.01464154e-05 -5.54670487e-06
      1.17984246e-06 -4.75090530e-07 -1.50315855e-05 -9.91723391e-06
      -3.91360227e-05 -8.25426923e-06 -1.01643954e-20 -1.01643954e-20
      -1.01643954e-20 -1.61704611e-05 -3.56116179e-05 -3.91360227e-05
      -3.98886696e-05 -3.39251383e-05 -3.31691408e-05 -1.06392836e-05
      -3.86952024e-06 2.00982868e-06 -9.91723391e-06 4.78813081e-06
      -8.25426923e-06 -2.76582841e-06 -1.01643954e-20 -1.01643954e-20
      -1.01643954e-20 -1.01643954e-20 -1.61704611e-05 -2.16589033e-05
      -2.44247312e-05 -1.92197731e-05 -8.13853876e-06 -2.17500769e-06
      7.31736827e-06 1.67151939e-05 5.54670487e-06 2.17171673e-05
      -2.76582841e-06 -1.01643954e-20 -1.01643954e-20 -1.01643954e-20
      -1.01643954e-20 -1.01643954e-20 -1.01643954e-20 -2.76582841e-06
      -1.89362909e-05 -1.89362909e-05 -2.16589033e-05 -2.44247312e-05
      -1.21665262e-05 1.10351457e-05 2.44397797e-05 1.77132315e-05
      -1.01643954e-20 -1.01643954e-20 -1.01643954e-20 -1.01643954e-20
      -1.01643954e-20 -1.01643954e-20 -1.01643954e-20 -1.01643954e-20
      -1.01643954e-20 -1.01643954e-20 -1.01643954e-20 -1.01643954e-20
      -1.01643954e-20 -1.01643954e-20 -1.01643954e-20 -1.01643954e-20
      -1.01643954e-20 -1.01643954e-20 -1.01643954e-20</_>
    <_>
      -1.90582413e-20 -1.90582413e-20 1.91259733e-06 3.81025234e-06
      -1.31323659e-05 -2.99426210e-05 -1.31385896e-05 3.53416067e-06
      3.53416067e-06 -1.63110162e-05 -1.63297736e-05 3.81025234e-06
      3.81025234e-06 1.91259733e-06 -1.90582413e-20 -1.90582413e-20
      -1.90582413e-20 9.56298663e-07 -2.72895450e-05 -2.07740941e-05
      -2.07110243e-05 -2.91823326e-05 -2.09115988e-05 -1.37045945e-05
      -1.37045945e-05 -2.37053137e-05 -2.34797590e-05 -1.23720783e-05
      -1.39014883e-05 6.88369573e-06 2.15130990e-06 -1.90582413e-20
      -1.90582413e-20 1.07036094e-05 5.27674229e-06 5.48620892e-06 0. 0.
      -1.19501124e-06 -1.19501124e-06 -1.19501124e-06 -1.19501124e-06
      -1.19501124e-06 0. 4.42927831e-06 -6.20486435e-06 5.94233916e-06
      -1.90582413e-20 -1.50300211e-05 -2.84361813e-05 -7.34927653e-06
      2.96766052e-06 0. -9.61244950e-06 -2.06721943e-05 -1.27426574e-05
      1.25116385e-05 1.33081794e-05 -2.15130990e-06 -1.19501124e-06
      2.96766052e-06 9.77719537e-06 3.68789699e-07 -4.03692354e-07
      2.84845783e-06 -1.85450062e-05 -1.00007192e-05 0. -9.61244950e-06
      -1.52283656e-05 7.67291567e-06 7.67291567e-06 7.67291567e-06
      -7.98393785e-07 -1.47762985e-05 -2.15130990e-06 0. 8.47130923e-06
      -9.67971209e-06 -2.00239606e-06 -6.47901004e-07 -1.40669508e-05 0.
      8.47130923e-06 -3.74427077e-06 -1.03197772e-05 -1.07298192e-05
      -9.15609508e-06 -9.15609508e-06 -9.15609508e-06 8.06191201e-06
      3.30746002e-06 0. 0. 6.80953508e-06 -3.57611975e-06 1.44499127e-05
      -5.16384898e-06 -1.19501124e-06 -2.46851550e-06 6.37240305e-07
      -1.07298192e-05 -4.58973136e-06 -2.99102794e-06 -2.99102794e-06
      -2.99102794e-06 -7.55739165e-06 -2.91172619e-05 -1.09570183e-05 0.
      1.68102542e-05 -9.36086235e-06 -2.44812545e-05 -2.76810424e-05
      -2.02201263e-05 -2.16284916e-05 1.27964529e-06 -4.58973136e-06
      -1.90582413e-20 -1.90582413e-20 -1.90582413e-20 -1.90582413e-20
      -2.99102794e-06 -5.08637868e-06 -1.12732359e-05 0. 8.47130923e-06
      -1.23285226e-05 -6.20029023e-05 -7.36743750e-05 -6.36736586e-05
      -4.68634025e-05 -4.17968977e-06 -1.90582413e-20 -1.90582413e-20
      -1.90582413e-20 -1.90582413e-20 -1.90582413e-20 1.72623222e-05
      1.75637433e-05 -8.74321358e-06 0. -1.80837578e-05 -1.23285226e-05
      -6.20029023e-05 -8.36750914e-05 -8.36750914e-05 -6.68648427e-05
      -1.11893805e-05 -1.90582413e-20 -1.90582413e-20 -1.90582413e-20
      -1.90582413e-20 -1.90582413e-20 1.84573328e-05 3.05554895e-05
      1.10124472e-06 0. -2.02201263e-05 -1.23285226e-05 -6.20029023e-05
      -8.36750914e-05 -8.36750914e-05 -6.68648427e-05 -1.11893805e-05
      -1.90582413e-20 -1.90582413e-20 -1.90582413e-20 -1.90582413e-20
      1.72623222e-05 3.65410924e-05 4.59309995e-05 1.11019635e-05
      -1.80837578e-05 -5.28728997e-05 -1.23285226e-05 -6.20029023e-05
      -8.36750914e-05 -8.36750914e-05 -6.68648427e-05 -1.11893805e-05
      -1.90582413e-20 -1.90582413e-20 -1.90582413e-20 -1.90582413e-20
      1.94136319e-05 5.28728997e-05 5.67317584e-05 1.11019635e-05
      -2.02201263e-05 -6.36736586e-05 -1.23285226e-05 -6.20029023e-05
      -8.36750914e-05 -8.36750914e-05 -6.68648427e-05 -1.11893805e-05
      -1.90582413e-20 -1.90582413e-20 -1.90582413e-20 1.84573328e-05
      4.74981098e-05 7.36743750e-05 6.67324784e-05 -8.17680575e-06
      -5.28728997e-05 -7.36743750e-05 -1.23285226e-05 -6.20029023e-05
      -8.36750914e-05 -8.36750914e-05 -6.68648427e-05 -1.11893805e-05
      -1.90582413e-20 -1.90582413e-20 1.84573328e-05 4.65418125e-05
      7.27180741e-05 8.36750914e-05 4.74537082e-05 -3.17702179e-05
      -6.36736586e-05 -8.36750914e-05 -1.23285226e-05 -6.04042034e-05
      -8.36750914e-05 -8.36750914e-05 -6.68648427e-05 -1.11893805e-05
      -1.90582413e-20 1.84573328e-05 3.65410924e-05 6.28736161e-05
      8.36750914e-05 6.65476327e-05 2.52959308e-05 -4.21854602e-05
      -7.36743750e-05 -8.36750914e-05 -1.23285226e-05 -5.88304792e-05
      -8.36750914e-05 -8.36750914e-05 -7.52037886e-05 -1.96606907e-05
      1.72623222e-05 3.65410924e-05 5.28728997e-05 7.36743750e-05
      8.36750914e-05 6.43963285e-05 2.28102217e-05 -5.36916923e-05
      -8.36750914e-05 -8.36750914e-05 -1.23285226e-05 -5.88304792e-05
      -8.36750914e-05 -8.36750914e-05 -8.36750914e-05 -1.08696777e-05
      3.55847915e-05 4.74981098e-05 7.36743750e-05 8.36750914e-05
      6.43963285e-05 3.08021954e-05 2.00874547e-06 -6.36924160e-05
      -8.36750914e-05 -8.36750914e-05 -1.23285226e-05 -5.88304792e-05
      -8.36750914e-05 -8.36750914e-05 -8.07074321e-05 -9.67466622e-06
      4.65418125e-05 7.27180741e-05 8.36750914e-05 6.43963285e-05
      4.08029155e-05 2.00014383e-05 -7.99197369e-06 -6.36924160e-05
      -8.36750914e-05 -8.36750914e-05 -1.23285226e-05 -3.99413075e-05
      -7.57455564e-05 -8.07074321e-05 -5.92590732e-05 1.04802748e-05
      6.47261040e-05 8.36750914e-05 6.65476327e-05 4.61926466e-05
      2.98458963e-05 1.00007192e-05 -1.09830016e-05 -6.36924160e-05
      -8.36750914e-05 -8.36750914e-05 -1.23285226e-05 -3.69502814e-05
      -7.27778970e-05 -5.92590732e-05 -4.25676408e-05 2.09863247e-05
      7.26920916e-05 6.53526222e-05 4.71340027e-05 3.08021954e-05
      1.00007192e-05 -2.99102794e-06 -1.39506619e-05 -6.36924160e-05
      -8.36750914e-05 -8.36750914e-05 -9.36086235e-06 -2.01400253e-05
      -4.40532385e-05 -4.35239381e-05 -3.14058561e-05 3.48515605e-05
      6.97244323e-05 6.14052988e-05 2.78111675e-05 7.00969122e-06
      -2.99102794e-06 -5.95868823e-06 -4.56928647e-05 -7.36050788e-05
      -8.36750914e-05 -6.20029023e-05 -6.36983486e-06 -1.59870365e-06
      -3.13468554e-05 -3.39608559e-05 -7.78459071e-06 3.33159260e-05
      4.89311678e-05 5.26700933e-05 3.25110232e-05 1.25095830e-05
      1.25095830e-05 1.09108796e-05 -3.08763556e-05 -4.92853142e-05
      -6.64127729e-05 -5.11057078e-05 -6.36983486e-06 3.55847915e-05
      6.39759310e-06 1.73945784e-06 0. 0. 3.01434975e-05 3.46914130e-05
      2.29936159e-05 1.05071867e-05 2.03587797e-06 -2.96813450e-05
      -3.96189935e-05 -4.51226406e-05 -3.83881161e-05 -1.43890766e-05
      -4.77113099e-06 3.55847915e-05 4.58994073e-05 3.87597465e-05
      2.73604801e-05 1.08971972e-05 2.96766052e-06 2.96766052e-06
      -2.48570859e-06 -1.96491760e-06 -1.03038628e-05 -1.87751721e-05
      -1.87751721e-05 -7.85460725e-06 2.58474302e-05 2.33789142e-05
      -3.19740730e-06 1.19501124e-06 2.15103428e-05 6.17765036e-05
      4.71617604e-05 3.03515080e-05 2.18801979e-05 1.38882251e-05
      5.95868823e-06 5.95868823e-06 5.95868823e-06 1.38882251e-05
      2.18801979e-05 5.20236972e-05 5.17064909e-05 3.69880800e-05
      -1.59870365e-06 -1.90582413e-20 2.21527480e-05 4.57889546e-05
      4.41902521e-05 3.41452178e-05 2.40301597e-06 2.40301597e-06
      -5.93592904e-06 -1.44072383e-05 -5.93592904e-06 3.34437254e-06
      2.59728604e-05 3.48478607e-05 4.39365976e-05 3.92042093e-05
      -1.90582413e-20 -1.90582413e-20 -1.90582413e-20 -1.90582413e-20
      -1.90582413e-20 -1.90582413e-20 -1.90582413e-20 -1.90582413e-20
      -1.90582413e-20 -1.90582413e-20 -1.90582413e-20 -1.90582413e-20
      -1.90582413e-20 -1.90582413e-20 -1.90582413e-20 -1.90582413e-20
      -1.90582413e-20</_>
    <_>
      1.31007719e-05 1.31007719e-05 1.91839663e-05 1.91839663e-05
      1.93433993e-06 -1.51805234e-05 -1.51805234e-05 -1.51805234e-05
      -1.51805234e-05 -1.51805234e-05 1.93433993e-06 1.91839663e-05
      1.91839663e-05 1.91839663e-05 6.08319397e-06 6.08319397e-06
      1.31007719e-05 3.71554211e-06 -1.43131874e-05 -6.44062129e-06
      -1.49306716e-05 -2.35554853e-05 -1.42435765e-05 -4.85834653e-06
      -4.85834653e-06 -4.85834653e-06 3.76646653e-06 2.87128660e-06
      2.18419177e-06 3.36114863e-05 2.70867877e-05 -3.30203625e-06
      1.31007719e-05 2.03408422e-06 -2.14033862e-05 -1.64507892e-05
      -2.87457879e-05 -1.94338791e-05 -1.00486486e-05 -1.00486486e-05
      -1.00486486e-05 -1.00486486e-05 4.38060897e-06 1.86971374e-05
      2.64481168e-05 3.80346755e-05 7.32753615e-05 -7.86861074e-06
      -4.14885380e-06 -4.48266146e-05 -6.39057616e-05 -4.79807750e-05
      -3.48289796e-05 -1.68922597e-05 9.83020527e-07 4.76662308e-06
      8.58001749e-06 -3.72342743e-06 4.38060897e-06 1.86971374e-05
      1.35509172e-05 2.13538715e-05 3.23429595e-05 -1.86971374e-05
      -3.71736460e-05 -7.73738138e-05 -8.53964302e-05 -8.31984071e-05
      -6.30808354e-05 -3.27971393e-05 2.62699871e-07 -1.93532173e-06
      -1.93532173e-06 1.73371773e-05 1.37147499e-05 1.86971374e-05
      9.31190789e-06 -5.69171607e-06 -2.96087874e-05 -1.86971374e-05
      -4.37497183e-05 -8.81888991e-05 -9.19724989e-05 -8.33476879e-05
      -5.69209187e-05 -1.23247901e-05 -8.51139521e-06 -8.51139521e-06
      5.91786238e-06 5.78062572e-05 7.48362945e-05 3.11055519e-05
      -5.00462147e-06 -5.26612894e-05 -7.26596190e-05 -1.86971374e-05
      -4.80221061e-05 -8.81888991e-05 -9.19724989e-05 -7.48576349e-05
      -2.17100205e-05 -8.51139521e-06 -4.27238683e-06 1.01568712e-05
      3.10494761e-05 6.81284582e-05 8.34611055e-05 2.52790742e-05
      -1.94338791e-05 -7.22467375e-05 -7.48576349e-05 -2.29695252e-05
      -5.22611153e-05 -8.81888991e-05 -9.19724989e-05 -7.48576349e-05
      -2.17100205e-05 -4.27238683e-06 2.37169225e-20 2.10053313e-05
      7.24008496e-05 9.19724989e-05 8.77001148e-05 5.18949491e-05
      -5.25751566e-05 -9.19724989e-05 -8.33476879e-05 -1.78966256e-05
      -5.98581137e-05 -9.19724989e-05 -9.19724989e-05 -7.48576349e-05
      -1.74710112e-05 2.37169225e-20 1.44292580e-05 6.63176543e-05
      9.19724989e-05 9.19724989e-05 9.19724989e-05 3.82709441e-05
      -6.44477332e-05 -9.19724989e-05 -9.19724989e-05 -1.78966256e-05
      -5.98581137e-05 -9.19724989e-05 -9.19724989e-05 -7.48576349e-05
      -1.31986244e-05 1.44292580e-05 5.97929575e-05 9.19724989e-05
      9.19724989e-05 9.19724989e-05 9.19724989e-05 3.59672558e-05
      -5.01312024e-05 -7.75432418e-05 -9.19724989e-05 -1.78966256e-05
      -5.98581137e-05 -9.19724989e-05 -9.19724989e-05 -7.48576349e-05
      -1.31986244e-05 2.19802155e-06 6.02651671e-05 9.19724989e-05
      9.19724989e-05 9.19724989e-05 9.19724989e-05 6.81981765e-05
      -2.18611126e-06 -4.09536406e-05 -7.75432418e-05 -1.78966256e-05
      -5.98581137e-05 -9.19724989e-05 -9.19724989e-05 -7.48576349e-05
      -1.31986244e-05 2.63018355e-05 6.32267111e-05 6.32267111e-05
      7.76559755e-05 9.19724989e-05 9.19724989e-05 7.47228769e-05
      6.57081227e-06 -8.70554777e-06 -5.52701713e-05 -1.78966256e-05
      -5.98581137e-05 -9.19724989e-05 -9.19724989e-05 -7.48576349e-05
      -1.31986244e-05 8.77409548e-06 1.74796442e-05 2.35628377e-05
      2.35628377e-05 4.58359100e-05 7.76559755e-05 7.47228769e-05
      1.30955104e-05 0. -4.04128805e-05 -1.78966256e-05 -5.98581137e-05
      -9.19724989e-05 -9.19724989e-05 -7.48576349e-05 -1.31986244e-05
      2.37169225e-20 6.57607370e-06 6.57607370e-06 6.57607370e-06
      8.77409548e-06 1.09549446e-05 3.36303128e-05 3.78360232e-06 0.
      -1.64973790e-05 -1.31512925e-05 -5.98581137e-05 -9.19724989e-05
      -9.19724989e-05 -7.48576349e-05 -1.31986244e-05 2.37169225e-20
      2.37169225e-20 2.37169225e-20 2.37169225e-20 2.37169225e-20
      2.19802155e-06 2.58338387e-05 8.62481284e-06 0. 0. -6.57521832e-06
      -5.98581137e-05 -9.19724989e-05 -9.19724989e-05 -8.33476879e-05
      -2.18234381e-05 2.37169225e-20 2.37169225e-20 2.37169225e-20
      2.37169225e-20 2.37169225e-20 2.37169225e-20 3.42865474e-06
      -2.75940607e-07 0. 0. -5.05198798e-08 -5.98581137e-05
      -9.19724989e-05 -9.19724989e-05 -9.19724989e-05 -3.04482510e-05
      2.37169225e-20 2.37169225e-20 2.37169225e-20 2.37169225e-20
      2.37169225e-20 2.37169225e-20 3.42865474e-06 -6.80063886e-06 0. 0.
      6.03267381e-06 -3.11123258e-05 -5.84813824e-05 -5.84813824e-05
      -6.39923237e-05 -2.10630205e-05 2.37169225e-20 2.37169225e-20
      2.37169225e-20 2.37169225e-20 2.37169225e-20 2.37169225e-20
      3.42865474e-06 -1.33767126e-05 0. -1.43165289e-05 6.03267381e-06
      -1.94640234e-05 -3.27911694e-05 -8.36888375e-06 -1.12819671e-05
      -7.31888349e-06 -3.81339441e-06 2.37169225e-20 2.37169225e-20
      2.37169225e-20 2.37169225e-20 2.37169225e-20 -8.43731982e-07
      -1.33767126e-05 0. -1.43165289e-05 6.03267381e-06 1.97269073e-05
      -5.07816094e-06 8.51139521e-06 5.28687360e-06 1.41593955e-05
      -8.08578170e-06 2.37169225e-20 2.37169225e-20 2.37169225e-20
      2.37169225e-20 1.23548925e-05 3.36877129e-05 4.01409125e-06 0.
      -7.18547062e-06 1.96569126e-05 1.25729957e-05 -9.57176508e-06
      4.23900883e-06 0. 9.25787572e-06 -1.00338252e-06 -4.27238683e-06
      -4.27238683e-06 -4.27238683e-06 -4.27238683e-06 -1.26934628e-06
      -7.05149114e-06 -4.47595903e-06 0. 1.56170099e-05 1.31007719e-05
      2.37394288e-05 -1.08171491e-06 0. 0. 2.31632512e-05 1.56846672e-05
      -1.13630585e-05 -1.13630585e-05 -1.13630585e-05 -4.12100917e-06
      2.05922006e-05 -2.06910272e-06 -6.52469816e-06 -5.00462147e-06
      1.20479001e-06 1.31007719e-05 3.31246592e-05 1.59230676e-05
      1.01227261e-05 0. 0. 2.53441012e-05 2.73094520e-05 3.59342666e-05
      3.79830053e-05 3.59342666e-05 4.50697144e-06 2.10011467e-06
      4.23900883e-06 8.37140306e-07 1.09720295e-05 1.31007719e-05
      4.37887093e-06 2.48913220e-05 1.59230676e-05 2.04608186e-05
      8.02261093e-06 -1.84418502e-06 -1.84418502e-06 2.54161910e-06
      8.74598027e-06 6.78062815e-06 4.23900883e-06 4.23900883e-06
      3.64193426e-07 1.09720295e-05 1.05591525e-05 6.57607370e-06
      2.37169225e-20 2.19802155e-06 2.48913220e-05 4.97140127e-06
      2.59706781e-06 1.61083917e-05 1.22949978e-05 8.51139521e-06
      8.51139521e-06 8.51139521e-06 2.54504289e-06 -1.82572439e-05
      -6.55571057e-06 1.05591525e-05 6.57607370e-06 2.37169225e-20
      2.37169225e-20 2.37169225e-20 2.37169225e-20 8.28121574e-06
      2.28425833e-05 -3.65341157e-06 -6.44062129e-06 -1.49306716e-05
      -3.78720142e-05 -3.65453998e-05 -2.08681413e-05 1.93433993e-06
      4.03445483e-06 6.57607370e-06 2.37169225e-20 2.37169225e-20
      2.37169225e-20 2.37169225e-20 2.37169225e-20 2.37169225e-20
      6.08319397e-06 6.08319397e-06 6.08319397e-06 6.08319397e-06
      6.08319397e-06 6.08319397e-06 6.08319397e-06 6.08319397e-06
      2.37169225e-20 2.37169225e-20 2.37169225e-20 2.37169225e-20</_>
    <_>
      -3.38813179e-21 -3.38813179e-21 -3.38813179e-21 -3.38813179e-21
      -6.56726115e-06 -1.30832159e-05 -1.30832159e-05 -1.79487743e-05
      -2.27763194e-05 -1.51439144e-05 3.77236324e-06 2.37266904e-05
      2.37266904e-05 7.63240496e-06 -3.38813179e-21 -3.38813179e-21
      -3.38813179e-21 -1.74263744e-06 -9.36422384e-06 -1.26478544e-05
      -1.83129578e-05 -2.40293666e-05 -2.23003444e-05 -2.29524740e-05
      -2.17511715e-05 -1.05130748e-05 1.12976186e-05 1.51820723e-05
      1.55637681e-05 1.26822524e-05 -3.47166065e-06 -1.74263744e-06
      -3.38813179e-21 -5.02626790e-06 -1.83129578e-05 -3.12077718e-05
      -6.30707509e-05 -6.37745034e-05 -6.20318679e-05 -6.20318679e-05
      -5.07653822e-05 -1.37291527e-05 3.47166065e-06 3.47166065e-06
      2.61856330e-05 2.92827935e-05 1.14318136e-05 -3.47166065e-06
      -6.56726115e-06 -1.41511555e-05 -4.24245300e-05 -5.43743990e-05
      -6.55035255e-05 -6.04908746e-05 -5.55159131e-05 -4.47595085e-05
      -4.85250496e-07 1.38776131e-05 3.47166065e-06 3.47166065e-06
      9.25246241e-06 2.83253485e-06 -7.88301577e-07 -3.47166065e-06
      -1.48258532e-05 -3.99917517e-05 -6.30707509e-05 -6.55035255e-05
      -6.04908746e-05 -4.51099622e-05 -2.59721328e-05 4.99698217e-06
      3.82920807e-05 3.50084483e-05 1.63103923e-05 3.47166065e-06
      1.72902310e-06 -7.89483693e-06 -2.48057822e-05 -3.47166065e-06
      -1.96914116e-05 -5.59484288e-05 -6.55035255e-05 -6.22199004e-05
      -5.39749199e-05 -3.67846187e-05 -1.35121827e-05 2.59568242e-05
      4.31576373e-05 4.31576373e-05 3.74412302e-05 1.63103923e-05
      1.72902310e-06 -1.11784675e-05 -4.16513212e-05 -3.47166065e-06
      -3.57357167e-05 -5.83812071e-05 -6.55035255e-05 -5.89875744e-05
      -3.85272542e-05 -2.11445877e-05 2.09916707e-05 5.42867674e-05
      5.42867674e-05 5.42867674e-05 4.31576373e-05 2.19374833e-05
      1.72902310e-06 -1.11784675e-05 -4.16513212e-05 -1.46884213e-05
      -4.68648468e-05 -5.83812071e-05 -6.55035255e-05 -5.89875744e-05
      -3.61324892e-05 1.73859789e-05 6.55035255e-05 6.55035255e-05
      6.55035255e-05 6.55035255e-05 5.42867674e-05 3.17248196e-05
      8.85134523e-06 -1.11784675e-05 -4.48836436e-05 -2.40885274e-05
      -6.11655705e-05 -6.55035255e-05 -6.55035255e-05 -5.89875744e-05
      -2.13692783e-05 3.22084306e-05 6.55035255e-05 6.55035255e-05
      6.55035255e-05 6.55035255e-05 6.55035255e-05 4.28539497e-05
      8.85134523e-06 -1.11784675e-05 -4.81672760e-05 -2.40885274e-05
      -6.11655705e-05 -6.55035255e-05 -6.55035255e-05 -5.89875744e-05
      1.48161416e-05 6.55035255e-05 6.55035255e-05 6.55035255e-05
      3.71242459e-05 3.63408162e-06 4.07299376e-05 5.40707078e-05
      8.85134523e-06 -1.11784675e-05 -4.81672760e-05 -2.40885274e-05
      -6.11655705e-05 -6.55035255e-05 -6.55035255e-05 -5.53534919e-05
      1.84218316e-05 6.55035255e-05 6.55035255e-05 5.43250608e-05
      1.73362532e-05 3.63408162e-06 3.22084306e-05 5.40707078e-05
      8.85134523e-06 -1.11784675e-05 -4.81672760e-05 -2.40885274e-05
      -6.11655705e-05 -6.55035255e-05 -6.18694467e-05 -2.67791438e-05
      5.17169283e-05 6.55035255e-05 6.55035255e-05 2.86027407e-05
      -3.38813179e-21 3.63408162e-06 4.07299376e-05 5.40707078e-05
      8.85134523e-06 -1.11784675e-05 -4.81672760e-05 -2.40885274e-05
      -6.11655705e-05 -6.55035255e-05 -4.45331934e-05 -9.57832981e-06
      5.17169283e-05 6.55035255e-05 3.71242459e-05 -3.38813179e-21
      -3.38813179e-21 3.63408162e-06 4.07299376e-05 5.40707078e-05
      8.85134523e-06 -1.11784675e-05 -4.81672760e-05 -2.40885274e-05
      -6.11655705e-05 -6.18694467e-05 -3.32950985e-05 6.51595474e-06
      5.17169283e-05 5.43250608e-05 2.58577602e-05 -3.38813179e-21
      -3.38813179e-21 3.63408162e-06 4.07299376e-05 5.23280723e-05
      7.12232213e-06 -1.96999754e-05 -4.81672760e-05 -2.40885274e-05
      -6.11655705e-05 -4.45331934e-05 -1.60942836e-05 6.51595474e-06
      5.17169283e-05 3.71242459e-05 -3.38813179e-21 -3.38813179e-21
      -3.38813179e-21 3.63408162e-06 4.07299376e-05 4.84332995e-05
      3.28363058e-06 -1.96999754e-05 -4.81672760e-05 -2.40885274e-05
      -4.01952384e-05 -1.60942836e-05 0. 3.28363058e-06 2.00540180e-05
      8.52150697e-06 -3.38813179e-21 -3.38813179e-21 -3.38813179e-21
      3.63408162e-06 4.07299376e-05 5.17169283e-05 6.51595474e-06
      -1.96999754e-05 -4.81672760e-05 -2.40885274e-05 -3.65895467e-05
      -1.60942836e-05 0. 0. 3.39712024e-05 1.73362532e-05
      -3.38813179e-21 -3.38813179e-21 -3.38813179e-21 2.09703339e-05
      5.79307525e-05 5.17169283e-05 6.51595474e-06 -1.96999754e-05
      -4.81672760e-05 -2.40885274e-05 -1.17563286e-05 0. 0.
      1.67968517e-06 1.59258434e-05 3.45370681e-05 3.45370681e-05
      3.45370681e-05 3.45370681e-05 3.81711470e-05 5.79307525e-05
      5.17169283e-05 6.51595474e-06 -1.96999754e-05 -3.09664611e-05
      1.04485389e-05 1.19445031e-05 7.12232213e-06 1.11291292e-05
      1.65021356e-05 1.60432937e-05 3.45984372e-05 4.17768388e-05
      4.17768388e-05 4.17768388e-05 4.94092455e-05 6.55035255e-05
      4.05001701e-05 6.51595474e-06 -1.60942836e-05 -2.73323803e-05
      1.04485389e-05 2.20547354e-05 1.82514523e-05 2.23458901e-05
      1.28581523e-05 2.85532242e-05 3.85868589e-05 5.69820222e-05
      6.55035255e-05 6.55035255e-05 6.55035255e-05 5.42867674e-05
      2.93710400e-05 6.51595474e-06 0. 1.72902310e-06 3.81924838e-05
      1.29634591e-05 -1.78522384e-06 -2.34079380e-05 -3.45370681e-05
      -1.88556096e-05 1.44216847e-06 1.97497011e-05 1.97497011e-05
      1.97497011e-05 3.70859561e-05 3.89822235e-05 1.93546857e-05
      3.28363058e-06 0. 6.77073513e-06 4.83027143e-05 1.59250303e-05
      1.44710009e-06 -3.45370681e-05 -3.45370681e-05 -2.62117246e-05
      -1.31392007e-05 -5.68015366e-06 -5.68015366e-06 -5.68015366e-06
      -7.42279099e-06 3.31888077e-06 6.51595474e-06 0. 1.72902310e-06
      1.19587776e-05 3.09664611e-05 3.65594929e-06 -6.37401854e-06
      -3.54469375e-05 -5.69820222e-05 -5.69820222e-05 -4.86566787e-05
      -4.05968094e-05 -3.48803987e-05 -3.40295483e-05 -2.84794696e-05
      -8.25208008e-06 3.28363058e-06 1.11291292e-05 1.63747845e-05
      1.88250233e-05 -3.38813179e-21 -3.38813179e-21 -4.86555791e-06
      -1.73283042e-05 -3.67900429e-05 -4.72520769e-05 -5.43743990e-05
      -5.19416208e-05 -5.73923535e-05 -4.54256660e-05 -3.98242810e-05
      -6.07168386e-06 1.11291292e-05 3.11972362e-05 2.87436433e-05
      1.16198435e-05 -3.38813179e-21 -3.38813179e-21 -2.43277896e-06
      -7.26032476e-06 -1.73283042e-05 -2.55732830e-05 -2.88569136e-05
      -3.60353151e-05 -4.31576373e-05 -4.31576373e-05 -3.18911516e-05
      -3.33983144e-06 2.29174620e-05 2.36700271e-05 -2.08232814e-06
      -3.38813179e-21 -3.38813179e-21 -3.38813179e-21 -3.38813179e-21
      -2.43277896e-06 -4.86555791e-06 -1.05439558e-05 -2.06119348e-05
      -2.23409588e-05 -2.55732830e-05 -2.88569136e-05 -1.25777724e-05
      1.45299427e-05 1.95336434e-05 1.76772755e-05 3.63408162e-06
      -3.38813179e-21 -3.38813179e-21 -3.38813179e-21 -3.38813179e-21
      -3.38813179e-21 -3.38813179e-21 -3.38813179e-21 -3.38813179e-21
      -3.38813179e-21 -3.38813179e-21 -3.38813179e-21 7.63240496e-06
      2.37266904e-05 2.37266904e-05 1.61539119e-05 -3.38813179e-21
      -3.38813179e-21 -3.38813179e-21</_>
    <_>
      -3.04931861e-20 -3.04931861e-20 1.90519459e-05 3.79550474e-05
      3.60974809e-05 3.36661105e-05 3.36661105e-05 1.16166975e-05
      -1.02604527e-05 -1.02604527e-05 1.40480715e-05 3.85480016e-05
      3.85480016e-05 3.85480016e-05 1.90519459e-05 -3.04931861e-20
      -3.04931861e-20 -3.56704618e-07 8.69946052e-06 3.76505559e-05
      3.41271152e-05 2.18771493e-05 1.26103387e-05 1.35534856e-05
      2.52877976e-06 2.52877976e-06 1.47787441e-05 3.10702376e-06
      -8.18789795e-06 3.46491106e-05 3.11480767e-06 -2.37302793e-05
      -3.04931861e-20 2.89142590e-05 4.76935475e-06 2.15818363e-05
      1.10247056e-05 -9.26681150e-06 2.52877976e-06 2.52877976e-06
      2.52877976e-06 2.52877976e-06 2.52877976e-06 2.52877976e-06
      -8.95153516e-06 -1.92126045e-05 -7.81465133e-06 -4.72751672e-05
      -2.45051797e-06 -1.22185866e-05 6.33816853e-07 0. 0.
      -8.04155206e-06 -3.35434015e-06 -1.17343025e-05 -1.17343025e-05
      -1.29404161e-05 -1.41656756e-05 -1.41656756e-05 -3.78959558e-05
      -6.88307555e-05 -7.57420785e-05 -4.72751672e-05 -2.86121704e-05
      -4.80134368e-05 -1.02186277e-05 0. 2.47701464e-05 2.79634349e-07
      7.29048952e-06 5.41460031e-06 5.41460031e-06 4.18934133e-06
      -4.77959475e-05 -6.00459134e-05 -8.37761909e-05 -1.15919429e-04
      -1.20103752e-04 -4.72751672e-05 -5.06615834e-05 -5.74575679e-05
      -8.60980708e-06 1.22525898e-06 2.72015186e-05 2.95180544e-05
      -1.04317533e-05 -3.04931861e-20 -3.04931861e-20 -3.04931861e-20
      -1.22499641e-05 -7.52599590e-05 -1.11240202e-04 -1.34785092e-04
      -1.32353714e-04 -4.72751672e-05 -7.25387290e-05 -6.01023094e-05 0.
      2.43137333e-06 7.81529525e-05 4.94822889e-05 5.92952460e-07
      -3.04931861e-20 -3.04931861e-20 -3.04931861e-20 -3.04931861e-20
      -6.32013980e-05 -1.11240202e-04 -1.34785092e-04 -1.32353714e-04
      -4.72751672e-05 -7.25387290e-05 -6.01023094e-05 0. 2.43137333e-06
      7.94794250e-05 4.28665953e-05 2.97638877e-07 -3.04931861e-20
      -3.04931861e-20 -3.04931861e-20 -3.04931861e-20 -2.44999283e-05
      -1.11240202e-04 -1.34785092e-04 -1.33559835e-04 -2.37302793e-05
      -7.25387290e-05 -5.98046718e-05 0. 2.43137333e-06 7.94794250e-05
      7.56782902e-05 5.31263468e-05 6.14408418e-05 6.17384794e-05
      6.17384794e-05 5.31263468e-05 2.02464580e-05 -9.93055146e-05
      -1.34785092e-04 -1.34785092e-04 -2.37302793e-05 -7.25387290e-05
      -5.95093588e-05 0. 2.43137333e-06 8.90053998e-05 1.12923233e-04
      8.07904289e-05 8.07904289e-05 8.10857382e-05 8.10857382e-05
      7.12644542e-05 3.72385512e-05 -5.81138556e-05 -1.22850397e-04
      -1.34785092e-04 -2.37302793e-05 -7.25387290e-05 -5.95093588e-05 0.
      2.43137333e-06 8.90053998e-05 1.34785092e-04 1.34785092e-04
      1.34785092e-04 1.34785092e-04 1.34785092e-04 1.12923233e-04
      5.84987247e-05 -3.99757519e-05 -8.16587417e-05 -1.22850397e-04
      -2.37302793e-05 -5.34867868e-05 -4.20178039e-05 0. 2.43137333e-06
      8.90053998e-05 1.34489776e-04 1.01973390e-04 9.00387022e-05
      9.00387022e-05 9.00387022e-05 1.22943646e-04 1.10285160e-04
      1.40189140e-05 -5.10876162e-05 -9.35001881e-05 -2.37302793e-05
      -3.45836852e-05 -3.27871421e-05 0. 2.13605972e-06 7.68686368e-05
      8.11312566e-05 6.35229590e-05 5.44411450e-05 5.44411450e-05
      6.38182755e-05 8.17242108e-05 9.84437138e-05 2.35448861e-05
      -9.52597293e-06 -5.10876162e-05 -2.37302793e-05 -3.45836852e-05
      -5.40550318e-05 -2.95313583e-07 -1.00030275e-05 2.58255950e-05
      3.95993920e-05 1.76403992e-05 2.97638877e-07 2.97638877e-07
      9.82361144e-06 5.14823878e-05 6.63989413e-05 0. 0. -3.31519041e-05
      -2.37302793e-05 -5.34867868e-05 -8.58085696e-05 -6.20337960e-05
      -7.10413078e-05 -1.57062714e-05 -3.04931861e-20 -3.04931861e-20
      -3.04931861e-20 -3.04931861e-20 -3.04931861e-20 9.82361144e-06
      1.28574011e-05 -1.06161897e-05 0. -3.12389893e-05 -2.46239119e-06
      -7.25387290e-05 -1.25259117e-04 -1.07618718e-04 -1.24033861e-04
      -4.70049490e-05 -3.04931861e-20 -3.04931861e-20 -3.04931861e-20
      -3.04931861e-20 -3.04931861e-20 -3.04931861e-20 -1.37017723e-05
      -1.77245693e-05 0. -1.89031016e-05 -2.16707758e-06 -7.25387290e-05
      -1.34785092e-04 -1.34785092e-04 -1.34785092e-04 -4.82302094e-05
      -3.04931861e-20 -3.04931861e-20 -3.04931861e-20 -3.04931861e-20
      -3.04931861e-20 -3.04931861e-20 -1.37017723e-05 -1.77245693e-05 0.
      -9.52597293e-06 5.94734911e-06 -7.22410914e-05 -1.34487447e-04
      -1.34487447e-04 -1.11240202e-04 -2.44999283e-05 -3.04931861e-20
      -3.04931861e-20 -3.04931861e-20 -3.04931861e-20 -3.04931861e-20
      -3.04931861e-20 -1.37017723e-05 -1.77245693e-05 0. 0.
      5.94734911e-06 -7.87962126e-05 -1.07971711e-04 -1.07971711e-04
      -1.02562604e-04 -2.44999283e-05 -3.04931861e-20 -3.04931861e-20
      -3.04931861e-20 -3.04931861e-20 -3.04931861e-20 -3.04931861e-20
      -5.32181048e-06 -9.41007511e-06 0. -9.52597293e-06 5.94734911e-06
      9.77102900e-06 -1.14388868e-05 -1.14388868e-05 -3.90888636e-05
      -1.58223284e-05 -3.04931861e-20 -3.04931861e-20 -3.04931861e-20
      -3.04931861e-20 -3.04931861e-20 -3.04931861e-20 6.61287822e-06
      2.43137333e-06 0. 4.64178447e-06 8.70737949e-06 6.27648187e-05
      1.22525898e-06 0. -1.14388868e-05 -5.36361267e-06 2.97638877e-07
      -3.04931861e-20 -3.04931861e-20 -3.04931861e-20 -3.04931861e-20
      -2.49313725e-05 -3.73638031e-05 1.22525898e-06 0. 4.20320721e-05
      2.97638877e-07 4.82255673e-05 -5.88312014e-06 0. 0.
      -2.31265913e-05 -2.70073306e-05 2.97638877e-07 2.97638877e-07
      2.97638877e-07 -5.52670599e-06 7.59614295e-07 2.43137333e-06 0.
      2.35448861e-05 6.63873943e-05 -3.04931861e-20 1.59056362e-05
      5.43908163e-06 1.22525898e-06 0. -9.52597293e-06 -2.31265913e-05
      -2.44110361e-05 -1.21610719e-05 -2.19605190e-05 -4.65644717e-07
      1.34560787e-05 1.22525898e-06 0. 1.40189140e-05 2.49796649e-05
      -3.04931861e-20 1.90519459e-05 4.07747139e-05 1.88870254e-05
      1.22525898e-06 0. 0. 1.10247056e-05 2.31024096e-05 1.34560787e-05
      1.22525898e-06 0. 0. 2.35448861e-05 5.64648908e-05 -3.15276196e-07
      -3.04931861e-20 -3.04931861e-20 -1.49873279e-06 5.11901562e-05
      1.85917124e-05 1.22525898e-06 0. 0. 0. 0. 0. 2.35448861e-05
      2.94346992e-05 4.99978451e-05 9.21069659e-06 -3.04931861e-20
      -3.04931861e-20 -3.04931861e-20 -3.04931861e-20 -1.49873279e-06
      1.79727831e-05 4.99648995e-05 8.98649159e-06 -6.17843352e-06
      1.22525898e-06 -8.31449324e-06 -1.74559591e-06 2.48383731e-05
      3.06616421e-05 -1.22499641e-05 -3.04931861e-20 -3.04931861e-20
      -3.04931861e-20 -3.04931861e-20 -3.04931861e-20 -3.04931861e-20
      -3.04931861e-20 -3.04931861e-20 -3.04931861e-20 -3.04931861e-20
      -3.04931861e-20 -3.04931861e-20 -3.04931861e-20 -3.04931861e-20
      -3.04931861e-20 -3.04931861e-20 -3.04931861e-20 -3.04931861e-20
      -3.04931861e-20</_>
    <_>
      -6.77626358e-21 -6.77626358e-21 -6.77626358e-21 -6.77626358e-21
      -3.86664442e-06 -7.70308088e-06 -7.70308088e-06 -7.70308088e-06
      -7.70308088e-06 -7.70308088e-06 -3.86664442e-06 -6.77626358e-21
      -6.77626358e-21 -6.77626358e-21 -6.77626358e-21 -6.77626358e-21
      -6.77626358e-21 -1.33426493e-05 -2.85143797e-05 -3.04477035e-05
      -4.39108226e-05 -5.73138386e-05 -4.40754266e-05 -1.80151765e-05
      8.12283997e-06 2.17490651e-05 2.36823871e-05 -1.38951646e-05
      -4.00743847e-05 -2.65810577e-05 -2.65810577e-05 -1.33426493e-05
      -6.77626358e-21 -1.52759712e-05 -3.23508175e-05 -4.24298159e-05
      -8.74228499e-05 -7.99644404e-05 -4.02779660e-05 -1.41399496e-05
      -1.41399496e-05 -1.41399496e-05 4.58186484e-08 -1.24659728e-05
      -2.68892054e-05 -2.24742907e-05 -2.65810577e-05 -2.65810577e-05
      -3.86664442e-06 -1.91124072e-05 -5.12391889e-05 -7.86823002e-05
      -9.32028488e-05 -7.80311238e-05 -3.64415282e-05 5.36333027e-06
      2.09445952e-05 3.08615745e-05 4.43041927e-07 -3.91163740e-05
      -5.70381271e-05 -6.12196382e-05 -3.47267378e-05 -2.65810577e-05
      -2.10457292e-05 -5.12391889e-05 -8.74228499e-05 -9.32028488e-05
      -7.80311238e-05 -3.21610132e-05 1.73756525e-05 3.62809333e-05
      3.62809333e-05 4.28436906e-05 4.72355805e-06 -3.91163740e-05
      -6.57786732e-05 -9.12695323e-05 -5.35966283e-05 -2.65810577e-05
      -3.26057343e-05 -8.50756551e-05 -9.32028488e-05 -9.12695323e-05
      -7.41946860e-05 -2.44476887e-05 4.24715727e-05 6.14671662e-05
      7.56529334e-05 4.37349117e-05 -3.94846438e-06 -2.90558564e-05
      -7.99644404e-05 -9.32028488e-05 -8.35864121e-05 -2.65810577e-05
      -5.28847995e-05 -9.08556613e-05 -9.32028488e-05 -8.93664183e-05
      -3.77903380e-05 4.24715727e-05 7.02077086e-05 8.43934831e-05
      5.82554640e-05 3.19116371e-05 9.95549908e-06 -4.89684717e-05
      -7.99644404e-05 -9.32028488e-05 -8.93664183e-05 -3.53904288e-05
      -6.16253456e-05 -9.08556613e-05 -9.32028488e-05 -8.93664183e-05
      -3.21006482e-05 5.69921212e-05 7.90170816e-05 9.32028488e-05
      6.70648369e-05 2.75054172e-05 -8.80937114e-06 -3.29765680e-05
      -7.76172456e-05 -9.32028488e-05 -9.12695323e-05 -3.08925664e-05
      -6.63382161e-05 -9.32028488e-05 -9.32028488e-05 -6.30225913e-05
      2.97237912e-05 7.90170816e-05 9.32028488e-05 9.32028488e-05
      7.99872651e-05 6.66676133e-05 5.24818424e-05 2.10780627e-06
      -7.76172456e-05 -9.32028488e-05 -9.32028488e-05 -4.45187943e-05
      -7.99644404e-05 -9.32028488e-05 -6.68590219e-05 -3.68845722e-05
      3.85331623e-05 9.32028488e-05 9.32028488e-05 9.32028488e-05
      7.99872651e-05 6.66676133e-05 5.24818424e-05 3.70551934e-05
      -2.51354049e-05 -6.68590219e-05 -9.32028488e-05 -4.45187943e-05
      -7.99644404e-05 -9.32028488e-05 -6.68590219e-05 -2.35649222e-05
      5.17487533e-05 9.32028488e-05 9.32028488e-05 7.99872651e-05
      6.66676133e-05 6.66676133e-05 6.66676133e-05 5.12409606e-05
      -2.51354049e-05 -4.07210064e-05 -6.68590219e-05 -4.45187943e-05
      -7.99644404e-05 -6.68590219e-05 -4.07210064e-05 -2.35649222e-05
      6.59345242e-05 9.32028488e-05 9.32028488e-05 7.99872651e-05
      7.99872651e-05 9.32028488e-05 9.32028488e-05 7.77762034e-05
      2.37001359e-06 -2.65352392e-05 -4.07210064e-05 -1.81749656e-05
      -7.99644404e-05 -6.68590219e-05 -2.74013582e-05 3.83643601e-06
      6.59345242e-05 9.32028488e-05 5.38492459e-05 1.41857681e-05
      2.75054172e-05 4.07210064e-05 4.07210064e-05 5.16381842e-05
      1.55856033e-05 -1.32155901e-05 -2.65352392e-05 7.96305085e-06
      -5.36206135e-05 -2.74013582e-05 -1.41857681e-05 3.83643601e-06
      3.97965050e-05 4.07210064e-05 2.75054172e-05 1.41857681e-05
      -6.77626358e-21 1.33196500e-05 4.07210064e-05 3.82955368e-05
      2.34719414e-06 0. -1.32155901e-05 7.96305085e-06 -5.36206135e-05
      -2.74013582e-05 0. 3.83643601e-06 3.97965050e-05 2.75054172e-05
      -6.77626358e-21 -6.77626358e-21 -6.77626358e-21 -6.77626358e-21
      1.33196500e-05 1.72993587e-05 -1.84246910e-05 0. 0. 7.96305085e-06
      -2.70853761e-05 0. 0. 1.93332221e-06 3.78631812e-05 1.33196500e-05
      -6.77626358e-21 -6.77626358e-21 -6.77626358e-21 -6.77626358e-21
      -6.77626358e-21 -8.16867760e-06 -1.65215770e-05 0. 0.
      2.21488190e-05 -9.47358899e-07 0. 0. -2.61380155e-05
      -3.62955666e-06 -6.77626358e-21 -6.77626358e-21 -6.77626358e-21
      -6.77626358e-21 -6.77626358e-21 -6.77626358e-21 -1.39486810e-05
      -2.23015795e-05 0. 0. 2.21488190e-05 -9.47358899e-07 0. 0.
      -4.15905879e-06 -1.80989009e-05 -6.77626358e-21 -6.77626358e-21
      -6.77626358e-21 -6.77626358e-21 -6.77626358e-21 -6.77626358e-21
      -1.39486810e-05 -2.23015795e-05 0. 0. 7.96305085e-06
      2.70796427e-05 2.34719414e-06 8.74054786e-06 3.07883274e-05
      5.89773208e-06 -2.36567598e-06 -6.77626358e-21 -6.77626358e-21
      -6.77626358e-21 -6.77626358e-21 -6.77626358e-21 -2.27580513e-05
      -2.23015795e-05 0. 0. 7.96305085e-06 -1.67842409e-05
      -2.12784789e-06 1.75499190e-05 2.19789581e-05 4.61426043e-06
      -3.63540039e-06 -6.77626358e-21 -6.77626358e-21 -6.77626358e-21
      -6.77626358e-21 -8.80937114e-06 -1.73128319e-05 -2.23015795e-05 0.
      1.32384093e-05 3.90823106e-06 1.17602967e-05 1.43948482e-05
      8.74054786e-06 0. 1.70748463e-05 1.57137765e-05 -1.26972441e-06
      -8.80937114e-06 -8.80937114e-06 -8.80937114e-06 -9.16715271e-06
      -1.22410611e-05 1.93332221e-06 0. 4.83264375e-06 2.63438269e-05
      1.30011786e-05 8.66800292e-06 -1.32155901e-05 0. 1.93332221e-06
      4.82239921e-06 -2.59643087e-07 -7.28755549e-06 -7.28755549e-06
      -6.44443571e-06 -1.26549330e-05 3.83643601e-06 0. 1.32384093e-05
      2.17371344e-05 2.63438269e-05 -6.77626358e-21 1.94736222e-05
      -7.73417287e-06 -1.32155901e-05 0. 1.93332221e-06 3.83643601e-06
      5.76975845e-06 7.70308088e-06 5.76975845e-06 3.83643601e-06
      1.93332221e-06 8.74054786e-06 2.70479609e-06 1.47940664e-05
      -6.77626358e-21 -6.77626358e-21 -6.77626358e-21 1.94736222e-05
      -5.36849666e-06 -2.12784789e-06 8.74054786e-06 8.74054786e-06
      1.93332221e-06 1.25769839e-05 1.06738698e-05 8.74054786e-06
      -1.86608104e-05 -1.80548227e-06 1.16784133e-06 -1.93332221e-06
      -6.77626358e-21 -6.77626358e-21 -6.77626358e-21 -6.77626358e-21
      5.28785358e-06 9.13056465e-06 7.19724267e-06 -8.58123428e-07
      -8.98532016e-06 -8.98532016e-06 -2.31710892e-05 -1.80548227e-06
      -6.54548376e-06 -1.15497614e-05 -1.93332221e-06 -6.77626358e-21
      -6.77626358e-21 -6.77626358e-21 -6.77626358e-21 -6.77626358e-21
      -6.77626358e-21 -1.93332221e-06 9.13453459e-06 8.40791654e-06
      6.50480251e-06 4.57148008e-06 1.97432109e-05 2.24771829e-05
      -3.86664442e-06 -1.93332221e-06 -6.77626358e-21 -6.77626358e-21
      -6.77626358e-21 -6.77626358e-21 -6.77626358e-21 -6.77626358e-21
      -6.77626358e-21 -6.77626358e-21 -6.77626358e-21 -6.77626358e-21
      -6.77626358e-21 -6.77626358e-21 -6.77626358e-21 -6.77626358e-21
      -6.77626358e-21 -6.77626358e-21 -6.77626358e-21 -6.77626358e-21
      -6.77626358e-21</_>
    <_>
      6.31039546e-19 6.31039546e-19 6.31039546e-19 6.31039546e-19
      -1.03162738e-05 -2.05519518e-05 -2.05519518e-05 -2.05519518e-05
      -2.05519518e-05 -2.05519518e-05 -1.03162738e-05 6.31039546e-19
      6.31039546e-19 6.31039546e-19 6.31039546e-19 6.31039546e-19
      1.40235661e-05 3.80359816e-05 1.24509352e-05 7.29279827e-06
      2.21525761e-06 -2.94287929e-06 3.06043648e-06 1.06818959e-06
      1.06818959e-06 9.11102234e-06 1.42691597e-05 1.32961140e-05
      1.24509352e-05 3.20326653e-05 1.58836701e-05 2.18869864e-05
      3.54838521e-05 4.04241255e-05 5.70845668e-06 -4.86454792e-06
      -2.23185743e-05 -1.63152581e-05 -1.02646727e-05 -1.43177540e-05
      -1.43177540e-05 -6.27492091e-06 -2.22183962e-06 -2.22183962e-06
      1.29257551e-05 1.85721001e-05 2.34299514e-05 2.34299514e-05
      3.23334425e-05 3.00405954e-05 1.35972027e-06 -8.16042484e-06
      -2.36952765e-05 -1.25338229e-05 -1.40569614e-06 8.28611046e-09
      1.43340208e-06 3.03690763e-06 4.50762172e-06 4.50762172e-06
      1.39918866e-05 1.41711671e-05 2.18569821e-05 3.05958129e-05
      2.31570575e-05 9.40255359e-06 -8.04283263e-06 -1.61489952e-05
      -2.64478294e-05 -2.27711498e-05 -1.76430262e-06 -1.76430262e-06
      -1.76430262e-06 1.18372304e-06 -1.68578317e-05 -9.40638529e-06
      6.00331578e-06 -2.88469619e-06 7.23339008e-06 3.01594118e-05
      2.13317117e-06 -6.62885077e-06 -1.20959139e-05 -2.49048662e-05
      -3.02357184e-05 -3.18941875e-06 -1.76430262e-06 -1.76430262e-06
      2.28877866e-06 1.03316115e-05 9.22655636e-06 -2.83426607e-06
      1.95023449e-06 -1.20959139e-05 -5.91331764e-06 9.13552685e-06
      -2.06304449e-05 -2.90107546e-05 -2.32588754e-05 -3.44834843e-05
      -2.35157459e-05 -1.60400450e-05 -8.05147283e-06 -8.05147283e-06
      5.46893126e-08 1.52633856e-05 1.43846928e-05 9.78955541e-06
      -2.03951731e-06 -1.61489952e-05 -1.34595975e-05 1.08405334e-06
      -4.26425831e-05 -6.44946049e-05 -6.59085927e-05 -5.56729137e-05
      -2.35157459e-05 -8.05147283e-06 6.31039546e-19 6.31039546e-19
      8.10616257e-06 1.61489952e-05 2.92869499e-05 3.54991898e-05
      -4.67861628e-06 -1.61489952e-05 -2.56470175e-05 -8.06706430e-06
      -4.54816800e-05 -6.59085927e-05 -6.59085927e-05 -5.56729137e-05
      -1.55271755e-05 6.31039546e-19 6.31039546e-19 4.05308128e-06
      1.20959139e-05 2.33148585e-05 4.44483012e-05 3.94980088e-05
      -8.73169756e-06 -2.32588754e-05 -5.18850247e-05 -2.20906295e-05
      -4.54816800e-05 -6.59085927e-05 -6.59085927e-05 -5.56729137e-05
      -7.47570220e-06 6.31039546e-19 6.31039546e-19 8.10616257e-06
      2.33148585e-05 3.04247369e-05 5.19945825e-05 4.75494817e-05
      -1.58415769e-05 -3.04247369e-05 -5.18850247e-05 -2.20906295e-05
      -4.54816800e-05 -6.59085927e-05 -6.59085927e-05 -5.56729137e-05
      -7.47570220e-06 6.31039546e-19 4.05308128e-06 1.92617772e-05
      3.04247369e-05 4.44483012e-05 6.18555059e-05 3.63865220e-05
      -2.30074384e-05 -5.18850247e-05 -6.59085927e-05 -2.20906295e-05
      -4.54816800e-05 -6.59085927e-05 -6.59085927e-05 -5.56729137e-05
      -7.47570220e-06 6.31039546e-19 8.10616257e-06 2.33148585e-05
      3.04247369e-05 5.19945825e-05 5.78657564e-05 3.23334425e-05
      -2.30074384e-05 -5.18850247e-05 -6.59085927e-05 -2.20906295e-05
      -4.54816800e-05 -6.59085927e-05 -6.59085927e-05 -5.56729137e-05
      -7.47570220e-06 4.05308128e-06 1.92617772e-05 3.04247369e-05
      4.44483012e-05 6.18555059e-05 4.67027967e-05 2.51675792e-05
      -4.44677244e-05 -6.59085927e-05 -6.59085927e-05 -2.20906295e-05
      -4.54816800e-05 -6.59085927e-05 -6.59085927e-05 -5.56729137e-05
      -7.47570220e-06 1.52720240e-05 3.04247369e-05 3.04247369e-05
      4.44483012e-05 5.07558761e-05 3.54838521e-05 1.91169929e-05
      -5.04710406e-05 -6.59085927e-05 -6.59085927e-05 -2.20906295e-05
      -4.54816800e-05 -6.59085927e-05 -6.59085927e-05 -5.56729137e-05
      -7.47570220e-06 1.52720240e-05 3.04247369e-05 3.04247369e-05
      4.79415030e-05 4.67027967e-05 3.54838521e-05 2.28500139e-05
      -4.67268874e-05 -6.59085927e-05 -6.59085927e-05 -2.20906295e-05
      -4.54816800e-05 -6.59085927e-05 -6.59085927e-05 -6.07504517e-05
      -1.41489522e-06 2.63716556e-05 3.04247369e-05 4.44483012e-05
      5.78657564e-05 4.26497136e-05 3.54838521e-05 1.40941438e-05
      -5.56729137e-05 -6.59085927e-05 -6.59085927e-05 -2.20906295e-05
      -4.54816800e-05 -6.59085927e-05 -6.59085927e-05 -6.59085927e-05
      -2.51995084e-06 3.04247369e-05 3.04247369e-05 4.44483012e-05
      5.07558761e-05 3.54838521e-05 3.54838521e-05 6.54786390e-06
      -5.56729137e-05 -6.59085927e-05 -6.59085927e-05 -2.20906295e-05
      -4.54816800e-05 -6.59085927e-05 -6.59085927e-05 -4.78636211e-05
      7.52038704e-06 3.04247369e-05 4.44483012e-05 6.18555059e-05
      4.67027967e-05 3.54838521e-05 2.15698456e-05 -7.47570220e-06
      -5.56729137e-05 -6.59085927e-05 -6.59085927e-05 -2.20906295e-05
      -4.06573272e-05 -6.44946049e-05 -5.79200205e-05 -2.85932056e-05
      1.72693653e-05 2.89996206e-05 4.44483012e-05 5.78657564e-05
      4.26497136e-05 3.54838521e-05 2.15698456e-05 -1.55271755e-05
      -5.56729137e-05 -6.59085927e-05 -6.59085927e-05 -2.20906295e-05
      -3.26058544e-05 -5.65060363e-05 -4.58154645e-05 -3.26549271e-05
      9.21789160e-06 2.09481477e-05 4.79415030e-05 4.67027967e-05
      3.54838521e-05 3.54838521e-05 5.97209282e-06 -2.35157459e-05
      -5.56729137e-05 -6.59085927e-05 -5.99052728e-05 -8.05147283e-06
      -1.63668592e-05 -4.32964262e-05 -4.98138579e-05 -4.25937324e-05
      -4.82126507e-06 2.69831435e-05 4.98142836e-05 3.45982407e-05
      2.74323793e-05 1.35183727e-05 -2.20906295e-05 -4.91007922e-05
      -6.07504517e-05 -6.59085927e-05 -4.54816800e-05 6.31039546e-19
      -6.05058585e-06 -3.82188846e-05 -5.06365650e-05 -3.54838521e-05
      -1.59021220e-05 1.03073562e-05 3.49335314e-05 2.37705735e-05
      1.66047103e-05 -1.09061630e-05 -3.09330426e-05 -5.56729137e-05
      -6.59085927e-05 -5.99052728e-05 -3.00285410e-05 6.31039546e-19
      6.31039546e-19 -1.75261539e-05 -3.20861218e-05 -3.54838521e-05
      -2.14602860e-05 1.15388975e-05 8.51027653e-06 6.55853410e-06
      -9.36319793e-06 -3.60911799e-05 -5.56729137e-05 -6.07504517e-05
      -5.79200205e-05 -5.05027201e-05 -1.53938145e-05 6.31039546e-19
      6.31039546e-19 1.61489952e-05 -2.31745912e-06 -1.94980475e-05
      -1.61108146e-05 -4.10734310e-06 -1.52703033e-05 -2.52665996e-05
      -2.61144942e-05 -5.27618831e-05 -5.79200205e-05 -5.79200205e-05
      -4.24512473e-05 -1.53938145e-05 -5.15813690e-06 6.31039546e-19
      6.31039546e-19 1.61489952e-05 1.61489952e-05 -9.48332126e-06
      -1.97415829e-05 -1.15455941e-05 -1.29707105e-05 -2.82987003e-05
      -4.98685440e-05 -4.98685440e-05 -4.24512473e-05 -3.49755464e-05
      -1.53938145e-05 -5.15813690e-06 6.31039546e-19 6.31039546e-19
      6.31039546e-19 6.31039546e-19 6.31039546e-19 6.31039546e-19
      8.86542875e-06 -2.85288115e-06 -8.85619738e-06 -2.78477455e-05
      -4.70294472e-05 -3.58679936e-05 -2.47398675e-05 -1.03162738e-05
      -5.15813690e-06 6.31039546e-19 6.31039546e-19 6.31039546e-19
      6.31039546e-19 6.31039546e-19 6.31039546e-19 6.31039546e-19
      6.31039546e-19 6.31039546e-19 6.31039546e-19 6.31039546e-19
      6.31039546e-19 6.31039546e-19 6.31039546e-19 6.31039546e-19
      6.31039546e-19 6.31039546e-19 6.31039546e-19 6.31039546e-19</_>
    <_>
      -2.71050543e-20 -2.71050543e-20 -2.71050543e-20 -2.71050543e-20
      1.86680627e-05 9.62438207e-05 9.93284993e-05 5.64334914e-05
      1.08369304e-05 1.08369304e-05 4.15294999e-05 6.73139630e-06
      -2.71050543e-20 -2.71050543e-20 -2.71050543e-20 -2.71050543e-20
      -2.71050543e-20 -1.52167586e-05 -2.31246358e-05 1.40285993e-05
      -6.75842057e-06 3.87516138e-06 1.71781721e-05 7.95280539e-06
      -1.50249898e-05 -1.50249898e-05 4.42131011e-07 -2.89601576e-05
      -2.52806385e-05 -3.21379921e-05 -3.03146353e-05 -1.52167586e-05
      -2.71050543e-20 -5.88272678e-06 6.96054576e-06 2.44973326e-05
      -1.06178159e-05 -2.90595854e-05 -1.38428277e-05 -1.38428277e-05
      -1.38428277e-05 -1.38428277e-05 -1.38428277e-05 -1.38428277e-05
      6.85422094e-07 -3.27698945e-05 -5.51157864e-05 -3.03146353e-05
      -1.96853343e-05 1.94376007e-05 2.17167744e-05 -8.67146173e-06 0.
      5.76384582e-06 1.17924164e-05 -1.60794548e-06 -1.60794548e-06
      2.09806039e-05 3.03146353e-05 8.32248770e-06 -2.63007514e-05
      -3.04819332e-05 -2.29272282e-05 -3.21379921e-05 -1.79035942e-05
      1.87864753e-05 4.86869158e-06 0. 5.76384582e-06 -4.26316956e-06
      -2.31495433e-05 -6.08360278e-06 -6.08360278e-06 -7.14639418e-06
      2.14118008e-05 3.03146353e-05 -6.89427088e-06 -3.43147949e-05
      -6.14171040e-06 -4.31879016e-06 -1.91099261e-05 -4.27754412e-06 0.
      -9.33403135e-06 -1.27583726e-05 -2.31495433e-05 -3.63158392e-07
      3.49713555e-05 3.49713555e-05 2.44095045e-05 2.80515815e-05
      3.86952088e-05 1.50978776e-05 -2.19921476e-05 -5.21178299e-05
      2.32973198e-05 -8.15572548e-06 -1.58250423e-05 0. -1.85222179e-05
      -2.23376924e-06 -2.23553070e-05 -4.60391493e-06 -2.78055745e-06
      -2.78055745e-06 1.93847573e-05 3.67947141e-05 5.08930170e-05
      8.41906967e-06 0. -2.16373046e-05 1.86934049e-05 -1.27094272e-05
      -1.58250423e-05 0. -1.85222179e-05 1.06130301e-05 -4.60391493e-06
      -2.71050543e-20 -2.71050543e-20 -2.71050543e-20 -2.71050543e-20
      1.93847573e-05 5.66552735e-05 1.02424274e-05 0. -1.21494813e-05
      3.10324467e-05 -2.12543400e-05 -1.58250423e-05 0. 3.54843735e-07
      3.43434294e-05 2.96425605e-05 -2.71050543e-20 -2.71050543e-20
      -2.71050543e-20 -2.71050543e-20 5.18078741e-05 6.79590230e-05
      1.20372943e-05 0. -4.11688452e-05 3.10324467e-05 -8.87190763e-05
      -3.50017399e-05 0. 1.95315424e-05 6.54469186e-05 7.49933461e-05
      2.96425605e-05 2.96425605e-05 2.96425605e-05 2.96425605e-05
      1.07117106e-04 9.63480343e-05 1.87161022e-05 0. -6.00459098e-05
      1.62147023e-06 -1.56715032e-04 -6.06003596e-05 0. 1.95315424e-05
      1.12994938e-04 1.42243458e-04 8.49517892e-05 6.57750934e-05
      6.57750934e-05 1.07117106e-04 1.76381262e-04 1.24670973e-04
      1.87161022e-05 0. -1.12003487e-04 -2.80210897e-05 -2.00872499e-04
      -1.47129831e-04 -3.50017399e-05 1.95315424e-05 1.32171641e-04
      2.18114408e-04 1.92258900e-04 1.57504212e-04 1.57504212e-04
      1.92258900e-04 2.18114408e-04 1.31349778e-04 1.87161022e-05
      -5.03150804e-05 -1.92206309e-04 -2.80210897e-05 -2.00872499e-04
      -1.66306534e-04 -5.38788045e-05 1.95315424e-05 1.32171641e-04
      2.18114408e-04 2.18114408e-04 2.18114408e-04 2.18114408e-04
      2.18114408e-04 2.18114408e-04 1.31349778e-04 9.56986605e-06
      -8.50892029e-05 -1.88471851e-04 -2.80210897e-05 -2.00872499e-04
      -1.36895556e-04 -6.06102003e-05 1.28527345e-05 1.32171641e-04
      2.18114408e-04 2.18114408e-04 1.88703430e-04 1.88703430e-04
      2.18114408e-04 2.18114408e-04 1.16133022e-04 3.61822481e-06
      -7.58709502e-05 -1.52339315e-04 -2.80210897e-05 -1.25249120e-04
      -7.97868997e-05 -2.58555065e-05 1.95315424e-05 1.32171641e-04
      1.47534578e-04 9.97706520e-05 7.01280878e-05 7.01280878e-05
      1.21935962e-04 1.62805169e-04 1.36537536e-04 2.40227437e-05
      -2.58555065e-05 -1.01779049e-04 1.62147023e-06 -4.89683189e-05
      -4.17331394e-05 -6.67880749e-06 9.84266717e-06 8.11601276e-05
      4.18051568e-05 6.73139630e-06 -2.71050543e-20 -2.71050543e-20
      6.73139630e-06 6.39704667e-05 1.20481949e-04 3.37116180e-05 0.
      -5.69938893e-05 3.77540018e-05 7.44992940e-06 -6.67880749e-06 0.
      -1.91766976e-05 1.73959070e-05 6.73139630e-06 -2.71050543e-20
      -2.71050543e-20 -2.71050543e-20 -2.71050543e-20 -2.71050543e-20
      3.40491461e-05 3.97306849e-06 0. -6.67880749e-06 3.77540018e-05
      2.08601341e-05 0. 0. -2.01970488e-05 6.75715910e-06
      -2.71050543e-20 -2.71050543e-20 -2.71050543e-20 -2.71050543e-20
      -2.71050543e-20 -2.71050543e-20 -1.45385284e-05 -1.49039943e-05 0.
      0. 3.77540018e-05 8.52109042e-06 0. 2.75883440e-06 -3.32415329e-05
      -9.19249032e-06 -2.71050543e-20 -2.71050543e-20 -2.71050543e-20
      -2.71050543e-20 -2.71050543e-20 -2.71050543e-20 -2.40504814e-05
      -2.15828004e-05 0. 0. 3.77540018e-05 1.13016476e-05 2.75883440e-06
      5.53939208e-06 -3.41987361e-05 -1.38249588e-05 -1.33424091e-05
      -2.71050543e-20 -2.71050543e-20 -2.71050543e-20 -2.71050543e-20
      1.93847573e-05 2.45938099e-05 -2.15828004e-05 0. 1.50978776e-05
      5.57295934e-05 6.01681859e-05 2.59439112e-05 4.58219165e-06
      -2.95601585e-05 6.29800581e-07 -8.17304863e-06 -1.33424091e-05
      -2.78055745e-06 -2.78055745e-06 1.93847573e-05 1.95042248e-05
      -3.06081602e-05 -3.30665425e-05 0. 2.87894072e-05 5.17885965e-05
      2.05893575e-05 8.47898718e-06 3.61822481e-06 -3.06058269e-06
      -3.15041984e-06 3.92570513e-07 1.19957422e-05 2.42159222e-05
      2.42159222e-05 3.86417232e-05 -5.22094706e-06 -5.84320005e-05
      -2.58555065e-05 -6.89427088e-06 4.84690390e-05 2.23776206e-05
      -2.90282674e-06 -5.48097296e-06 -1.43872685e-05 0. -6.67880749e-06
      -6.76864465e-06 -7.16614295e-06 8.27248823e-06 -2.40393383e-05
      9.46128694e-07 -7.13126974e-06 -1.60128384e-05 -1.92333137e-05
      -1.57388986e-05 1.63448858e-05 -5.44158229e-06 -2.71050543e-20
      -2.18673813e-06 -5.57741623e-06 -2.77156651e-05 -2.59121207e-05
      -1.06513698e-05 1.23264253e-05 2.28523277e-05 -6.19579305e-06
      -1.99854003e-05 -3.91997310e-06 -1.92333137e-05 -1.96798974e-05
      2.31370959e-05 -1.41773071e-05 -3.64671473e-06 -2.71050543e-20
      -1.80697571e-05 -2.56822455e-06 -7.40077348e-06 -3.37149831e-05
      -2.43809518e-05 -4.14565802e-05 -5.20282738e-05 -5.20282738e-05
      -4.52968779e-05 -1.96798974e-05 5.93368441e-06 -6.27388181e-06
      2.21440605e-05 1.28981435e-06 -1.82335737e-06 -2.71050543e-20
      -2.71050543e-20 -1.80697571e-05 2.66871189e-06 -3.26465556e-06
      -3.60925660e-05 -2.17794659e-05 -1.25912784e-05 -3.25724750e-06
      2.50659855e-06 2.10198732e-06 1.77185502e-05 -5.67514189e-06
      3.08468179e-06 -1.82335737e-06 -2.71050543e-20 -2.71050543e-20
      -2.71050543e-20 -2.71050543e-20 6.73139630e-06 1.34102038e-05
      1.34102038e-05 1.34102038e-05 1.34102038e-05 1.34102038e-05
      1.34102038e-05 1.34102038e-05 1.34102038e-05 6.73139630e-06
      -2.71050543e-20 -2.71050543e-20 -2.71050543e-20</_>
    <_>
      2.28698896e-20 2.28698896e-20 2.28698896e-20 2.28698896e-20
      2.01218863e-05 4.00865683e-05 3.66597233e-05 3.32596501e-05
      3.32596501e-05 3.32596501e-05 4.51213455e-05 2.86501345e-05
      2.28698896e-20 2.28698896e-20 2.28698896e-20 2.28698896e-20
      6.89481885e-06 4.87939303e-07 -8.27614076e-06 7.13789206e-08
      1.76265371e-06 1.14292297e-05 2.89469626e-05 3.36404191e-05
      3.36404191e-05 3.36404191e-05 3.36652265e-05 5.86870738e-06
      -3.87696264e-06 6.74275771e-06 -5.86888609e-06 -6.40687949e-06
      6.89481885e-06 1.05488825e-05 9.97511961e-06 2.55490449e-05
      -3.64529728e-06 -5.37993060e-07 5.86888609e-06 5.86888609e-06
      5.86888609e-06 5.86888609e-06 5.86888609e-06 1.27637049e-05
      2.72283014e-05 1.10010023e-05 6.74275771e-06 -5.86888609e-06
      -1.63342963e-06 2.23070742e-06 1.23949676e-05 1.63008317e-05
      -6.89481885e-06 3.72613113e-06 1.43305078e-05 1.51105096e-05
      1.58966523e-05 1.09130124e-05 5.86888609e-06 5.86888609e-06
      1.94081367e-05 1.19148954e-05 1.16388901e-06 -7.58230908e-06
      -3.89028628e-06 -1.93009964e-06 3.24952134e-06 0. 3.72613113e-06
      1.93746328e-05 1.29699938e-05 -1.08812164e-05 -1.08812164e-05
      8.70586973e-06 1.09130124e-05 5.86888609e-06 6.35682545e-06
      4.26412407e-06 5.05270009e-06 5.02933472e-06 2.22231483e-06
      -8.81803589e-06 0. 4.26412407e-06 -6.59806290e-07 -7.64869981e-07
      -2.02433403e-05 -2.96322341e-05 -2.96322341e-05 -1.85566896e-05
      -4.83197482e-07 -1.62533581e-07 6.35682545e-06 0. -1.13641590e-06
      3.17689883e-05 2.25174863e-05 7.80001471e-07 0. 8.46162129e-06
      5.77697119e-06 -2.02433403e-05 -1.48674999e-05 -1.31540774e-05
      -1.31540774e-05 -1.31540774e-05 -2.79188116e-05 -1.80016632e-05
      6.35682545e-06 0. -4.38593725e-06 3.12265547e-05 2.21045902e-05
      7.80001471e-07 0. -4.38593725e-06 -1.63608165e-05 -1.48674999e-05
      2.28698896e-20 2.28698896e-20 2.28698896e-20 2.28698896e-20
      -1.31540774e-05 -1.34724803e-06 8.85025020e-06 0. 4.26412407e-06
      2.45320698e-05 1.88250233e-05 0. 0. -4.38593725e-06
      -1.62285471e-06 2.28698896e-20 2.28698896e-20 2.28698896e-20
      2.28698896e-20 2.28698896e-20 2.28698896e-20 2.03123054e-05
      1.05369008e-05 0. 0. 1.76372523e-05 1.88250233e-05 0. 0.
      -4.38593725e-06 1.84260407e-05 2.28698896e-20 2.28698896e-20
      2.28698896e-20 2.28698896e-20 2.28698896e-20 2.28698896e-20
      3.34663819e-05 1.05369008e-05 0. -1.28475585e-05 1.76372523e-05
      -2.39486258e-06 0. 0. -4.38593725e-06 1.84260407e-05
      6.89481885e-06 6.89481885e-06 2.28698896e-20 2.28698896e-20
      6.89481885e-06 6.89481885e-06 3.34663819e-05 1.05369008e-05 0.
      -1.28475585e-05 1.76372523e-05 -1.64961002e-05 -6.89481885e-06 0.
      8.46162129e-06 4.54760011e-05 2.12198847e-05 6.89481885e-06
      6.89481885e-06 6.89481885e-06 6.89481885e-06 3.41686064e-05
      6.04151792e-05 1.05369008e-05 0. -1.97423778e-05 3.31218439e-06
      -1.64961002e-05 -6.89481885e-06 -6.89481885e-06 8.46162129e-06
      7.26486251e-05 7.54424691e-05 3.41686064e-05 6.89481885e-06
      1.98435391e-05 3.26910995e-05 6.13412340e-05 7.47402446e-05
      1.05369008e-05 -1.28475585e-05 -3.26910995e-05 -1.07890537e-05
      -5.66174458e-05 -3.40674451e-05 -6.89481885e-06 1.56680267e-06
      6.57538039e-05 8.97675345e-05 7.54424691e-05 6.13412340e-05
      4.70161649e-05 3.26910995e-05 6.13412340e-05 6.83333637e-05
      4.18007494e-06 -1.97423778e-05 -4.70161649e-05 -2.51141209e-05
      -6.92290923e-05 -7.54424691e-05 -3.40674451e-05 1.56680267e-06
      6.57538039e-05 8.28727207e-05 8.28727207e-05 8.28727207e-05
      7.54424691e-05 6.13412340e-05 7.54424691e-05 7.50608669e-05
      -1.93383971e-06 -3.26910995e-05 -6.11174037e-05 -3.94391864e-05
      -6.75424380e-05 -8.97675345e-05 -7.54424691e-05 -4.27520426e-05
      4.86421231e-05 8.28727207e-05 8.28727207e-05 8.28727207e-05
      8.97675345e-05 8.97675345e-05 8.97675345e-05 6.64774343e-05
      -1.75798814e-05 -4.70161649e-05 -7.54424691e-05 -3.94391864e-05
      -6.75424380e-05 -8.97675345e-05 -8.97675345e-05 -7.54424691e-05
      3.00297438e-06 2.86501345e-05 2.86501345e-05 5.57000931e-05
      8.97675345e-05 8.97675345e-05 8.97675345e-05 6.32279116e-05
      -2.08294023e-05 -6.11174037e-05 -8.97675345e-05 -3.94391864e-05
      -6.75424380e-05 -8.97675345e-05 -8.97675345e-05 -7.03593978e-05
      -1.92402804e-05 2.28698896e-20 2.28698896e-20 4.84936718e-05
      8.97675345e-05 8.97675345e-05 7.69199760e-05 4.33843743e-05
      -3.51544695e-05 -7.54424691e-05 -8.97675345e-05 -3.94391864e-05
      -5.92818105e-05 -8.89875373e-05 -7.67162273e-05 -5.72053214e-05
      -2.00202812e-05 -7.86143232e-07 1.29487207e-05 6.13412340e-05
      8.97675345e-05 8.97675345e-05 7.69199760e-05 3.02302960e-05
      -4.92557083e-05 -8.97675345e-05 -8.97675345e-05 -3.94391864e-05
      -4.61277341e-05 -7.59362229e-05 -6.35621473e-05 -6.86459753e-05
      -3.46596826e-05 -1.71897427e-05 3.41686064e-05 7.54424691e-05
      8.97675345e-05 7.69199760e-05 4.39223622e-05 2.85391775e-06
      -6.35807737e-05 -8.97675345e-05 -8.34107123e-05 -1.99809965e-05
      -2.48610158e-05 -5.52685015e-05 -7.50028048e-05 -8.46540424e-05
      -5.56539744e-05 -2.37406020e-05 4.49376348e-05 7.66134617e-05
      6.37659032e-05 5.08171797e-05 2.12146497e-05 -3.92486363e-05
      -8.37899934e-05 -8.97675345e-05 -6.76929922e-05 -6.82691916e-06
      -8.12030248e-06 -4.44721809e-05 -8.63674650e-05 -8.63674650e-05
      -5.66864219e-05 -7.80052960e-06 3.62597239e-05 5.54969592e-05
      4.26494007e-05 1.63989826e-05 -9.19507966e-06 -6.52674280e-05
      -8.97675345e-05 -8.34107123e-05 -4.42560522e-05 -6.82691916e-06
      2.28698896e-20 -2.63887232e-05 -6.50225047e-05 -8.97675345e-05
      -7.68188183e-05 -1.16939827e-05 2.26432421e-05 1.57464583e-05
      7.06186120e-06 -4.09708127e-06 -5.09423589e-05 -8.55034159e-05
      -7.67162273e-05 -6.63298779e-05 -2.28021872e-05 -5.11349663e-06
      2.28698896e-20 -1.71342288e-06 -3.15022189e-05 -5.46877163e-05
      -2.89200598e-05 -1.27375586e-06 1.30513108e-05 -8.58343446e-06
      -1.11781656e-05 -2.97007300e-05 -6.23911619e-05 -7.67162273e-05
      -5.31758014e-05 -2.28021872e-05 -1.10910432e-05 -3.42684575e-06
      2.28698896e-20 -1.71342288e-06 7.83522410e-06 -7.41936219e-06
      1.00576217e-05 3.42198036e-05 1.73873523e-05 4.09109163e-07
      -6.48570949e-06 -3.49120128e-05 -5.31758014e-05 -4.27840278e-05
      -2.28021872e-05 -1.10910432e-05 -5.11349663e-06 -1.71342288e-06
      2.28698896e-20 2.28698896e-20 1.12352982e-05 2.23694333e-05
      3.76385433e-05 2.83646659e-05 2.33841874e-05 -2.03319564e-06
      -2.03985583e-05 -2.41026755e-05 -2.78233656e-05 -1.53551682e-05
      -9.37762070e-06 -3.42684575e-06 -1.71342288e-06 2.28698896e-20
      2.28698896e-20 2.28698896e-20 2.28698896e-20 2.28698896e-20
      2.28698896e-20 2.28698896e-20 2.28698896e-20 2.28698896e-20
      2.28698896e-20 2.28698896e-20 2.28698896e-20 2.28698896e-20
      2.28698896e-20 2.28698896e-20 2.28698896e-20 2.28698896e-20</_>
    <_>
      3.17637355e-20 3.17637355e-20 3.17637355e-20 3.17637355e-20
      3.17637355e-20 3.17637355e-20 2.28217341e-05 4.54651745e-05
      4.54651745e-05 2.28217341e-05 -1.94422955e-05 3.17637355e-20
      3.17637355e-20 3.17637355e-20 3.17637355e-20 3.17637355e-20
      3.17637355e-20 3.17637355e-20 3.17637355e-20 1.46121056e-05
      2.60229735e-05 2.60229735e-05 9.90436183e-06 -9.02351167e-06
      -9.02351167e-06 -3.01936489e-05 -6.02959844e-05 -4.74117187e-05
      5.42536964e-06 3.20123809e-06 3.20123809e-06 3.17637355e-20
      3.17637355e-20 1.72932032e-05 4.90634084e-05 4.43556673e-05
      5.57665335e-05 5.57665335e-05 3.91033864e-05 2.54277929e-05
      2.54277929e-05 -3.20123809e-06 -3.20123809e-06 0. 6.25201137e-05
      3.19053106e-05 3.20123809e-06 3.17637355e-20 3.17637355e-20
      1.72932032e-05 6.04742781e-05 2.86290306e-05 2.86290306e-05
      1.14709301e-05 -9.02351167e-06 -9.02351167e-06 -1.06763137e-05
      -3.20123809e-06 -3.20123809e-06 -3.20123809e-06 6.41717124e-05
      7.17068469e-05 3.19053106e-05 3.20123809e-06 3.44513064e-05
      4.58621726e-05 7.17068469e-05 2.86290306e-05 1.71166039e-06
      -3.01936489e-05 -5.06129581e-05 -5.06129581e-05 -6.02959844e-05
      -6.02959844e-05 -3.17702070e-05 -3.20123809e-06 5.44886861e-05
      8.31177167e-05 4.33161767e-05 3.20123809e-06 3.44513064e-05
      5.72730387e-05 8.31177167e-05 3.68205292e-05 -1.43146553e-06
      -4.45693477e-05 -5.59802138e-05 -6.94421251e-05 -8.31177167e-05
      -8.31177167e-05 -5.44136456e-05 -1.46121056e-05 5.44886861e-05
      8.31177167e-05 7.17068469e-05 3.20123809e-06 5.72730387e-05
      6.85056148e-05 7.99164773e-05 3.41293489e-05 -5.80729602e-06
      -2.86290306e-05 -2.86290306e-05 -4.23046222e-05 -6.94421251e-05
      -8.31177167e-05 -8.31177167e-05 -5.44136456e-05 4.30778200e-05
      8.31177167e-05 8.31177167e-05 3.17637355e-20 2.28217341e-05
      5.13475097e-05 6.27583795e-05 3.57059034e-05 3.87572936e-06
      -1.89460061e-05 -1.89460061e-05 -1.89460061e-05 -5.59802138e-05
      -8.31177167e-05 -8.31177167e-05 -6.26232722e-05 3.18452476e-05
      8.31177167e-05 8.31177167e-05 3.17637355e-20 3.17637355e-20
      1.14108670e-05 2.28217341e-05 2.28217341e-05 1.14108670e-05
      3.17637355e-20 3.17637355e-20 3.17637355e-20 -3.71104543e-05
      -8.31177167e-05 -6.58245117e-05 -4.54651745e-05 3.18452476e-05
      8.31177167e-05 6.59596190e-05 3.17637355e-20 3.17637355e-20
      3.17637355e-20 3.17637355e-20 3.17637355e-20 3.17637355e-20
      3.17637355e-20 3.17637355e-20 3.17637355e-20 -2.73511832e-05
      -8.31177167e-05 -6.26232722e-05 -3.40543083e-05 4.30778200e-05
      8.31177167e-05 6.27583795e-05 3.17637355e-20 3.17637355e-20
      3.17637355e-20 3.17637355e-20 3.17637355e-20 3.17637355e-20
      3.17637355e-20 3.17637355e-20 3.17637355e-20 -2.73511832e-05
      -6.58245117e-05 -4.54651745e-05 -2.26434404e-05 5.44886861e-05
      6.59596190e-05 3.40543083e-05 3.17637355e-20 3.17637355e-20
      3.17637355e-20 3.17637355e-20 3.17637355e-20 3.17637355e-20
      3.17637355e-20 3.17637355e-20 3.17637355e-20 -2.73511832e-05
      -6.26232722e-05 -3.40543083e-05 2.26472457e-06 5.44886861e-05
      6.27583795e-05 2.28217341e-05 3.17637355e-20 3.17637355e-20
      3.17637355e-20 3.17637355e-20 3.17637355e-20 3.17637355e-20
      3.17637355e-20 3.17637355e-20 3.17637355e-20 -6.85674195e-06
      -3.40543083e-05 -1.14108670e-05 2.71375029e-05 3.41293489e-05
      3.40543083e-05 1.14108670e-05 3.17637355e-20 3.17637355e-20
      3.17637355e-20 3.17637355e-20 3.17637355e-20 3.17637355e-20
      3.17637355e-20 3.17637355e-20 6.81885012e-06 8.25031566e-06
      -1.14108670e-05 0. 6.77816388e-06 1.68361439e-05 2.28217341e-05
      3.17637355e-20 3.17637355e-20 3.17637355e-20 3.17637355e-20
      3.17637355e-20 3.17637355e-20 3.17637355e-20 3.17637355e-20
      2.04944427e-05 1.03013590e-05 5.98559109e-06 0. -1.71581014e-05
      -1.05150402e-05 5.42527641e-06 1.14108670e-05 3.17637355e-20
      3.17637355e-20 3.17637355e-20 3.17637355e-20 3.17637355e-20
      3.17637355e-20 3.17637355e-20 1.72932032e-05 3.76525422e-05
      2.17122270e-05 1.72181644e-05 0. -2.03593390e-05 -2.19259073e-05
      -1.72181644e-05 3.17637355e-20 3.17637355e-20 3.17637355e-20
      3.17637355e-20 3.17637355e-20 3.17637355e-20 3.17637355e-20
      1.72932032e-05 3.76525422e-05 4.90634084e-05 4.43556673e-05
      2.86290306e-05 -2.03593390e-05 -4.90634084e-05 -4.45693477e-05
      -2.86290306e-05 3.17637355e-20 3.17637355e-20 3.17637355e-20
      3.17637355e-20 3.17637355e-20 3.17637355e-20 3.17637355e-20
      2.04944427e-05 4.90634084e-05 7.17068469e-05 5.57665335e-05
      8.26969244e-06 -3.76525422e-05 -6.02959844e-05 -5.59802138e-05
      -2.86290306e-05 3.17637355e-20 3.17637355e-20 3.17637355e-20
      3.17637355e-20 3.17637355e-20 3.17637355e-20 2.04944427e-05
      4.90634084e-05 7.17068469e-05 8.31177167e-05 3.86084321e-05
      -9.02351167e-06 -4.90634084e-05 -7.17068469e-05 -5.59802138e-05
      -2.86290306e-05 3.17637355e-20 3.17637355e-20 3.17637355e-20
      3.17637355e-20 3.17637355e-20 2.04944427e-05 3.76525422e-05
      6.04742781e-05 8.31177167e-05 6.27583795e-05 1.81139912e-05
      -2.04343796e-05 -7.17068469e-05 -8.31177167e-05 -5.59802138e-05
      -2.86290306e-05 3.17637355e-20 3.17637355e-20 3.17637355e-20
      3.17637355e-20 1.72932032e-05 3.76525422e-05 4.90634084e-05
      7.17068469e-05 8.31177167e-05 6.27583795e-05 6.70312329e-06
      -4.30778200e-05 -7.34346904e-05 -8.31177167e-05 -5.59802138e-05
      -2.86290306e-05 3.17637355e-20 3.17637355e-20 3.17637355e-20
      3.17637355e-20 2.04944427e-05 4.90634084e-05 7.17068469e-05
      8.31177167e-05 7.99164773e-05 7.99164773e-05 2.99218555e-05
      -2.00373815e-05 -2.92241166e-05 -4.86664139e-05 -2.15289092e-05
      5.82227403e-06 1.72932032e-05 3.17637355e-20 3.17637355e-20
      3.76525422e-05 3.76525422e-05 6.04742781e-05 8.31177167e-05
      8.31177167e-05 8.31177167e-05 8.31177167e-05 3.31230949e-05
      -1.68361439e-05 -2.60228790e-05 -3.17895829e-05 -4.65207995e-06
      9.02351167e-06 3.44513064e-05 1.72932032e-05 3.17637355e-20
      3.76525422e-05 4.90634084e-05 7.17068469e-05 8.31177167e-05
      8.31177167e-05 8.31177167e-05 6.94421251e-05 3.08937560e-05
      5.98559109e-06 -3.20114464e-06 4.49406298e-06 3.18452476e-05
      3.18452476e-05 6.04742781e-05 4.01149373e-05 3.17637355e-20
      3.20123809e-06 2.60229735e-05 6.59596190e-05 8.31177167e-05
      8.31177167e-05 8.31177167e-05 6.94421251e-05 4.23046222e-05
      2.86290306e-05 1.94422955e-05 2.71375029e-05 5.44886861e-05
      5.44886861e-05 6.59596190e-05 4.54651745e-05 3.17637355e-20
      3.17637355e-20 2.60229735e-05 4.86664139e-05 4.86664139e-05
      4.86664139e-05 4.86664139e-05 4.86664139e-05 4.86664139e-05
      4.86664139e-05 3.94796771e-05 2.00373815e-05 2.00373815e-05
      2.60228790e-05 4.54651745e-05 4.54651745e-05 3.17637355e-20
      3.17637355e-20 3.17637355e-20 3.17637355e-20 3.17637355e-20
      3.17637355e-20 3.17637355e-20 3.17637355e-20 3.17637355e-20
      3.17637355e-20 3.17637355e-20 3.17637355e-20 3.17637355e-20
      3.17637355e-20 3.17637355e-20 3.17637355e-20 3.17637355e-20</_>
    <_>
      6.80187077e-06 6.80187077e-06 6.80187077e-06 6.80187077e-06
      6.80187077e-06 6.80187077e-06 6.80187077e-06 6.80187077e-06
      6.80187077e-06 6.80187077e-06 -1.28652355e-05 6.80187077e-06
      6.80187077e-06 6.80187077e-06 -5.08219768e-21 -5.08219768e-21
      6.80187077e-06 3.51420858e-05 6.73954783e-05 7.14977577e-05
      7.14977577e-05 7.14977577e-05 4.24398095e-05 1.36088802e-05
      1.36088802e-05 3.73676426e-06 -2.68776766e-05 -1.70826861e-05
      5.06783035e-05 7.14977577e-05 6.81101592e-05 5.64590227e-05
      6.80187077e-06 3.51420858e-05 7.67524325e-05 6.10806237e-05
      6.10806237e-05 6.10806237e-05 4.67786704e-05 3.22496962e-05
      3.22496962e-05 -8.23685968e-06 -4.10227904e-06 0. 7.75559820e-05
      9.83754289e-05 9.83754289e-05 4.22889170e-05 6.80187077e-06
      3.51420858e-05 6.32608935e-05 1.88635604e-05 3.22496962e-05
      3.22496962e-05 3.22496962e-05 3.22496962e-05 1.55813007e-06
      -8.23685968e-06 -4.10227904e-06 0. 6.76838681e-05 9.83754289e-05
      9.42731494e-05 2.83402151e-05 3.41427244e-06 1.75843797e-05
      3.17544873e-05 -2.61343866e-05 -3.60065023e-05 -3.60065023e-05
      -5.68259529e-05 -5.68259529e-05 -6.66209453e-05 -4.51500637e-05
      -1.33861367e-05 0. 5.78888757e-05 9.42731494e-05 5.91947282e-05
      1.41701075e-05 -5.08219768e-21 -5.08219768e-21 -5.08219768e-21
      -5.97495127e-05 -6.95444978e-05 -6.95444978e-05 -6.95444978e-05
      -8.38464548e-05 -8.00707421e-05 -2.75562452e-05 0. 0.
      5.37865963e-05 5.91947282e-05 1.41701075e-05 -5.08219768e-21
      -5.08219768e-21 -5.08219768e-21 -5.08219768e-21 -4.04865568e-05
      -4.04865568e-05 -4.04865568e-05 -4.04865568e-05 -5.08809462e-05
      -4.38551106e-05 -1.33861367e-05 0. -4.10227904e-06 3.54819058e-05
      2.76616465e-05 -5.08219768e-21 -5.08219768e-21 -5.08219768e-21
      -5.08219768e-21 -5.08219768e-21 -9.87211570e-06 -3.06915645e-05
      -3.06915645e-05 -3.06915645e-05 -8.97260543e-06 1.27468491e-06 0.
      0. -1.82723870e-05 -9.41063627e-06 -5.08219768e-21 -5.08219768e-21
      -5.08219768e-21 -5.08219768e-21 -5.08219768e-21 -5.08219768e-21
      -5.08219768e-21 -5.08219768e-21 -5.08219768e-21 1.83046886e-05
      7.08191874e-05 5.94453704e-05 0. 0. -4.48925421e-05
      -3.63519757e-05 -5.08219768e-21 -5.08219768e-21 -5.08219768e-21
      -5.08219768e-21 -5.08219768e-21 -5.08219768e-21 -5.08219768e-21
      -5.08219768e-21 1.83046886e-05 6.74315888e-05 9.83754289e-05
      6.93174879e-05 0. 0. -4.83068143e-05 -3.22496962e-05
      4.13458065e-06 -5.08219768e-21 -5.08219768e-21 -5.08219768e-21
      -5.08219768e-21 -5.08219768e-21 -5.08219768e-21 -5.08219768e-21
      2.83402151e-05 8.08870172e-05 9.83754289e-05 6.93174879e-05 0. 0.
      -1.75577061e-05 8.79808795e-06 2.17283996e-05 4.13458065e-06
      -5.08219768e-21 -5.08219768e-21 -5.08219768e-21 -5.08219768e-21
      -5.08219768e-21 -5.08219768e-21 4.52460263e-05 9.01385720e-05
      9.01385720e-05 6.52152085e-05 0. 0. 1.45289723e-05 4.03311678e-05
      5.26989170e-05 1.76261201e-05 -5.08219768e-21 -5.08219768e-21
      -5.08219768e-21 -5.08219768e-21 -5.08219768e-21 -5.08219768e-21
      1.75843797e-05 3.51420858e-05 3.51420858e-05 6.08414166e-06
      -3.57931058e-05 -4.10227904e-06 2.88309293e-05 5.78888757e-05
      7.02566249e-05 2.10403923e-05 -5.08219768e-21 -5.08219768e-21
      -5.08219768e-21 -5.08219768e-21 -5.08219768e-21 -5.08219768e-21
      -5.08219768e-21 3.41427244e-06 -1.11147001e-05 -3.99456294e-05
      -8.07910474e-05 -5.26722433e-05 1.13425140e-05 5.78888757e-05
      8.42053196e-05 5.19842361e-05 -5.08219768e-21 -5.08219768e-21
      -5.08219768e-21 -5.08219768e-21 -5.08219768e-21 -5.08219768e-21
      -5.08219768e-21 -5.08219768e-21 -2.90579446e-05 -5.78888757e-05
      -9.83754289e-05 -7.00352175e-05 7.95491542e-06 5.78888757e-05
      9.83754289e-05 7.02566249e-05 3.41427244e-06 -5.08219768e-21
      -5.08219768e-21 -5.08219768e-21 -5.08219768e-21 -5.08219768e-21
      -5.08219768e-21 -5.08219768e-21 -2.90579446e-05 -5.78888757e-05
      -9.83754289e-05 -7.00352175e-05 -8.95089670e-06 4.45027363e-05
      9.83754289e-05 7.02566249e-05 6.80187077e-06 -5.08219768e-21
      -5.08219768e-21 -5.08219768e-21 -5.08219768e-21 -5.08219768e-21
      -5.08219768e-21 -5.08219768e-21 -2.90579446e-05 -5.78888757e-05
      -9.83754289e-05 -7.00352175e-05 -8.95089670e-06 4.11151377e-05
      8.42053196e-05 5.60865155e-05 6.80187077e-06 2.24069681e-05
      3.65770757e-05 2.24069681e-05 4.13458065e-06 -5.08219768e-21
      -5.08219768e-21 -5.08219768e-21 -2.90579446e-05 -5.78888757e-05
      -9.83754289e-05 -7.00352175e-05 -8.95089670e-06 3.77008655e-05
      7.02566249e-05 3.78141267e-05 6.80187077e-06 5.05257776e-05
      7.81874260e-05 6.68690263e-05 3.44265281e-05 1.34915390e-05
      -5.08219768e-21 -5.08219768e-21 -2.90579446e-05 -5.78888757e-05
      -8.42053196e-05 -5.60865155e-05 -8.95089670e-06 3.77008655e-05
      7.02566249e-05 3.78141267e-05 6.80187077e-06 9.15735582e-05
      9.15735582e-05 7.02566249e-05 4.19164062e-05 2.10403923e-05
      -5.08219768e-21 -5.08219768e-21 -2.90579446e-05 -5.78888757e-05
      -7.00352175e-05 -3.77818251e-05 8.64292269e-06 3.69168956e-05
      5.60865155e-05 3.78141267e-05 6.80187077e-06 6.46958870e-05
      7.81874260e-05 8.42053196e-05 5.60865155e-05 2.44279909e-05
      3.41427244e-06 -5.08219768e-21 -2.90579446e-05 -4.37187664e-05
      -4.62915232e-05 -3.77818251e-05 8.64292269e-06 2.29681955e-05
      4.19164062e-05 3.78141267e-05 6.80187077e-06 6.46958870e-05
      7.81874260e-05 9.83754289e-05 8.42053196e-05 7.02566249e-05
      5.27682059e-05 2.83402151e-05 -7.17728938e-07 -1.55999587e-05
      -1.81147207e-05 -2.01880066e-05 7.85895099e-06 1.22123602e-05
      3.78141267e-05 2.02934098e-05 6.80187077e-06 5.05257776e-05
      7.81874260e-05 9.49878304e-05 9.83754289e-05 9.83754289e-05
      9.83754289e-05 9.49878304e-05 6.59298894e-05 3.36846861e-05
      1.62795077e-05 -3.02873377e-06 -2.31661215e-06 1.42985061e-06
      3.78141267e-05 2.02934098e-05 6.80187077e-06 2.83402151e-05
      6.05936038e-05 7.81874260e-05 9.83754289e-05 9.83754289e-05
      9.83754289e-05 8.38464548e-05 5.50155273e-05 3.70989583e-05
      5.49699780e-06 -1.34579859e-05 1.42985061e-06 -2.67242876e-06
      2.02934098e-05 6.80187077e-06 3.41427244e-06 1.41701075e-05
      2.83402151e-05 4.64234981e-05 6.81101592e-05 8.49892967e-05
      9.83754289e-05 8.38464548e-05 4.08454216e-05 1.23677482e-05
      -2.26218108e-05 -3.17303748e-05 -2.01931452e-05 -3.36846861e-05
      6.80187077e-06 3.41427244e-06 -5.08219768e-21 -5.08219768e-21
      -5.08219768e-21 -5.08219768e-21 -5.08219768e-21 7.54885286e-06
      1.16511319e-05 1.50387305e-05 1.50387305e-05 1.09364510e-05
      -1.40175798e-05 -3.36846861e-05 -3.36846861e-05 -1.62528340e-05
      3.41427244e-06 -5.08219768e-21 -5.08219768e-21 -5.08219768e-21
      -5.08219768e-21 -5.08219768e-21 -5.08219768e-21 -5.08219768e-21
      -5.08219768e-21 -5.08219768e-21 -5.08219768e-21 -5.08219768e-21
      -5.08219768e-21 -5.08219768e-21 -5.08219768e-21 -5.08219768e-21
      -5.08219768e-21 -5.08219768e-21 -5.08219768e-21</_>
    <_>
      2.03287907e-20 2.03287907e-20 2.03287907e-20 2.03287907e-20
      2.03287907e-20 2.03287907e-20 2.03287907e-20 2.03287907e-20
      1.43683292e-05 5.74239202e-05 3.42175663e-05 8.88437717e-05
      7.45876969e-05 2.87995135e-05 2.03287907e-20 2.03287907e-20
      2.03287907e-20 2.03287907e-20 2.03287907e-20 2.03287907e-20
      2.03287907e-20 2.03287907e-20 -6.74581224e-06 -1.34389229e-05
      1.53291639e-05 3.21677908e-05 -8.50764354e-06 1.72812615e-05
      4.95279855e-05 3.88290136e-05 2.03287907e-20 2.03287907e-20
      2.03287907e-20 2.03287907e-20 2.03287907e-20 -6.74581224e-06
      -6.74581224e-06 -6.74581224e-06 -1.00660163e-05 -6.25475832e-06
      3.43770880e-05 -6.64194704e-06 0. 2.40480699e-06 7.00483433e-05
      5.93493714e-05 6.69424571e-06 2.03287907e-20 2.03287907e-20
      2.03287907e-20 2.03287907e-20 -1.34389229e-05 -1.34389229e-05
      -1.34389229e-05 -1.46507937e-05 1.29054206e-05 5.95907159e-06 0.
      0. 2.40480699e-06 4.40563781e-05 5.93493714e-05 6.69424571e-06
      2.03287907e-20 2.03287907e-20 2.03287907e-20 2.03287907e-20
      -1.34389229e-05 -3.94308881e-05 -4.06427607e-05 -6.79950244e-05
      -1.94570603e-05 0. 0. 0. 2.40480699e-06 1.82674721e-05
      5.93493714e-05 6.69424571e-06 2.03287907e-20 2.03287907e-20
      2.03287907e-20 2.03287907e-20 -6.48694040e-05 -9.18701771e-05
      -9.42749830e-05 -6.67187705e-05 -1.76687972e-05 0. 0. 0.
      2.40480699e-06 1.82674721e-05 5.93493714e-05 6.69424571e-06
      2.03287907e-20 2.03287907e-20 2.03287907e-20 2.03287907e-20
      -8.63362366e-05 -8.75291735e-05 -6.71571179e-05 -1.76322810e-05
      1.00660163e-05 3.37290612e-06 0. 0. 2.40480699e-06 1.82674721e-05
      5.93493714e-05 6.69424571e-06 2.03287907e-20 2.03287907e-20
      2.03287907e-20 2.03287907e-20 -2.84157086e-05 -6.05473324e-05
      -1.18781791e-05 3.92278271e-05 3.92278271e-05 6.69311066e-06 0. 0.
      2.40480699e-06 1.82674721e-05 5.93493714e-05 6.69424571e-06
      2.03287907e-20 2.03287907e-20 2.03287907e-20 2.03287907e-20
      2.03287907e-20 2.15839209e-05 6.98968870e-05 9.97562238e-05
      9.85632869e-05 4.30297150e-05 -2.15839209e-05 0. 2.40480699e-06
      1.82674721e-05 5.93493714e-05 6.69424571e-06 2.03287907e-20
      2.03287907e-20 2.03287907e-20 2.03287907e-20 2.03287907e-20
      4.98620902e-05 1.02179969e-04 1.02179969e-04 7.93841755e-05
      2.07610119e-05 -5.90121235e-05 -6.64194704e-06 2.40480699e-06
      1.82674721e-05 5.93493714e-05 6.69424571e-06 2.03287907e-20
      2.03287907e-20 2.03287907e-20 2.03287907e-20 2.15839209e-05
      7.11087632e-05 1.02179969e-04 1.02179969e-04 5.93493714e-05
      -2.47530897e-06 -5.90121235e-05 -9.48728302e-06 2.40480699e-06
      1.82674721e-05 5.93493714e-05 6.69424571e-06 2.03287907e-20
      2.03287907e-20 2.03287907e-20 2.03287907e-20 4.98620902e-05
      1.02179969e-04 1.02179969e-04 8.05960444e-05 2.82781675e-05
      -9.16955469e-06 -5.90121235e-05 -6.64194704e-06 5.77771334e-06
      1.82674721e-05 5.93493714e-05 6.69424571e-06 2.03287907e-20
      2.03287907e-20 2.03287907e-20 2.82781675e-05 7.77507084e-05
      1.02179969e-04 1.02179969e-04 5.27074262e-05 2.03287907e-20
      -9.16955469e-06 -5.90121235e-05 -6.64194704e-06 9.09791743e-06
      1.82674721e-05 5.93493714e-05 6.69424571e-06 2.03287907e-20
      2.03287907e-20 2.03287907e-20 4.98620902e-05 1.02179969e-04
      1.02179969e-04 8.05960444e-05 3.11235017e-05 -3.37290612e-06
      -1.24897597e-05 -5.90121235e-05 -6.64194704e-06 9.09791743e-06
      1.82674721e-05 5.65040355e-05 6.69424571e-06 2.03287907e-20
      2.03287907e-20 2.82781675e-05 7.77507084e-05 1.02179969e-04
      9.49957976e-05 4.55232584e-05 2.03287907e-20 -6.74581224e-06
      -1.58626663e-05 -5.90121235e-05 -6.64194704e-06 9.09791743e-06
      1.82674721e-05 5.65040355e-05 6.69424571e-06 2.03287907e-20
      6.69424571e-06 5.65040355e-05 1.02179969e-04 1.02179969e-04
      6.68821885e-05 1.72450927e-05 2.03287907e-20 -6.74581224e-06
      -1.58626663e-05 -5.90121235e-05 -6.64194704e-06 9.09791743e-06
      1.82674721e-05 5.65040355e-05 6.69424571e-06 2.03287907e-20
      2.82781675e-05 7.77507084e-05 1.02179969e-04 8.05960444e-05
      3.77654505e-05 6.69424571e-06 2.03287907e-20 -6.74581224e-06
      -1.58626663e-05 -5.95020429e-05 -7.18416459e-06 9.09791743e-06
      1.82674721e-05 5.65040355e-05 6.69424571e-06 2.03287907e-20
      5.65040355e-05 1.02179969e-04 1.02179969e-04 7.35241338e-05
      2.77359504e-05 1.33361928e-05 1.33361928e-05 6.59038051e-06
      -2.52647237e-06 -5.28600940e-05 -7.18416459e-06 9.09791743e-06
      1.82674721e-05 5.65040355e-05 1.33361928e-05 1.33361928e-05
      7.77507084e-05 1.02179969e-04 1.02179969e-04 9.49957976e-05
      7.06787978e-05 5.65040355e-05 5.65040355e-05 4.97582223e-05
      4.06413710e-05 -2.44292569e-05 0. 7.90498143e-06 1.82674721e-05
      7.77507084e-05 5.65040355e-05 3.49201146e-05 9.55380165e-05
      1.02179969e-04 1.02179969e-04 1.02179969e-04 1.02179969e-04
      9.93346330e-05 9.93346330e-05 9.54341522e-05 8.63172972e-05 0. 0.
      6.69311066e-06 1.82674721e-05 1.02179969e-04 1.02179969e-04
      7.77507084e-05 8.88437717e-05 8.88437717e-05 8.88437717e-05
      8.88437717e-05 8.88437717e-05 8.88437717e-05 8.88437717e-05
      8.20979621e-05 7.29811072e-05 1.91469571e-05 0. 7.90498143e-06
      1.82674721e-05 1.02179969e-04 1.02179969e-04 8.11382633e-05
      4.60131778e-05 4.60131778e-05 4.60131778e-05 4.60131778e-05
      4.60131778e-05 4.60131778e-05 4.60131778e-05 3.92673683e-05
      3.01505133e-05 1.68607567e-05 -6.64194704e-06 9.09791743e-06
      1.82674721e-05 8.77802086e-05 5.97793369e-05 3.16134210e-05
      2.84533598e-06 2.84533598e-06 2.84533598e-06 2.84533598e-06
      2.84533598e-06 2.84533598e-06 2.84533598e-06 -3.90047626e-06
      -1.30173294e-05 -1.15700814e-05 -1.04532055e-05 1.24708240e-05
      1.82674721e-05 6.64212857e-05 1.67237467e-05 2.03287907e-20
      2.03287907e-20 2.03287907e-20 2.03287907e-20 2.03287907e-20
      2.03287907e-20 2.03287907e-20 -3.37290612e-06 -1.00660163e-05
      -1.46507937e-05 -2.03877098e-05 -1.42049130e-05 1.58437306e-05
      1.82674721e-05 5.65040355e-05 6.69424571e-06 2.03287907e-20
      2.03287907e-20 2.03287907e-20 2.03287907e-20 2.03287907e-20
      2.03287907e-20 2.03287907e-20 -3.37290612e-06 -1.00660163e-05
      -1.34389229e-05 -1.67710314e-05 -1.60706095e-05 1.16255251e-05
      1.16255251e-05 4.31678418e-05 2.03287907e-20 2.03287907e-20
      2.03287907e-20 2.03287907e-20 2.03287907e-20 2.03287907e-20
      2.03287907e-20 2.03287907e-20 2.03287907e-20 2.03287907e-20
      2.03287907e-20 -1.77318652e-05 -2.37245531e-05 4.93127936e-06
      2.26631455e-05 2.87680850e-05 2.03287907e-20 2.03287907e-20
      2.03287907e-20 2.03287907e-20 2.03287907e-20 2.03287907e-20
      2.03287907e-20 2.03287907e-20 2.03287907e-20 2.03287907e-20
      2.03287907e-20 2.03287907e-20 2.84533598e-06 2.84533598e-06
      2.84533598e-06 2.03287907e-20 2.03287907e-20 2.03287907e-20</_>
    <_>
      -4.23516474e-21 -4.23516474e-21 1.52884274e-06 3.04574132e-06
      2.30944388e-05 2.30944388e-05 2.30944388e-05 2.30944388e-05
      2.30944388e-05 2.30944388e-05 5.52187794e-06 2.30944388e-05
      2.30944388e-05 2.30944388e-05 1.52884274e-06 -4.23516474e-21
      -4.23516474e-21 1.57828108e-05 2.93088797e-05 3.24927714e-05
      5.93164186e-05 5.93164186e-05 3.60763624e-05 1.28677357e-05
      1.28677357e-05 4.04699949e-06 -1.92166626e-05 -1.04648379e-05
      2.55879186e-05 3.33248063e-05 2.18228688e-05 -4.23516474e-21
      -4.23516474e-21 1.65472320e-05 3.00733027e-05 3.56619748e-05
      4.56470116e-05 3.60763624e-05 1.97024401e-05 1.28677357e-05
      1.28677357e-05 -1.92166626e-05 -1.92166626e-05 -1.92166626e-05
      2.55879186e-05 4.00997560e-05 3.61633902e-05 -4.23516474e-21
      -4.23516474e-21 1.65472320e-05 3.68482542e-05 3.20843974e-05
      3.20843974e-05 2.25137464e-05 1.04482679e-05 8.00974794e-06
      -1.53228266e-05 -2.40746504e-05 -2.40746504e-05 -2.40746504e-05
      1.19091947e-05 2.44923103e-05 2.29754114e-05 -4.23516474e-21
      -4.23516474e-21 1.65472320e-05 3.68482542e-05 3.20843974e-05
      2.32636612e-05 1.05091203e-05 -2.22121034e-05 -3.21971420e-05
      -4.09489658e-05 -4.09489658e-05 -4.09489658e-05 -4.09489658e-05
      -1.37169445e-05 7.53937229e-06 -4.23516474e-21 -4.23516474e-21
      -4.23516474e-21 1.65472320e-05 4.69119113e-05 2.23144380e-05
      1.35626142e-05 5.55955246e-08 -2.57051070e-05 -5.24817151e-05
      -5.93164186e-05 -5.93164186e-05 -5.93164186e-05 -5.93164186e-05
      -3.20843974e-05 -4.23516474e-21 -4.23516474e-21 -4.23516474e-21
      -4.23516474e-21 1.89857510e-05 5.93164186e-05 2.72320212e-05
      2.72320212e-05 8.35262290e-06 -1.20357008e-05 -3.89191009e-05
      -5.24817151e-05 -5.93164186e-05 -5.93164186e-05 -5.93164186e-05
      -3.20843974e-05 -4.23516474e-21 -4.23516474e-21 -4.23516474e-21
      -4.23516474e-21 1.89857510e-05 5.93164186e-05 5.04956806e-05
      3.52194220e-05 9.56507574e-06 -1.32689138e-05 -2.33325736e-05
      -4.57538044e-05 -5.93164186e-05 -5.93164186e-05 -5.93164186e-05
      -3.20843974e-05 -4.23516474e-21 -4.23516474e-21 -4.23516474e-21
      -4.23516474e-21 2.90494118e-05 5.93164186e-05 5.93164186e-05
      5.85519956e-05 4.24683021e-05 2.16551816e-05 2.40746504e-05
      1.16481669e-05 -2.51781094e-05 -3.76612370e-05 -4.00997560e-05
      -2.24383875e-05 -4.23516474e-21 -4.23516474e-21 -4.23516474e-21
      -4.23516474e-21 3.90344503e-05 5.93164186e-05 5.93164186e-05
      5.93164186e-05 5.85519956e-05 3.56671517e-05 3.56671517e-05
      3.19827850e-05 -1.36642284e-05 -2.44136863e-05 -2.51781094e-05
      -1.04292167e-05 9.64601077e-06 -4.23516474e-21 -4.23516474e-21
      -4.23516474e-21 3.90344503e-05 5.93164186e-05 5.93164186e-05
      5.93164186e-05 5.93164186e-05 5.93164186e-05 5.93164186e-05
      4.56470116e-05 0. -7.64421372e-07 -8.29184955e-06 2.81833331e-06
      2.16551816e-05 9.64601077e-06 -4.23516474e-21 1.52884274e-06
      4.65618759e-05 5.93164186e-05 5.93164186e-05 5.93164186e-05
      4.93313819e-05 4.97457659e-05 4.00997560e-05 2.64303508e-05
      -1.92166626e-05 -9.57065095e-06 6.83470307e-06 2.64675982e-05
      3.49027323e-05 1.20845307e-05 -4.23516474e-21 3.04574132e-06
      3.73412622e-05 5.93164186e-05 4.93313819e-05 3.97607291e-05
      1.76315898e-05 2.44923103e-05 3.37248712e-05 2.00554641e-05
      -2.48390716e-05 -2.16361314e-05 3.99196279e-06 2.72320212e-05
      5.85519956e-05 3.49027323e-05 -4.23516474e-21 3.04574132e-06
      2.72776015e-05 4.93313819e-05 2.96970702e-05 1.68671686e-05
      8.30379304e-06 7.53937229e-06 3.22895676e-06 -1.03336570e-05
      -4.84883385e-05 -2.48390716e-05 1.57249417e-06 2.72320212e-05
      5.93164186e-05 5.24271418e-05 -4.23516474e-21 1.52884274e-06
      9.05627076e-06 1.51930708e-05 9.05627076e-06 7.53937229e-06
      -4.23516474e-21 -4.23516474e-21 -1.36694061e-05 -2.72320212e-05
      -5.93164186e-05 -4.84883385e-05 -8.83793837e-06 1.76613685e-05
      5.93164186e-05 5.77995197e-05 1.00636598e-05 -4.23516474e-21
      7.64421372e-07 8.30379304e-06 7.64421372e-07 -4.23516474e-21
      -4.23516474e-21 -4.23516474e-21 -1.36694061e-05 -2.72320212e-05
      -5.93164186e-05 -5.93164186e-05 -2.41762646e-05 1.52419007e-05
      5.93164186e-05 5.77995197e-05 2.00486975e-05 -4.23516474e-21
      -4.23516474e-21 -4.23516474e-21 -4.23516474e-21 -4.23516474e-21
      -4.23516474e-21 -4.23516474e-21 -1.36694061e-05 -2.72320212e-05
      -5.93164186e-05 -5.93164186e-05 -2.41762646e-05 1.52419007e-05
      5.93164186e-05 5.85519956e-05 2.68236490e-05 1.00636598e-05
      1.00636598e-05 1.00636598e-05 -4.23516474e-21 -4.23516474e-21
      -4.23516474e-21 -4.23516474e-21 -1.36694061e-05 -2.72320212e-05
      -5.93164186e-05 -5.93164186e-05 -2.41762646e-05 1.52419007e-05
      5.93164186e-05 5.93164186e-05 2.68236490e-05 2.49066852e-05
      2.56711064e-05 2.56711064e-05 1.25021797e-05 -4.23516474e-21
      -4.23516474e-21 -4.23516474e-21 -1.36694061e-05 -2.72320212e-05
      -5.93164186e-05 -5.93164186e-05 -2.17377456e-05 1.76613685e-05
      5.93164186e-05 5.85519956e-05 2.68236490e-05 4.56521921e-05
      5.31796177e-05 5.31796177e-05 3.53171163e-05 1.25021797e-05
      -4.23516474e-21 -4.23516474e-21 -1.36694061e-05 -2.72320212e-05
      -5.93164186e-05 -5.93164186e-05 -1.20917339e-05 2.72320212e-05
      5.93164186e-05 5.77995197e-05 2.68236490e-05 5.39440407e-05
      5.93164186e-05 5.93164186e-05 5.31796177e-05 3.28976494e-05
      1.00636598e-05 -4.23516474e-21 -1.36694061e-05 -2.72320212e-05
      -5.05645949e-05 -4.84883385e-05 -1.13392571e-05 2.72320212e-05
      5.93164186e-05 5.77995197e-05 1.00636598e-05 3.91010144e-05
      5.68969517e-05 5.93164186e-05 5.93164186e-05 3.60815393e-05
      2.24872165e-05 1.00636598e-05 -3.60574631e-06 -1.71683605e-05
      -2.84772559e-05 -2.24824016e-05 1.35626142e-05 2.72320212e-05
      5.93164186e-05 5.00076712e-05 -4.23516474e-21 3.04574132e-06
      3.73412622e-05 5.93164186e-05 5.93164186e-05 5.85519956e-05
      3.60815393e-05 2.64355276e-05 1.27661224e-05 -7.96492031e-07
      -4.90984121e-06 6.83470307e-06 2.03973177e-05 2.72320212e-05
      5.85519956e-05 2.96875623e-05 -4.23516474e-21 1.52884274e-06
      2.40746594e-05 5.68969517e-05 5.93164186e-05 5.93164186e-05
      5.93164186e-05 5.24817151e-05 3.89191009e-05 3.20843974e-05
      1.75725618e-05 1.35626142e-05 2.72320212e-05 2.72320212e-05
      4.00226345e-05 9.64601077e-06 -4.23516474e-21 -4.23516474e-21
      7.64421372e-07 3.41383202e-05 4.69119113e-05 5.93164186e-05
      5.93164186e-05 5.24817151e-05 3.89191009e-05 3.20843974e-05
      1.75725618e-05 1.35626142e-05 2.40481313e-05 1.08720960e-05
      1.04104320e-05 -4.23516474e-21 -4.23516474e-21 -4.23516474e-21
      -4.23516474e-21 7.64421372e-07 1.52884274e-06 3.41383202e-05
      4.44733923e-05 4.69119113e-05 5.93164186e-05 5.68969517e-05
      2.91971337e-05 1.08720960e-05 -1.16103065e-05 -1.75725618e-05
      -4.23516474e-21 -4.23516474e-21 -4.23516474e-21 -4.23516474e-21
      -4.23516474e-21 -4.23516474e-21 -4.23516474e-21 -4.23516474e-21
      -4.23516474e-21 -4.23516474e-21 -4.23516474e-21 -4.23516474e-21
      -4.23516474e-21 -4.23516474e-21 -4.23516474e-21 -4.23516474e-21
      -4.23516474e-21 -4.23516474e-21 -4.23516474e-21</_>
    <_>
      0. 0. 0. 0. 0. 0. 0. 0. 0. 0. -1.25890447e-05 0. 0. 0. 0. 0. 0. 0.
      0. 0. 0. 0. -3.35922323e-06 -2.10047347e-06 2.45538308e-06
      2.71759427e-06 -8.87139777e-06 -7.15741544e-06 -5.26773601e-06 0.
      0. 0. 0. 0. 0. -3.35922323e-06 -3.35922323e-06 -3.35922323e-06
      -4.20861738e-07 2.45538308e-06 -1.17658847e-05 -5.03142473e-05
      -3.55482844e-05 -1.94639761e-05 9.49822697e-06 1.47659630e-05 0.
      0. 0. 0. 0. -6.69220253e-06 -6.69220253e-06 -6.69220253e-06
      -1.25018159e-05 -5.03457727e-07 -4.62478283e-06 0. -4.55585632e-06
      -1.27418616e-05 -3.40239831e-06 0. 0. 0. 0. 0. 0. -6.69220253e-06
      -1.30114095e-05 -1.88210233e-05 -2.89106410e-05 -1.50261258e-05
      -1.47659630e-05 0. -4.55585632e-06 -1.27418616e-05 -9.67223605e-06
      0. 0. 0. 0. 0. 0. -2.15275850e-05 -3.81987666e-05 -5.42472008e-05
      -3.56674245e-05 -1.30863509e-05 0. -4.55585632e-06 -1.56775859e-05
      -1.93232790e-05 -2.44381990e-05 0. 0. 0. 0. 0. 0. -4.52408858e-05
      -5.08879784e-05 -3.88896187e-05 -1.46037610e-05 5.01259092e-06
      -2.87624471e-06 -1.56775859e-05 -3.99634446e-05 -5.19330861e-05
      -2.44381990e-05 0. 0. 0. 0. 0. 0. -2.71218923e-05 -3.43793181e-05
      -1.56370206e-05 -1.80392203e-06 1.29620412e-05 -1.22287702e-06
      -3.33820281e-05 -7.25732534e-05 -5.19330861e-05 -2.44381990e-05 0.
      0. 0. 0. 0. 0. 4.59172952e-06 2.69914308e-05 4.08759443e-05
      5.17705666e-05 4.15317445e-05 -2.78246875e-06 -4.86597019e-05
      -6.34256648e-05 -4.73413565e-05 -2.44381990e-05 0. 0. 0. 0. 0.
      4.59172952e-06 9.14758584e-06 3.35728473e-05 7.25732534e-05
      7.25732534e-05 6.21719082e-05 1.39380809e-05 -4.86597019e-05
      -6.34256648e-05 -4.27855011e-05 -1.52906141e-05 4.59172952e-06 0.
      0. 0. 0. 4.59172952e-06 3.35728473e-05 5.78072904e-05
      7.25732534e-05 7.25732534e-05 4.83388103e-05 -2.48360237e-07
      -4.86597019e-05 -4.86597019e-05 -2.80195381e-05 -1.52906141e-05
      9.14758584e-06 4.59172952e-06 0. 0. 4.59172952e-06 9.14758584e-06
      3.35728473e-05 7.25732534e-05 7.25732534e-05 7.25732534e-05
      5.48688113e-05 3.07069022e-05 0. 0. 1.57897757e-05 1.73191947e-05
      2.39135479e-05 9.14758584e-06 4.59172952e-06 0. 4.59172952e-06
      3.35728473e-05 7.25732534e-05 7.25732534e-05 7.25732534e-05
      5.03129559e-05 2.78773823e-05 2.15593172e-05 -9.14758584e-06
      -9.14758584e-06 1.94172881e-05 4.81350544e-05 4.83388103e-05
      2.39135479e-05 9.14758584e-06 4.59172952e-06 2.69914308e-05
      5.12772895e-05 7.25732534e-05 6.80173980e-05 6.34256648e-05
      4.57212263e-05 2.61977711e-05 -1.27038575e-05 -4.16179901e-05
      -9.14758584e-06 1.94172881e-05 4.81350544e-05 6.60432488e-05
      4.17573938e-05 9.14758584e-06 4.59172952e-06 3.35728473e-05
      7.25732534e-05 7.25732534e-05 6.80173980e-05 4.57212263e-05
      6.58141835e-06 -3.35922323e-06 -2.74948889e-05 -6.59918369e-05
      -4.16179901e-05 1.48255585e-05 4.35791953e-05 7.25732534e-05
      6.60432488e-05 9.14758584e-06 4.01400139e-05 6.60432488e-05
      7.25732534e-05 7.25732534e-05 6.80173980e-05 2.44252624e-05 0.
      -3.35922323e-06 -2.74948889e-05 -7.25732534e-05 -7.25732534e-05
      -2.41748457e-05 4.35791953e-05 7.25732534e-05 7.25732534e-05
      2.39135479e-05 4.46958693e-05 6.60432488e-05 7.25732534e-05
      6.80173980e-05 3.91912254e-05 0. 0. -3.35922323e-06
      -2.74948889e-05 -7.25732534e-05 -7.25732534e-05 -3.07562623e-05
      3.70491944e-05 7.25732534e-05 7.25732534e-05 2.39135479e-05
      5.78072904e-05 7.25732534e-05 7.25732534e-05 6.80173980e-05
      2.44252624e-05 0. 0. -3.35922323e-06 -2.74948889e-05
      -7.25732534e-05 -7.25732534e-05 -3.07562623e-05 3.70491944e-05
      7.25732534e-05 7.25732534e-05 9.14758584e-06 7.25732534e-05
      7.25732534e-05 7.25732534e-05 6.60432488e-05 2.24355736e-05 0. 0.
      -3.35922323e-06 -2.74948889e-05 -7.25732534e-05 -7.25732534e-05
      -4.09950844e-05 3.70491944e-05 7.25732534e-05 7.25732534e-05
      9.14758584e-06 3.24691100e-05 5.48688113e-05 7.25732534e-05
      7.25732534e-05 4.67214304e-05 1.78438440e-05 0. -3.35922323e-06
      -2.74948889e-05 -7.25732534e-05 -7.25732534e-05 -3.66304666e-05
      3.70491944e-05 7.25732534e-05 7.25732534e-05 4.59172952e-06
      3.24691100e-05 5.48688113e-05 7.25732534e-05 7.25732534e-05
      6.60432488e-05 4.01400139e-05 1.78438440e-05 -3.35922323e-06
      -2.74948889e-05 -6.63034152e-05 -3.99634446e-05 2.64846494e-06
      4.81350544e-05 7.25732534e-05 5.78072904e-05 4.59172952e-06
      4.59172952e-06 3.04949663e-05 5.48688113e-05 7.25732534e-05
      7.25732534e-05 5.12772895e-05 4.01400139e-05 3.21890620e-05
      8.05339641e-06 -9.66995958e-06 -1.76672747e-05 1.74431425e-05
      4.81350544e-05 7.25732534e-05 4.01028483e-05 4.59172952e-06 0.
      2.59391109e-05 3.70249691e-05 5.48688113e-05 7.25732534e-05
      7.25732534e-05 6.60432488e-05 5.61026100e-05 3.19669452e-05
      6.05904415e-06 1.67961161e-06 2.56527564e-05 4.81350544e-05
      4.01028483e-05 1.11731479e-05 0. 0. 0. 2.59391109e-05
      3.70249691e-05 5.48688113e-05 7.25732534e-05 7.08936423e-05
      6.75606643e-05 5.54797080e-05 2.29903872e-05 3.33297930e-06
      -5.13803525e-06 -2.17919478e-06 1.11731479e-05 0. 0. 0. 0. 0.
      1.11731479e-05 3.70249691e-05 3.70249691e-05 3.53453543e-05
      3.20123763e-05 3.03327652e-05 3.71764781e-06 -5.53841801e-06
      -6.73505110e-06 -1.78567807e-05 0. 0. 0. 0. 0. 0. 0.
      6.58141835e-06 1.77031488e-05 2.22590043e-05 2.22590043e-05
      2.22590043e-05 1.04098508e-05 -1.32650521e-05 -2.44381990e-05
      -1.25890447e-05 0. 0. 0. 0. 0. 0. 0. 0. 0. 0. 0. 0. 0. 0. 0. 0. 0.
      0. 0.</_>
    <_>
      1.35525272e-20 1.35525272e-20 1.35525272e-20 1.35525272e-20
      1.35525272e-20 1.35525272e-20 1.35525272e-20 1.35525272e-20
      1.35525272e-20 1.35525272e-20 -2.85127699e-05 1.35525272e-20
      1.35525272e-20 1.35525272e-20 1.35525272e-20 1.35525272e-20
      8.14287796e-06 6.06606227e-05 6.06606227e-05 6.06606227e-05
      6.06606227e-05 6.06606227e-05 1.84917026e-05 -4.54798792e-05
      -4.54798792e-05 -3.76600619e-05 -5.18605411e-05 -3.76600619e-05
      6.06606227e-05 6.06606227e-05 1.62221386e-05 1.62221386e-05
      6.45151449e-05 1.08953631e-04 9.78004391e-05 4.46526028e-05
      4.46526028e-05 4.46526028e-05 2.38975881e-05 -8.34005914e-06
      -1.80491552e-05 -3.40630613e-05 -2.29098732e-05 -1.32766290e-05
      1.08953631e-04 1.08953631e-04 6.45151449e-05 6.45151449e-05
